#ifndef __MATRIXMUL_H__
#define __MATRIXMUL_H__

#include <cmath>
#include "ap_fixed.h"
#include <string>
#include <stdio.h>
using namespace std;

// Compare TB vs HW C-model and/or RTL
#define HW_COSIM 1

#define NO_OF_INPUTS 784
#define N_LAYER_1 32
#define N_LAYER_2 16
#define NO_OF_OUTPUTS 10

typedef ap_fixed<16,8> my_type ;
// Prototype of top level function for C-synthesis
void MLP_MNIST(my_type x[NO_OF_INPUTS],my_type predict[NO_OF_OUTPUTS]);
my_type relu(my_type x);


//Parameters : w1,b1,w2,b2,w3,b3-------------
extern const my_type w1[784][32];
extern const my_type w2[32][16];
extern const my_type w3[16][10];
extern const my_type b1[32];
extern const my_type b2[16];
extern const my_type b3[10];
/*
extern const my_type w1[784][32]= {{-0.125, 0.000, 0.125, 0.000, 0.000, 0.000, 0.000, 0.000, 0.000, 0.000, 0.000, 0.000, 0.125, 0.000, -0.125, 0.125, 0.000, 0.000, 0.000, 0.000, 0.000, 0.000, 0.125, 0.000, 0.000, 0.000, 0.000, 0.000, 0.000, 0.000 },
 {0.000, 0.125, 0.000, 0.000, -0.125, 0.000, 0.000, 0.000, 0.000, 0.000, 0.000, 0.000, 0.000, 0.125, 0.000, 0.000, 0.000, 0.125, -0.125, 0.000, 0.125, 0.000, 0.000, 0.125, 0.000, 0.000, 0.000, 0.125, 0.000, 0.125, 0.000, 0.125 },
 {0.125, 0.000, 0.125, 0.125, 0.000, 0.000, 0.000, 0.000, -0.125, 0.000, 0.000, 0.000, 0.000, 0.000, 0.000, 0.125, 0.000, 0.000, 0.000, 0.000, 0.000, 0.000, -0.125, 0.125, 0.000, 0.000, 0.000, 0.000, 0.125, -0.125, 0.000, 0.125 },
 {0.000, 0.125, 0.000, 0.000, 0.125, -0.125, -0.125, 0.000, -0.125, 0.000, 0.000, 0.000, -0.125, 0.000, 0.125, 0.000, 0.000, -0.125, 0.000, 0.125, 0.000, 0.000, 0.125, 0.000, 0.125, -0.125, -0.125, 0.125, 0.000, 0.125, -0.125, 0.000 },
 {0.000, 0.000, 0.125, 0.000, 0.125, -0.125, 0.000, 0.000, 0.000, 0.000, 0.000, 0.000, 0.000, 0.000, -0.125, 0.000, 0.000, 0.125, 0.125, -0.125, 0.000, 0.000, 0.000, 0.125, -0.125, 0.000, 0.000, 0.000, 0.000, 0.125, 0.000, -0.125 },
 {0.000, 0.000, -0.125, 0.000, 0.000, 0.000, 0.000, 0.000, 0.000, 0.000, 0.000, 0.000, 0.000, 0.000, 0.000, 0.000, 0.000, 0.000, 0.000, 0.125, -0.125, 0.000, 0.000, 0.000, 0.000, 0.125, 0.000, 0.000, 0.125, 0.000, 0.000, 0.000 },
 {-0.125, 0.000, 0.000, -0.125, 0.000, 0.000, 0.000, -0.125, -0.125, 0.000, -0.125, 0.000, 0.000, 0.125, -0.125, 0.125, 0.000, 0.000, 0.000, 0.000, 0.000, 0.000, -0.125, 0.000, 0.125, 0.125, 0.000, 0.000, -0.125, 0.000, 0.125, 0.000 },
 {-0.125, 0.125, 0.000, 0.000, 0.000, 0.000, -0.125, 0.000, 0.000, 0.000, 0.000, 0.000, 0.000, -0.125, 0.000, 0.000, -0.125, 0.000, 0.125, 0.000, 0.000, 0.000, 0.000, -0.125, 0.000, -0.125, 0.000, 0.125, 0.000, -0.125, 0.000, 0.000 },
 {0.125, 0.125, 0.000, 0.000, 0.000, 0.125, 0.000, 0.000, 0.000, 0.000, 0.000, -0.125, 0.125, 0.000, 0.000, 0.125, 0.000, -0.125, 0.000, 0.000, 0.000, 0.000, 0.125, 0.125, 0.000, 0.000, 0.125, 0.000, 0.125, -0.125, 0.000, 0.000 },
 {0.000, 0.125, 0.000, 0.125, 0.125, 0.000, 0.000, 0.000, 0.125, 0.000, 0.125, 0.000, 0.000, 0.125, 0.000, 0.125, 0.000, 0.000, 0.125, 0.000, 0.000, 0.000, 0.125, 0.000, -0.125, 0.000, 0.000, 0.000, 0.000, -0.125, -0.125, 0.125 },
 {0.000, 0.000, 0.000, 0.000, -0.125, -0.125, 0.000, 0.000, 0.000, 0.125, 0.000, 0.000, 0.000, 0.000, 0.000, 0.000, 0.125, 0.000, 0.000, 0.000, -0.125, 0.000, 0.000, 0.000, 0.000, 0.125, -0.125, 0.000, 0.000, 0.125, 0.125, 0.125 },
 {0.000, 0.000, 0.000, 0.000, 0.000, 0.000, 0.125, 0.000, 0.000, -0.125, 0.125, 0.000, 0.000, 0.000, 0.000, 0.000, 0.000, 0.000, 0.125, 0.000, 0.000, 0.000, 0.000, 0.000, -0.125, 0.000, -0.125, 0.000, 0.000, 0.000, -0.125, 0.000 },
 {0.000, 0.000, 0.125, 0.125, 0.125, 0.000, -0.125, 0.125, -0.125, 0.000, 0.000, -0.125, 0.000, 0.000, -0.125, 0.000, -0.125, -0.125, 0.000, 0.000, 0.000, 0.000, 0.125, 0.000, 0.000, 0.000, 0.000, 0.125, 0.000, 0.000, 0.000, 0.000 },
 {0.000, 0.000, 0.125, 0.000, 0.125, 0.125, -0.125, -0.125, 0.000, -0.125, 0.000, -0.125, 0.000, -0.125, 0.000, 0.000, 0.000, 0.000, -0.125, 0.000, 0.000, 0.000, 0.000, 0.000, 0.000, 0.125, 0.000, 0.125, 0.125, 0.000, 0.000, 0.000 },
 {0.000, 0.000, 0.000, 0.000, 0.125, 0.000, 0.125, 0.000, 0.000, 0.000, 0.000, 0.125, 0.000, 0.000, -0.125, 0.000, 0.000, 0.000, 0.000, 0.000, 0.000, 0.000, -0.125, 0.000, 0.000, 0.125, 0.000, 0.000, 0.000, 0.000, 0.000, -0.125 },
 {0.000, 0.000, 0.000, 0.000, 0.000, 0.000, 0.000, 0.000, 0.000, -0.125, 0.125, 0.000, 0.125, 0.125, 0.000, 0.000, 0.000, -0.125, 0.000, 0.000, -0.125, 0.125, 0.000, 0.000, 0.000, 0.000, 0.125, 0.000, 0.000, 0.000, 0.000, 0.125 },
 {0.000, 0.000, 0.000, 0.125, 0.000, -0.125, 0.000, -0.125, 0.000, 0.000, 0.125, 0.000, 0.125, 0.000, 0.000, 0.000, 0.000, 0.125, 0.000, -0.125, 0.000, 0.000, 0.000, 0.000, 0.125, 0.000, 0.000, 0.000, 0.000, -0.125, 0.000, 0.000 },
 {0.000, 0.000, 0.000, 0.000, -0.125, 0.000, 0.125, 0.000, 0.000, 0.125, -0.125, -0.125, 0.000, 0.000, 0.000, 0.000, 0.000, 0.000, 0.000, 0.000, 0.000, -0.125, 0.000, 0.000, 0.000, -0.125, 0.125, 0.000, 0.125, 0.000, -0.125, -0.125 },
 {0.125, 0.000, 0.000, -0.125, -0.125, 0.000, 0.000, -0.125, 0.000, -0.125, 0.125, 0.000, 0.000, 0.125, 0.000, 0.000, 0.000, 0.000, 0.000, 0.000, -0.125, 0.000, 0.000, 0.000, 0.125, 0.000, 0.000, 0.000, 0.000, 0.000, 0.125, -0.125 },
 {0.000, 0.000, 0.125, 0.000, 0.125, 0.000, 0.000, 0.000, -0.125, 0.000, 0.125, -0.125, -0.125, -0.125, 0.125, 0.125, 0.000, 0.000, 0.125, 0.000, 0.000, 0.000, 0.125, 0.000, 0.000, 0.000, 0.000, 0.000, 0.000, 0.000, 0.125, 0.000 },
 {-0.125, 0.000, 0.000, 0.000, 0.000, 0.000, 0.000, -0.125, 0.000, 0.000, 0.000, 0.000, -0.125, 0.125, 0.000, -0.125, 0.125, 0.000, 0.125, -0.125, 0.000, 0.000, 0.000, 0.000, 0.000, 0.000, 0.000, 0.125, -0.125, 0.000, -0.125, 0.000 },
 {0.125, 0.000, 0.000, 0.000, 0.000, 0.000, 0.125, 0.000, 0.000, 0.000, 0.000, 0.000, 0.000, 0.000, 0.000, -0.125, -0.125, 0.000, 0.000, 0.000, 0.000, 0.000, 0.000, 0.000, 0.125, 0.000, 0.125, 0.000, 0.000, 0.125, 0.125, 0.000 },
 {0.000, 0.125, 0.000, 0.000, 0.000, 0.000, 0.000, 0.125, 0.000, 0.000, 0.000, 0.000, -0.125, 0.000, 0.000, 0.000, 0.000, 0.000, 0.000, 0.000, 0.000, 0.000, -0.125, 0.000, 0.000, 0.125, 0.000, -0.125, 0.000, 0.000, 0.000, 0.000 },
 {0.000, 0.000, -0.125, 0.000, 0.000, 0.000, -0.125, 0.000, -0.125, 0.000, 0.125, 0.000, -0.125, 0.000, 0.000, 0.000, 0.000, 0.000, 0.125, 0.125, -0.125, 0.000, 0.000, 0.000, 0.000, 0.000, 0.000, 0.000, 0.125, 0.000, 0.000, 0.000 },
 {0.000, 0.000, 0.125, -0.125, -0.125, 0.000, 0.000, 0.000, 0.000, 0.000, 0.000, 0.125, 0.000, 0.000, 0.000, 0.125, 0.000, 0.000, -0.125, 0.000, 0.000, 0.000, 0.000, 0.000, -0.125, 0.000, 0.000, 0.000, 0.000, 0.000, 0.000, 0.000 },
 {0.000, 0.000, 0.000, 0.000, 0.125, 0.125, 0.000, 0.000, 0.000, 0.125, 0.000, -0.125, 0.000, 0.125, 0.000, 0.000, 0.000, 0.000, 0.000, 0.000, 0.000, 0.125, 0.125, -0.125, 0.000, 0.125, 0.000, 0.000, 0.125, 0.000, 0.000, 0.000 },
 {0.000, -0.125, 0.125, -0.125, 0.125, 0.000, 0.000, 0.000, -0.125, 0.000, 0.000, -0.125, 0.000, 0.000, -0.125, 0.000, 0.000, 0.125, 0.000, 0.000, 0.000, -0.125, 0.125, 0.000, 0.000, -0.125, 0.125, -0.125, 0.000, 0.000, 0.000, 0.125 },
 {0.125, 0.125, 0.125, 0.000, 0.000, 0.000, 0.000, 0.125, 0.000, 0.000, 0.000, 0.000, 0.125, 0.000, 0.000, 0.000, 0.000, 0.000, 0.000, 0.000, 0.000, 0.000, 0.125, 0.000, 0.000, 0.000, 0.000, 0.125, 0.000, 0.125, 0.000, 0.000 },
 {0.000, -0.125, 0.000, 0.000, 0.125, -0.125, 0.000, 0.000, 0.125, 0.000, -0.125, 0.125, 0.000, 0.000, 0.000, 0.000, 0.000, 0.000, 0.000, 0.000, 0.000, 0.000, 0.000, 0.125, 0.125, 0.000, 0.000, 0.125, 0.000, 0.000, -0.125, 0.000 },
 {-0.125, 0.125, 0.000, 0.000, 0.000, 0.000, -0.125, 0.125, 0.125, 0.000, 0.000, 0.000, 0.000, -0.125, -0.125, 0.000, 0.000, 0.125, 0.000, 0.000, 0.125, 0.000, 0.000, 0.000, -0.125, 0.000, -0.125, 0.000, 0.000, 0.000, 0.000, 0.000 },
 {0.125, 0.000, -0.125, 0.125, -0.125, 0.000, 0.000, 0.000, 0.000, 0.000, 0.000, 0.000, 0.125, 0.000, 0.000, 0.125, 0.000, 0.000, 0.125, 0.000, 0.125, -0.125, 0.000, 0.125, 0.000, 0.000, 0.000, 0.000, 0.000, -0.125, 0.000, 0.000 },
 {0.000, 0.000, 0.000, 0.125, 0.125, 0.000, 0.000, 0.000, -0.125, 0.000, 0.000, 0.000, 0.000, 0.000, 0.000, 0.125, 0.000, -0.125, -0.125, 0.000, 0.125, 0.000, 0.000, 0.000, 0.000, 0.000, 0.000, 0.000, 0.125, 0.000, 0.000, 0.000 },
 {0.000, 0.000, 0.000, 0.000, 0.000, 0.125, -0.125, 0.000, 0.000, 0.000, 0.000, 0.000, -0.125, 0.000, 0.000, 0.000, -0.125, -0.125, 0.125, 0.000, 0.000, 0.000, 0.000, 0.000, 0.000, 0.000, 0.000, 0.000, 0.000, 0.000, 0.000, -0.125 },
 {0.000, 0.000, 0.125, 0.000, 0.000, 0.000, 0.000, 0.000, 0.000, 0.000, 0.000, 0.125, 0.000, 0.000, 0.000, 0.000, 0.000, -0.125, 0.000, 0.000, 0.000, 0.000, 0.000, 0.000, 0.125, 0.000, 0.000, 0.000, 0.000, 0.125, 0.000, 0.000 },
 {0.125, 0.125, 0.000, 0.000, 0.125, 0.000, -0.125, -0.125, 0.000, 0.000, 0.000, 0.000, -0.125, 0.125, -0.125, 0.000, -0.125, -0.125, 0.125, 0.000, 0.000, -0.125, 0.000, 0.000, 0.000, 0.000, 0.000, 0.125, -0.125, 0.000, 0.000, -0.125 },
 {0.125, 0.250, 0.125, 0.000, 0.000, -0.125, -0.250, -0.125, 0.000, 0.000, 0.125, 0.000, 0.000, 0.250, 0.000, 0.000, 0.000, -0.125, 0.125, 0.000, 0.000, -0.125, 0.000, -0.125, 0.000, 0.000, 0.000, 0.125, 0.000, 0.000, -0.125, 0.125 },
 {0.125, 0.125, 0.125, 0.125, 0.000, -0.125, -0.125, 0.000, -0.125, 0.000, 0.250, -0.125, -0.125, 0.125, -0.125, 0.000, -0.125, -0.125, 0.125, 0.000, 0.000, 0.000, 0.000, -0.125, 0.000, 0.000, 0.000, 0.250, 0.000, -0.125, 0.000, 0.000 },
 {0.125, 0.125, 0.125, 0.125, -0.125, 0.000, -0.125, 0.000, -0.125, 0.000, 0.125, 0.000, -0.125, 0.125, -0.125, 0.000, 0.000, -0.125, 0.250, 0.000, 0.000, -0.125, 0.125, -0.125, -0.125, 0.125, 0.000, 0.125, -0.125, 0.000, 0.000, -0.125 },
 {0.125, 0.250, 0.250, 0.250, -0.125, 0.125, -0.250, -0.125, 0.000, -0.125, 0.250, 0.000, -0.125, 0.250, -0.125, 0.000, -0.125, -0.250, 0.250, 0.125, 0.125, 0.000, 0.125, -0.125, 0.000, 0.000, 0.000, 0.250, -0.125, 0.000, 0.000, 0.000 },
 {0.250, 0.250, 0.500, 0.250, -0.125, 0.125, -0.250, 0.000, 0.000, 0.000, 0.250, -0.125, 0.000, 0.250, -0.125, 0.000, -0.125, -0.250, 0.500, 0.125, 0.000, 0.000, 0.250, -0.125, -0.250, 0.125, 0.000, 0.250, 0.000, 0.000, -0.125, 0.000 },
 {0.250, 0.500, 0.500, 0.500, -0.125, 0.125, -0.500, -0.125, -0.125, 0.125, 0.250, -0.125, -0.125, 0.500, -0.250, -0.125, -0.125, -0.250, 0.500, 0.125, 0.125, 0.000, 0.250, 0.000, -0.250, 0.000, 0.125, 0.500, 0.000, -0.125, -0.250, 0.125 },
 {0.250, 0.500, 0.250, 0.500, -0.125, 0.125, -0.500, -0.125, 0.000, 0.125, 0.250, -0.125, 0.000, 0.250, -0.125, 0.000, 0.000, -0.250, 0.500, 0.125, 0.000, 0.000, 0.250, 0.000, -0.250, 0.125, 0.000, 0.500, 0.000, -0.125, -0.125, 0.000 },
 {0.250, 0.500, 0.500, 0.500, -0.125, 0.000, -0.500, -0.125, -0.125, 0.125, 0.250, -0.125, -0.125, 0.500, 0.000, -0.125, -0.125, -0.250, 0.500, 0.250, 0.125, 0.000, 0.250, 0.000, -0.125, 0.000, 0.000, 0.500, 0.125, -0.125, -0.125, 0.000 },
 {0.125, 0.125, 0.250, 0.125, 0.000, -0.125, -0.125, -0.125, 0.000, 0.125, 0.250, 0.000, 0.000, 0.500, 0.000, 0.000, 0.125, -0.250, 0.250, 0.250, 0.125, -0.125, 0.000, 0.125, 0.125, 0.250, 0.000, 0.500, 0.000, -0.125, -0.125, 0.125 },
 {0.125, 0.125, 0.500, 0.250, 0.000, 0.000, -0.250, -0.125, 0.000, 0.000, 0.250, 0.000, 0.000, 0.500, 0.000, -0.125, 0.125, -0.250, 0.250, 0.250, 0.250, 0.000, 0.125, 0.125, 0.000, 0.125, 0.125, 0.500, 0.000, 0.000, -0.125, 0.000 },
 {0.250, 0.250, 0.500, 0.250, 0.125, -0.125, -0.250, 0.000, -0.125, 0.000, 0.500, 0.000, 0.000, 0.500, -0.125, -0.125, 0.000, -0.250, 0.500, 0.500, 0.125, 0.000, 0.125, 0.125, 0.000, 0.000, 0.000, 0.500, 0.125, -0.125, -0.125, 0.000 },
 {0.500, 0.250, 0.250, 0.250, 0.000, 0.000, -0.500, 0.000, 0.000, 0.125, 0.250, 0.000, 0.000, 0.250, 0.000, 0.000, -0.125, -0.250, 0.500, 0.250, 0.125, 0.000, 0.250, 0.000, -0.125, -0.125, 0.000, 0.500, 0.000, 0.000, -0.125, 0.000 },
 {0.125, 0.250, 0.250, 0.250, -0.125, 0.125, -0.250, -0.125, 0.000, 0.125, 0.125, 0.000, 0.000, 0.250, 0.000, 0.000, 0.000, -0.250, 0.500, 0.125, 0.125, 0.000, 0.125, 0.000, 0.000, 0.000, 0.000, 0.250, 0.000, 0.000, -0.125, 0.000 },
 {0.125, 0.250, 0.250, 0.125, -0.125, 0.000, -0.250, -0.125, 0.000, 0.000, 0.250, 0.000, 0.000, 0.125, -0.125, -0.125, -0.125, -0.125, 0.250, 0.125, -0.125, 0.000, 0.250, -0.125, -0.125, 0.000, 0.125, 0.250, 0.000, 0.000, 0.000, 0.000 },
 {0.000, 0.125, 0.125, 0.125, 0.000, 0.000, -0.125, -0.125, -0.125, 0.125, 0.125, 0.000, 0.000, 0.125, -0.125, 0.000, 0.000, -0.125, 0.125, 0.000, 0.000, -0.125, 0.000, -0.125, -0.125, 0.000, 0.000, 0.000, -0.125, 0.000, 0.000, 0.000 },
 {0.000, 0.000, 0.125, 0.125, 0.000, 0.125, 0.000, 0.125, 0.000, 0.000, 0.125, 0.000, 0.000, 0.000, -0.125, 0.000, -0.125, -0.125, 0.125, 0.000, 0.000, -0.125, 0.000, 0.000, 0.000, 0.000, 0.000, 0.000, 0.125, -0.125, -0.125, 0.125 },
 {0.000, 0.125, 0.125, 0.000, 0.000, 0.000, 0.000, 0.000, 0.000, 0.000, 0.000, 0.125, -0.125, 0.000, 0.000, 0.000, -0.125, 0.000, 0.125, 0.000, 0.000, -0.125, -0.125, 0.000, -0.125, 0.000, 0.000, 0.000, 0.000, 0.000, 0.000, 0.000 },
 {0.000, 0.000, 0.000, 0.000, 0.000, -0.125, -0.125, 0.000, 0.000, 0.000, 0.125, 0.000, 0.000, 0.000, 0.000, 0.000, 0.000, 0.000, 0.125, 0.000, 0.000, 0.125, 0.125, 0.000, 0.000, -0.125, 0.000, 0.000, 0.000, 0.000, 0.000, 0.000 },
 {0.000, -0.125, 0.125, -0.125, 0.000, 0.000, 0.000, -0.125, 0.000, 0.000, 0.000, -0.125, 0.000, 0.000, 0.000, 0.000, 0.000, 0.000, 0.000, 0.000, 0.000, 0.000, 0.000, -0.125, 0.000, 0.000, 0.000, -0.125, -0.125, 0.125, 0.000, 0.000 },
 {0.000, 0.125, 0.000, 0.000, 0.000, 0.000, 0.000, 0.000, 0.125, 0.000, 0.000, 0.000, 0.000, 0.000, 0.000, 0.000, 0.000, 0.000, -0.125, 0.000, 0.000, 0.000, 0.125, 0.000, 0.000, 0.000, 0.000, 0.000, 0.000, 0.125, -0.125, 0.000 },
 {0.000, 0.000, 0.000, 0.000, -0.125, 0.000, 0.000, 0.000, 0.000, 0.000, 0.000, 0.000, 0.000, 0.125, 0.000, 0.125, 0.000, -0.125, -0.125, -0.125, 0.000, 0.000, -0.125, 0.000, 0.125, 0.125, 0.000, 0.000, 0.000, 0.125, 0.000, 0.000 },
 {0.125, -0.125, 0.000, 0.000, -0.125, 0.000, -0.125, 0.000, 0.000, 0.000, 0.000, 0.000, 0.000, 0.125, 0.000, 0.125, 0.000, 0.125, 0.000, 0.000, 0.000, 0.000, 0.000, 0.000, 0.000, 0.000, 0.000, 0.000, 0.000, -0.125, 0.000, 0.000 },
 {0.125, -0.125, 0.125, 0.000, 0.125, -0.125, 0.000, 0.000, 0.000, 0.000, 0.125, 0.125, 0.000, 0.000, 0.000, 0.000, 0.125, 0.000, 0.000, 0.000, 0.000, 0.000, 0.125, -0.125, 0.000, 0.000, 0.000, 0.000, 0.000, 0.000, -0.125, 0.000 },
 {0.000, 0.000, 0.000, 0.000, 0.000, 0.125, 0.000, 0.000, 0.000, 0.000, 0.125, 0.125, 0.000, 0.000, 0.000, -0.125, 0.000, 0.000, 0.125, 0.000, 0.000, 0.000, 0.000, 0.125, 0.000, 0.000, 0.000, 0.000, 0.000, 0.000, 0.000, -0.125 },
 {0.125, 0.000, 0.000, -0.125, 0.000, 0.000, 0.000, 0.125, 0.000, 0.000, 0.000, 0.125, 0.000, 0.000, -0.125, 0.125, -0.125, 0.000, 0.125, -0.125, 0.000, 0.000, 0.000, 0.000, 0.000, -0.125, 0.000, 0.000, 0.000, 0.125, 0.000, 0.000 },
 {0.000, 0.125, 0.125, 0.125, 0.125, 0.125, -0.125, 0.000, 0.000, 0.000, 0.000, 0.000, 0.000, 0.125, 0.000, 0.125, -0.125, 0.000, 0.000, 0.000, 0.000, 0.125, 0.000, 0.000, 0.000, 0.000, 0.000, 0.000, 0.125, 0.000, 0.000, 0.000 },
 {0.125, 0.000, 0.000, 0.000, 0.000, 0.125, 0.000, 0.000, 0.125, 0.000, 0.125, 0.125, 0.000, 0.125, 0.000, 0.000, 0.000, 0.000, 0.125, 0.000, 0.000, 0.000, 0.000, 0.000, 0.000, -0.125, 0.000, 0.000, 0.000, 0.000, 0.000, 0.000 },
 {0.250, 0.250, 0.250, 0.125, 0.125, 0.000, -0.125, -0.125, -0.125, 0.000, 0.125, 0.000, -0.125, 0.125, -0.125, -0.125, -0.125, -0.250, 0.250, 0.000, 0.125, -0.250, 0.125, 0.000, 0.000, 0.000, 0.125, 0.125, -0.125, 0.000, 0.000, 0.000 },
 {0.125, 0.500, 0.500, 0.250, 0.000, 0.000, -0.250, -0.250, -0.125, 0.000, 0.250, 0.125, 0.000, 0.250, -0.250, -0.125, 0.000, -0.250, 0.500, 0.000, 0.125, -0.250, 0.250, 0.000, 0.000, 0.000, 0.000, 0.250, 0.000, -0.250, -0.250, 0.125 },
 {0.250, 0.500, 0.500, 0.250, 0.000, 0.125, -0.250, -0.250, -0.125, -0.125, 0.500, -0.125, 0.000, 0.500, -0.250, -0.250, 0.000, -0.250, 0.500, 0.000, 0.125, -0.250, 0.250, 0.000, 0.125, -0.125, 0.000, 0.500, 0.000, -0.500, -0.250, 0.000 },
 {0.125, 0.500, 0.500, 0.500, 0.125, 0.250, -0.250, -0.500, -0.250, 0.000, 0.250, -0.250, 0.000, 0.500, -0.250, -0.125, 0.125, -0.500, 0.500, -0.125, -0.125, -0.250, 0.250, 0.000, 0.125, -0.250, 0.000, 1.000, -0.125, -0.500, -0.250, 0.000 },
 {0.125, 1.000, 1.000, 0.500, 0.125, 0.250, -0.250, -0.500, -0.250, -0.125, 0.500, -0.500, 0.000, 1.000, -0.250, -0.250, 0.250, -0.250, 1.000, -0.250, 0.125, -0.250, 0.250, 0.125, 0.125, -0.125, -0.125, 1.000, 0.000, -0.500, -0.250, 0.000 },
 {0.125, 1.000, 1.000, 0.500, 0.000, 0.500, -0.250, -1.000, -0.250, -0.125, 0.500, -0.500, -0.125, 1.000, -0.500, -0.500, 0.250, -0.250, 1.000, -0.125, 0.000, -0.250, 0.500, 0.000, 0.000, -0.250, -0.125, 1.000, 0.000, -0.500, -0.500, 0.125 },
 {-0.250, 1.000, 1.000, 0.500, -0.125, 0.250, 0.000, -1.000, -0.250, 0.000, 0.500, -0.500, -0.250, 1.000, -0.250, -0.250, 0.500, -0.250, 0.500, -0.125, 0.250, -0.250, 0.250, 0.000, 0.000, -0.125, -0.125, 1.000, 0.000, -0.500, -0.500, 0.250 },
 {-0.125, 1.000, 1.000, 1.000, 0.000, 0.250, -0.125, -1.000, -0.250, -0.125, 0.250, -0.500, -0.250, 1.000, -0.250, -0.250, 0.250, -0.250, 0.500, 0.000, 0.250, -0.250, 0.250, 0.125, 0.000, 0.125, -0.125, 1.000, 0.000, -0.500, -1.000, 0.250 },
 {-0.125, 1.000, 1.000, 0.500, 0.000, 0.250, -0.250, -1.000, -0.125, 0.000, 0.125, -0.500, -0.250, 1.000, -0.125, -0.500, 0.250, -0.250, 0.500, 0.250, 0.250, -0.125, 0.125, 0.250, 0.125, -0.125, 0.125, 1.000, 0.125, -0.500, -0.500, 0.250 },
 {0.000, 1.000, 1.000, 0.500, 0.125, 0.250, -0.250, -1.000, -0.250, 0.000, 0.250, -0.500, -0.250, 1.000, 0.000, -0.250, 0.250, -0.250, 0.500, 0.250, 0.250, -0.250, 0.250, 0.500, 0.250, 0.000, 0.000, 1.000, 0.250, -0.250, -0.500, 0.125 },
 {0.000, 0.500, 1.000, 0.500, 0.000, 0.250, -0.250, -0.500, -0.125, 0.000, 0.500, -0.500, -0.250, 0.500, 0.000, -0.500, 0.250, -0.500, 0.500, 0.250, 0.250, -0.125, 0.250, 0.500, 0.000, 0.125, 0.125, 1.000, 0.250, -0.250, -0.500, 0.125 },
 {0.125, 1.000, 1.000, 0.500, 0.000, 0.250, -0.250, -0.500, -0.250, 0.000, 0.500, -0.500, -0.250, 0.500, 0.125, -0.250, 0.250, -0.500, 0.500, 0.500, 0.125, 0.000, 0.500, 0.250, -0.125, -0.125, 0.000, 1.000, 0.250, -0.250, -0.250, 0.000 },
 {0.125, 0.500, 1.000, 1.000, -0.125, 0.500, -0.500, -0.500, -0.125, 0.000, 0.500, -0.500, -0.250, 0.500, 0.000, -0.250, 0.250, -0.500, 1.000, 0.500, 0.000, 0.000, 0.500, 0.250, -0.250, -0.250, 0.000, 1.000, 0.500, -0.500, -0.250, 0.000 },
 {0.000, 1.000, 1.000, 1.000, -0.125, 0.500, -0.500, -0.500, -0.250, 0.000, 0.500, -0.500, -0.250, 0.500, -0.250, -0.250, 0.500, -0.500, 1.000, 0.250, 0.000, 0.000, 0.500, 0.500, -0.500, -0.250, -0.125, 1.000, 0.250, -0.500, 0.000, 0.000 },
 {0.125, 1.000, 1.000, 1.000, 0.000, 0.500, -0.500, -0.250, -0.125, -0.125, 0.250, -0.250, -0.125, 0.500, -0.125, -0.250, 0.500, -0.250, 1.000, 0.000, -0.125, -0.125, 0.500, 0.500, -0.250, -0.250, -0.125, 1.000, 0.000, -0.500, 0.000, 0.000 },
 {0.000, 1.000, 1.000, 1.000, 0.000, 0.500, -0.500, -0.250, -0.125, 0.000, 0.500, -0.250, -0.125, 0.500, -0.500, -0.250, 0.250, -0.250, 1.000, 0.125, -0.125, 0.000, 0.500, 0.500, -0.250, -0.125, -0.125, 1.000, 0.000, -0.500, 0.000, 0.000 },
 {0.000, 1.000, 0.500, 0.500, -0.125, 0.250, -0.500, -0.125, -0.125, -0.125, 0.250, -0.250, -0.125, 0.500, -0.500, -0.250, 0.125, -0.250, 0.500, 0.125, 0.000, -0.125, 0.250, 0.250, -0.250, -0.125, -0.125, 0.500, 0.125, -0.125, 0.000, -0.125 },
 {0.125, 0.250, 0.500, 0.250, 0.000, 0.125, -0.250, -0.125, -0.125, 0.000, 0.250, 0.000, 0.000, 0.250, -0.250, -0.125, 0.125, -0.125, 0.500, 0.125, 0.000, 0.000, 0.125, 0.250, -0.125, 0.000, -0.125, 0.250, 0.000, -0.125, 0.000, 0.000 },
 {0.000, 0.125, 0.250, 0.125, 0.000, -0.125, -0.125, 0.000, 0.000, 0.000, 0.125, 0.125, -0.125, 0.250, -0.125, -0.125, 0.125, 0.000, 0.250, 0.000, 0.000, 0.000, 0.000, 0.125, -0.125, 0.000, -0.125, 0.000, 0.000, 0.000, 0.000, 0.000 },
 {0.000, 0.125, 0.125, 0.000, 0.000, 0.000, 0.000, -0.125, 0.000, -0.125, 0.000, -0.125, 0.125, 0.125, 0.000, -0.125, 0.000, 0.125, 0.000, 0.000, -0.125, 0.000, 0.000, 0.000, 0.000, 0.000, 0.000, 0.000, 0.000, 0.000, 0.000, 0.000 },
 {0.000, 0.000, 0.000, 0.000, 0.000, 0.000, 0.000, 0.000, 0.125, 0.125, 0.000, 0.000, 0.000, 0.125, 0.000, 0.125, -0.125, 0.000, 0.000, 0.000, -0.125, 0.000, 0.000, 0.000, 0.000, 0.000, 0.000, 0.000, -0.125, 0.000, 0.000, 0.000 },
 {0.000, 0.125, 0.000, -0.125, 0.000, -0.125, 0.000, 0.000, 0.000, 0.000, 0.000, 0.125, 0.125, 0.000, -0.125, 0.000, 0.125, 0.125, 0.000, 0.000, 0.000, 0.000, 0.000, 0.000, 0.000, 0.125, 0.000, 0.000, -0.125, 0.000, 0.125, 0.000 },
 {0.000, 0.000, 0.000, -0.125, 0.000, 0.125, 0.000, -0.125, 0.000, 0.000, 0.125, 0.125, 0.000, 0.000, 0.000, 0.125, 0.000, 0.000, 0.000, 0.000, 0.125, 0.000, 0.125, 0.000, 0.000, 0.000, 0.000, 0.125, 0.000, 0.000, -0.125, 0.000 },
 {0.000, 0.000, 0.125, 0.000, 0.000, 0.000, 0.000, -0.125, 0.000, 0.000, 0.000, 0.000, 0.000, 0.000, 0.000, 0.000, 0.125, 0.000, 0.000, 0.000, 0.000, 0.000, 0.125, 0.000, 0.125, 0.000, 0.125, 0.000, -0.125, -0.125, 0.000, 0.000 },
 {0.000, 0.125, 0.000, 0.000, -0.125, 0.000, 0.000, 0.125, -0.125, 0.000, 0.000, 0.000, 0.000, 0.000, 0.000, 0.000, 0.000, 0.000, 0.000, 0.125, 0.000, -0.125, 0.125, 0.000, 0.000, 0.000, -0.125, 0.000, 0.000, -0.125, 0.000, 0.000 },
 {0.125, 0.000, 0.000, 0.000, 0.000, -0.125, 0.000, 0.000, 0.000, 0.000, 0.000, 0.000, -0.125, 0.000, 0.000, 0.000, 0.000, 0.000, 0.125, 0.000, 0.000, -0.125, 0.000, 0.000, 0.000, 0.000, 0.000, 0.000, 0.000, 0.000, 0.000, 0.125 },
 {0.000, 0.000, 0.000, 0.125, 0.125, 0.000, 0.000, 0.000, -0.125, 0.125, 0.125, 0.000, 0.000, -0.125, 0.000, 0.000, -0.125, 0.000, 0.125, 0.125, 0.000, -0.125, 0.000, 0.125, 0.125, 0.000, 0.000, 0.000, 0.000, 0.000, 0.000, 0.000 },
 {-0.125, 0.000, 0.125, 0.125, 0.250, 0.000, 0.125, -0.125, 0.000, 0.000, 0.250, 0.000, 0.000, 0.000, -0.125, 0.000, 0.000, -0.125, 0.125, 0.125, 0.000, -0.125, 0.000, 0.125, 0.000, 0.000, 0.000, 0.125, 0.000, -0.250, -0.125, 0.000 },
 {0.125, 0.500, 0.500, 0.250, 0.250, 0.000, 0.000, -0.250, -0.125, 0.125, 0.250, 0.000, 0.125, 0.500, -0.250, -0.250, 0.000, -0.250, 0.250, 0.000, 0.125, -0.500, 0.125, 0.125, 0.125, 0.125, 0.000, 0.500, 0.000, -0.125, -0.125, 0.000 },
 {0.125, 0.500, 0.500, 0.250, 0.250, 0.125, 0.000, -0.250, -0.125, 0.125, 0.500, -0.125, 0.000, 0.500, -0.500, -0.250, 0.000, -0.125, 0.500, -0.125, 0.125, -0.250, 0.125, 0.000, 0.250, -0.125, -0.125, 0.500, 0.000, -0.250, -0.125, 0.000 },
 {0.125, 0.500, 0.500, 0.250, 0.250, 0.000, 0.125, -0.250, -0.250, -0.250, 0.500, -0.250, 0.000, 0.500, -0.500, -0.500, 0.125, 0.000, 0.500, 0.000, 0.000, -0.500, 0.125, 0.125, 0.250, 0.000, -0.125, 0.500, 0.000, -0.500, -0.125, 0.000 },
 {0.000, 0.500, 0.500, 0.250, 0.125, 0.000, 0.125, -0.250, -0.250, -0.125, 0.500, -0.125, 0.250, 0.500, -0.500, -0.500, 0.125, 0.000, 0.500, 0.000, 0.000, -0.500, 0.250, 0.125, 0.500, 0.000, -0.125, 0.500, 0.000, -0.250, -0.250, 0.000 },
 {-0.125, 0.500, 0.500, 0.250, 0.250, 0.125, 0.250, -0.125, -0.250, -0.500, 0.250, -0.125, 0.125, 0.500, -0.500, -0.500, 0.250, 0.000, 0.250, 0.000, 0.125, -0.500, 0.250, 0.250, 0.250, 0.125, -0.125, 0.500, 0.000, -0.250, -0.125, -0.125 },
 {-0.250, 0.500, 0.250, 0.000, 0.250, 0.000, 0.125, -0.250, -0.250, -0.125, 0.250, -0.125, 0.250, 0.500, -0.500, -0.500, 0.500, 0.125, 0.500, 0.250, 0.250, -0.500, 0.250, 0.125, 0.250, 0.250, -0.250, 0.250, -0.125, -0.500, -0.125, 0.000 },
 {-0.250, 0.500, 0.250, 0.000, 0.250, -0.125, 0.125, -0.500, -0.250, -0.125, 0.250, 0.125, 0.125, 0.500, -0.250, -0.250, 0.250, 0.125, 0.500, 0.250, 0.250, -0.500, 0.125, 0.125, 0.500, 0.125, -0.125, 0.250, 0.000, -0.250, 0.000, 0.000 },
 {-0.250, 0.250, 0.500, 0.125, 0.125, 0.000, -0.125, -0.250, -0.250, -0.125, 0.250, -0.125, 0.125, 0.500, -0.250, -0.500, 0.000, 0.000, 0.500, 0.250, 0.250, -0.500, 0.000, 0.000, 0.250, 0.000, -0.125, 0.500, 0.000, -0.250, -0.250, 0.125 },
 {-0.125, 0.250, 0.250, 0.000, 0.000, 0.250, -0.125, -0.125, -0.250, -0.125, 0.125, -0.125, 0.000, 0.250, -0.125, -0.500, 0.125, 0.125, 0.500, 0.500, 0.125, -0.500, 0.125, 0.000, 0.250, 0.125, 0.000, 0.250, 0.000, -0.500, -0.250, 0.125 },
 {0.125, 0.250, 0.250, 0.000, -0.125, 0.125, -0.125, -0.125, -0.250, 0.000, 0.250, -0.125, -0.250, 0.250, 0.000, -0.125, 0.125, 0.000, 0.500, 0.500, 0.125, -0.500, 0.125, 0.125, 0.125, 0.125, 0.000, 0.250, 0.000, -0.125, -0.250, 0.000 },
 {-0.125, 0.250, 0.250, 0.125, -0.125, 0.125, 0.000, 0.000, -0.125, 0.000, 0.125, 0.000, -0.250, 0.125, 0.125, -0.125, 0.250, 0.000, 0.500, 0.500, 0.250, -0.250, 0.000, 0.250, 0.125, 0.125, 0.000, 0.500, 0.125, -0.250, -0.250, 0.000 },
 {-0.125, 0.250, 0.250, 0.250, -0.125, 0.125, 0.125, -0.125, -0.250, -0.125, 0.250, 0.000, -0.500, 0.125, 0.250, 0.000, 0.250, 0.000, 0.500, 0.500, 0.250, -0.125, 0.125, 0.250, 0.125, 0.125, -0.125, 0.500, 0.000, -0.250, -0.250, -0.125 },
 {0.000, 0.250, 0.250, 0.125, 0.000, 0.125, 0.000, -0.125, 0.000, 0.000, 0.125, -0.125, -0.250, 0.000, 0.125, 0.125, 0.000, 0.000, 0.500, 0.500, 0.000, -0.125, 0.125, 0.125, 0.000, 0.000, 0.000, 0.500, 0.000, -0.125, -0.125, 0.125 },
 {0.000, 0.500, 0.250, 0.250, 0.000, 0.125, 0.125, -0.125, 0.000, 0.000, 0.125, -0.250, -0.250, -0.125, 0.000, 0.000, 0.125, -0.125, 0.500, 0.250, 0.125, -0.125, 0.250, 0.250, -0.125, -0.125, 0.000, 0.500, 0.125, 0.000, 0.125, 0.125 },
 {0.000, 0.500, 0.250, 0.250, 0.125, -0.125, 0.125, 0.000, 0.250, 0.000, 0.125, -0.125, 0.000, 0.000, -0.125, 0.125, 0.125, 0.000, 1.000, 0.125, 0.000, -0.125, 0.250, 0.125, -0.125, -0.125, 0.000, 0.500, 0.000, 0.125, 0.250, 0.125 },
 {0.125, 0.500, 0.250, 0.500, 0.125, 0.000, 0.000, 0.000, 0.250, 0.125, 0.250, -0.250, -0.125, 0.125, -0.250, -0.125, 0.250, -0.125, 0.500, 0.125, 0.000, 0.000, 0.250, 0.000, -0.125, -0.250, -0.125, 0.500, 0.000, 0.000, 0.500, 0.125 },
 {-0.125, 0.500, 0.250, 0.500, 0.125, 0.250, 0.000, -0.125, 0.125, 0.000, 0.250, -0.250, 0.000, 0.125, -0.250, -0.125, 0.125, 0.000, 0.500, 0.125, 0.000, -0.125, 0.250, 0.000, -0.250, -0.250, -0.125, 0.250, 0.125, -0.125, 0.500, 0.125 },
 {-0.125, 0.500, 0.500, 0.500, 0.000, 0.125, -0.250, 0.000, 0.125, 0.000, 0.125, -0.250, 0.000, 0.125, -0.250, -0.125, 0.250, -0.125, 0.250, 0.000, -0.125, -0.125, 0.125, 0.250, -0.250, -0.125, -0.250, 0.000, 0.000, -0.125, 0.250, 0.000 },
 {0.000, 0.250, 0.125, 0.250, 0.000, 0.000, 0.000, 0.000, 0.000, 0.000, 0.125, 0.000, 0.000, 0.250, -0.250, -0.125, 0.125, 0.000, 0.250, 0.125, -0.125, 0.000, 0.125, 0.000, -0.125, 0.000, 0.000, 0.000, -0.125, 0.000, 0.250, 0.000 },
 {-0.125, 0.250, 0.125, 0.125, 0.000, 0.125, 0.000, 0.000, 0.000, -0.125, 0.000, 0.000, 0.000, 0.000, -0.125, 0.000, 0.125, 0.000, 0.000, -0.125, 0.000, -0.125, 0.125, 0.250, -0.125, 0.000, 0.000, 0.000, 0.000, -0.125, 0.250, -0.125 },
 {-0.125, -0.125, 0.000, 0.000, 0.000, 0.000, 0.000, 0.125, 0.000, 0.000, 0.000, 0.125, 0.000, 0.000, 0.000, 0.000, 0.000, -0.125, 0.000, 0.000, -0.125, -0.125, 0.000, 0.000, 0.000, 0.125, 0.125, -0.125, -0.125, 0.000, 0.000, 0.000 },
 {0.000, 0.000, 0.000, 0.125, 0.000, 0.000, 0.000, 0.000, 0.000, 0.000, 0.000, 0.000, -0.125, 0.000, 0.000, 0.000, 0.125, 0.000, 0.000, 0.000, 0.000, 0.125, -0.125, -0.125, 0.000, 0.000, -0.125, 0.000, 0.000, 0.000, 0.000, 0.125 },
 {0.000, 0.000, 0.000, 0.125, 0.000, 0.000, 0.000, 0.000, 0.000, 0.000, -0.125, 0.000, 0.125, 0.000, 0.000, 0.000, 0.000, 0.125, 0.000, 0.000, 0.000, 0.000, -0.125, 0.000, -0.125, -0.125, 0.000, 0.000, 0.000, -0.125, 0.000, 0.125 },
 {-0.125, 0.000, 0.000, 0.000, 0.000, 0.000, 0.000, 0.000, 0.000, 0.000, 0.000, 0.000, 0.000, 0.000, -0.125, 0.125, 0.000, 0.125, 0.000, 0.000, 0.000, 0.000, 0.000, 0.000, 0.125, 0.000, 0.000, 0.000, 0.000, 0.000, 0.000, 0.125 },
 {-0.125, 0.000, 0.000, 0.000, 0.000, 0.125, 0.000, 0.000, 0.000, -0.125, 0.000, 0.000, 0.000, 0.000, 0.000, 0.000, 0.000, 0.000, 0.000, 0.000, 0.125, 0.000, 0.000, 0.000, 0.125, 0.000, 0.000, 0.000, 0.125, 0.000, 0.000, 0.000 },
 {0.000, 0.000, 0.000, -0.125, 0.000, 0.000, 0.000, 0.125, 0.000, -0.125, -0.125, 0.000, 0.125, 0.000, 0.000, 0.000, -0.125, 0.125, 0.125, 0.125, 0.000, 0.125, 0.000, 0.000, 0.000, 0.000, 0.125, 0.000, -0.125, 0.000, -0.125, 0.000 },
 {-0.125, 0.250, -0.125, 0.000, 0.125, -0.125, 0.000, -0.125, 0.125, 0.000, -0.250, 0.000, 0.125, -0.125, 0.000, 0.125, 0.000, 0.125, 0.125, 0.125, 0.125, 0.125, 0.000, 0.250, 0.000, -0.125, 0.000, 0.125, 0.000, 0.250, -0.125, 0.000 },
 {0.000, 0.250, -0.125, 0.125, 0.250, 0.000, 0.000, -0.125, 0.125, 0.125, 0.125, 0.125, 0.250, -0.125, -0.125, 0.125, 0.125, 0.250, 0.000, 0.125, -0.125, 0.125, -0.125, 0.125, 0.250, -0.125, -0.125, 0.125, 0.125, 0.000, -0.250, 0.000 },
 {0.000, 0.250, 0.000, 0.125, 0.500, 0.125, 0.000, 0.000, 0.125, 0.000, 0.250, 0.000, 0.125, 0.125, -0.125, 0.250, 0.125, 0.000, 0.250, 0.250, 0.000, 0.000, 0.125, 0.000, 0.250, 0.000, -0.125, 0.250, -0.125, -0.125, 0.000, 0.125 },
 {0.125, 0.250, 0.000, -0.125, 0.250, 0.000, 0.125, 0.000, 0.250, -0.125, 0.250, 0.125, 0.250, 0.125, -0.125, 0.125, -0.125, 0.250, 0.250, 0.250, 0.125, 0.000, 0.000, 0.125, 0.250, 0.000, 0.000, 0.250, -0.125, 0.000, -0.250, -0.125 },
 {0.000, 0.500, 0.250, -0.125, 0.125, 0.125, 0.000, 0.125, 0.000, -0.250, 0.125, 0.125, 0.250, 0.000, -0.125, 0.000, 0.000, 0.250, 0.125, 0.250, 0.125, -0.250, 0.000, 0.250, 0.250, -0.125, -0.125, 0.250, 0.000, 0.125, -0.250, -0.125 },
 {0.000, 0.250, 0.250, 0.000, -0.125, 0.125, 0.250, 0.000, -0.125, -0.500, 0.500, -0.250, 0.125, -0.125, -0.125, -0.125, 0.000, 0.250, 0.250, 0.250, 0.000, -0.500, 0.000, 0.250, 0.250, 0.125, -0.250, 0.250, 0.125, 0.125, 0.000, 0.000 },
 {0.000, 0.500, 0.250, 0.000, 0.000, 0.125, 0.125, 0.000, -0.250, -0.500, 0.250, 0.000, 0.250, -0.250, -0.125, -0.125, 0.000, 0.250, 0.250, 0.250, 0.000, -0.500, 0.000, 0.125, 0.250, 0.000, -0.250, 0.125, 0.250, 0.125, 0.000, 0.125 },
 {0.125, 0.125, 0.000, -0.125, -0.125, 0.000, 0.125, 0.125, -0.250, 0.000, 0.125, 0.125, 0.250, -0.250, 0.000, 0.000, 0.000, 0.125, 0.125, 0.500, 0.000, -0.250, 0.000, 0.250, 0.250, 0.125, 0.000, 0.000, 0.000, 0.250, 0.125, 0.125 },
 {-0.125, 0.125, 0.125, -0.125, 0.000, 0.000, 0.125, 0.000, 0.000, -0.125, 0.500, 0.000, 0.250, -0.125, 0.000, 0.000, 0.250, 0.250, -0.125, 0.250, 0.125, -0.500, 0.000, 0.250, 0.125, 0.125, -0.125, -0.125, 0.125, 0.250, 0.000, 0.000 },
 {0.000, 0.125, 0.000, 0.000, -0.125, 0.125, -0.125, 0.000, -0.250, 0.000, 0.250, 0.000, 0.125, 0.000, -0.250, 0.000, 0.250, 0.250, 0.000, 0.250, 0.125, -0.500, -0.125, 0.125, 0.125, 0.000, -0.125, -0.250, 0.000, 0.125, 0.000, 0.000 },
 {0.000, 0.000, -0.125, 0.125, -0.125, 0.125, -0.125, -0.125, -0.250, -0.125, 0.250, 0.000, 0.125, 0.000, -0.125, 0.000, 0.250, 0.125, 0.000, 0.125, 0.250, -0.500, 0.000, 0.125, 0.125, 0.250, -0.125, -0.125, -0.125, 0.125, -0.125, 0.125 },
 {0.125, 0.000, -0.125, 0.000, -0.125, 0.125, 0.000, 0.000, -0.125, -0.125, 0.125, 0.250, 0.125, 0.000, 0.125, 0.250, 0.125, 0.000, 0.000, 0.250, 0.125, -0.500, -0.125, 0.125, 0.125, 0.250, -0.125, -0.250, 0.000, 0.250, 0.000, 0.000 },
 {0.000, 0.000, 0.000, 0.000, -0.125, 0.000, -0.125, 0.125, -0.125, -0.125, 0.250, -0.125, 0.125, 0.125, 0.250, 0.000, 0.125, 0.125, 0.125, 0.250, 0.125, -0.500, -0.125, 0.125, 0.125, 0.125, 0.000, -0.125, 0.000, 0.125, 0.000, 0.125 },
 {0.125, 0.000, 0.000, 0.250, -0.250, 0.000, -0.125, 0.125, 0.125, -0.125, 0.250, -0.125, 0.000, 0.125, 0.250, 0.250, 0.250, 0.000, 0.125, 0.500, 0.250, -0.500, -0.250, 0.250, 0.125, 0.125, 0.125, 0.000, 0.125, 0.125, -0.125, 0.000 },
 {0.125, -0.125, 0.000, 0.125, 0.000, 0.000, 0.000, 0.125, 0.000, 0.000, 0.500, 0.000, 0.125, 0.125, 0.250, 0.250, 0.125, 0.000, 0.250, 0.500, 0.125, -0.500, -0.125, 0.125, 0.125, 0.125, 0.125, 0.125, 0.250, 0.125, 0.000, 0.125 },
 {0.250, 0.000, 0.000, 0.125, -0.125, -0.250, 0.000, 0.125, 0.000, 0.125, 0.500, -0.125, 0.000, 0.000, 0.250, 0.250, 0.125, 0.125, 0.250, 0.250, 0.125, -0.500, -0.125, 0.125, 0.000, -0.125, 0.000, 0.000, 0.125, -0.125, 0.125, 0.250 },
 {0.125, 0.250, 0.000, 0.250, -0.125, -0.125, 0.000, 0.000, 0.125, 0.125, 0.250, -0.125, 0.000, 0.000, 0.125, 0.250, 0.250, 0.000, 0.125, 0.250, 0.125, -0.250, 0.000, 0.125, 0.000, -0.250, 0.125, 0.000, 0.125, 0.125, 0.125, 0.125 },
 {0.000, 0.250, 0.125, 0.250, -0.125, 0.000, 0.000, 0.000, 0.125, 0.125, 0.250, 0.000, -0.125, 0.000, 0.000, 0.250, 0.250, 0.000, 0.250, 0.125, 0.125, -0.250, 0.250, 0.000, -0.125, -0.500, -0.125, 0.000, -0.125, 0.000, 0.250, 0.125 },
 {0.000, 0.125, -0.125, 0.250, -0.250, 0.000, 0.000, -0.125, 0.125, 0.125, 0.125, 0.000, 0.125, -0.125, 0.000, 0.250, 0.250, 0.125, 0.250, 0.125, 0.125, -0.250, 0.250, 0.000, 0.000, -0.500, -0.125, -0.125, 0.000, 0.000, 0.250, 0.250 },
 {0.125, 0.250, -0.125, 0.250, -0.125, 0.125, -0.125, 0.000, 0.250, 0.250, 0.125, -0.125, 0.125, -0.250, -0.125, 0.250, 0.250, -0.125, 0.250, 0.000, 0.125, -0.250, 0.250, 0.000, -0.250, -0.250, -0.250, -0.125, 0.125, 0.000, 0.250, 0.250 },
 {0.250, 0.000, -0.250, 0.125, -0.250, 0.000, -0.250, 0.125, 0.125, 0.125, 0.250, -0.125, 0.125, -0.250, -0.125, 0.125, 0.000, -0.125, 0.250, 0.125, -0.125, 0.000, 0.250, 0.000, -0.250, 0.000, -0.250, -0.125, 0.125, 0.000, 0.250, 0.250 },
 {0.250, -0.125, -0.125, 0.125, 0.000, 0.000, 0.000, 0.125, -0.125, 0.000, 0.250, 0.125, 0.250, 0.000, -0.125, 0.125, 0.125, -0.250, 0.125, 0.250, -0.250, 0.000, 0.250, 0.000, -0.250, 0.125, 0.000, 0.000, 0.000, 0.000, 0.125, 0.500 },
 {0.250, 0.000, -0.125, -0.125, 0.000, -0.250, 0.125, 0.000, -0.125, 0.000, 0.125, 0.250, 0.125, 0.000, -0.125, 0.000, -0.125, 0.000, 0.000, 0.125, 0.000, -0.125, 0.000, 0.000, 0.000, 0.125, -0.125, -0.125, 0.000, 0.125, 0.000, 0.250 },
 {0.000, 0.125, 0.125, 0.125, 0.000, -0.125, 0.000, 0.125, -0.125, 0.000, 0.000, 0.000, 0.000, 0.125, 0.000, 0.000, 0.125, 0.000, 0.000, 0.125, 0.125, -0.125, 0.000, 0.000, -0.125, 0.000, 0.000, 0.000, 0.000, 0.000, 0.000, 0.000 },
 {0.000, 0.000, 0.000, 0.000, -0.125, 0.000, 0.000, 0.000, 0.000, 0.125, 0.125, 0.000, 0.000, 0.000, 0.000, 0.000, -0.125, 0.000, 0.000, 0.000, 0.125, 0.000, -0.125, 0.000, -0.125, 0.125, 0.000, -0.125, 0.000, 0.000, 0.000, 0.000 },
 {0.000, 0.000, 0.000, 0.000, 0.000, 0.000, 0.000, 0.000, 0.000, 0.000, 0.000, 0.000, 0.000, 0.125, -0.125, 0.000, 0.000, 0.000, 0.000, 0.000, 0.000, 0.000, 0.000, 0.000, 0.000, 0.000, 0.000, -0.125, 0.000, 0.125, 0.000, 0.000 },
 {0.000, 0.125, 0.000, 0.000, 0.125, 0.000, -0.125, 0.000, 0.000, 0.000, 0.000, 0.000, 0.000, 0.125, 0.000, 0.000, 0.000, 0.125, 0.000, 0.125, 0.000, -0.125, 0.000, 0.000, 0.000, 0.000, 0.000, 0.125, 0.000, 0.000, 0.000, 0.000 },
 {0.000, 0.250, 0.000, 0.000, 0.000, -0.125, -0.125, 0.000, -0.125, 0.000, 0.000, 0.125, 0.250, 0.000, 0.125, 0.125, 0.125, 0.250, 0.000, 0.125, 0.125, 0.125, 0.000, 0.125, 0.125, -0.125, 0.000, -0.125, -0.125, 0.125, -0.125, -0.125 },
 {0.000, 0.500, -0.125, -0.125, 0.000, -0.125, -0.125, 0.000, 0.000, 0.125, -0.125, 0.000, 0.500, -0.250, 0.000, 0.125, 0.000, 0.500, 0.125, 0.125, -0.125, 0.250, -0.125, 0.125, 0.125, -0.250, 0.125, 0.000, 0.000, 0.125, -0.250, -0.125 },
 {0.000, 0.125, -0.125, -0.125, 0.250, 0.000, -0.125, 0.000, 0.125, 0.125, 0.000, 0.000, 0.250, -0.250, 0.000, 0.125, -0.125, 0.250, 0.125, 0.250, -0.125, 0.250, 0.000, 0.125, 0.125, -0.125, -0.125, 0.000, 0.000, 0.125, -0.125, -0.125 },
 {0.000, 0.250, 0.000, -0.125, 0.000, 0.000, 0.000, 0.000, 0.125, 0.250, 0.000, 0.000, 0.250, -0.250, 0.000, 0.000, 0.000, 0.250, 0.125, 0.125, 0.125, 0.000, 0.125, 0.125, 0.125, 0.000, 0.000, 0.125, 0.000, 0.000, -0.125, -0.125 },
 {0.125, 0.125, 0.125, 0.000, 0.000, 0.000, 0.000, 0.000, 0.000, 0.000, 0.125, 0.000, 0.125, -0.250, -0.125, 0.000, -0.125, 0.125, 0.250, 0.000, 0.000, 0.125, 0.250, -0.125, 0.125, 0.000, -0.125, 0.250, 0.000, 0.125, 0.000, 0.000 },
 {0.000, 0.250, 0.125, -0.125, 0.125, 0.000, 0.000, 0.125, 0.125, -0.250, 0.000, 0.250, -0.125, -0.500, -0.125, 0.000, -0.125, 0.000, 0.250, 0.125, 0.000, 0.000, 0.250, 0.125, 0.000, 0.250, -0.500, 0.250, 0.250, -0.125, 0.000, -0.125 },
 {0.000, 0.125, 0.000, 0.000, 0.125, -0.125, -0.125, 0.000, 0.125, -0.125, 0.125, 0.125, 0.000, -0.500, 0.125, 0.000, 0.000, 0.000, 0.000, 0.000, 0.125, -0.250, 0.500, 0.125, 0.125, 0.125, -0.500, 0.125, 0.000, 0.000, 0.000, 0.000 },
 {0.000, 0.250, 0.000, 0.000, 0.000, 0.000, 0.125, 0.250, 0.125, -0.250, 0.125, 0.000, 0.125, -0.250, -0.125, 0.000, 0.000, 0.000, -0.125, 0.125, 0.000, -0.250, 0.250, 0.000, 0.125, 0.250, -0.500, 0.000, 0.125, 0.000, 0.125, 0.125 },
 {0.250, 0.000, 0.000, 0.125, 0.000, -0.125, 0.000, 0.000, 0.125, -0.125, 0.125, 0.125, 0.250, -0.250, -0.125, -0.125, 0.000, -0.125, -0.250, 0.125, 0.125, 0.000, 0.125, 0.250, 0.125, 0.250, -0.250, -0.125, 0.000, 0.125, 0.000, 0.000 },
 {0.125, 0.000, -0.125, 0.250, 0.125, 0.000, -0.250, -0.125, 0.000, 0.000, 0.125, 0.125, 0.125, -0.125, -0.250, 0.125, 0.125, 0.000, -0.125, 0.000, 0.000, -0.125, 0.125, 0.250, 0.125, 0.125, -0.125, -0.250, 0.000, 0.125, 0.000, 0.000 },
 {0.125, 0.125, 0.000, 0.000, 0.000, 0.125, -0.125, 0.000, -0.125, 0.125, 0.000, 0.250, 0.125, -0.125, -0.250, -0.125, 0.000, 0.125, -0.250, 0.125, -0.125, -0.125, 0.125, 0.250, 0.000, 0.125, 0.000, 0.000, -0.125, 0.250, 0.000, 0.000 },
 {0.000, 0.000, 0.000, 0.125, 0.000, 0.125, -0.125, -0.125, 0.000, 0.125, 0.000, 0.125, 0.125, 0.000, -0.250, 0.000, 0.250, 0.125, -0.125, 0.125, 0.000, -0.250, 0.125, 0.125, 0.000, 0.125, 0.000, -0.125, 0.000, 0.000, -0.250, 0.125 },
 {0.000, 0.125, 0.000, 0.125, 0.000, 0.125, 0.000, -0.125, 0.000, 0.000, 0.000, 0.000, 0.125, 0.000, -0.250, 0.000, 0.125, 0.125, -0.125, 0.000, 0.000, -0.250, -0.125, 0.125, 0.000, 0.000, 0.000, -0.125, -0.125, 0.250, -0.125, 0.000 },
 {0.000, -0.125, -0.250, 0.000, 0.000, 0.125, 0.000, -0.250, -0.125, 0.000, 0.250, 0.000, 0.125, 0.125, 0.000, 0.000, 0.125, 0.250, 0.125, 0.250, 0.000, -0.250, -0.125, 0.125, 0.250, -0.125, 0.000, -0.125, -0.125, 0.125, 0.000, 0.125 },
 {0.000, -0.250, -0.125, 0.125, -0.250, 0.250, 0.000, 0.000, -0.125, 0.000, 0.125, -0.125, 0.125, 0.125, 0.000, 0.125, 0.250, 0.000, 0.125, 0.250, 0.000, -0.125, -0.250, 0.125, 0.000, -0.125, 0.000, 0.000, 0.000, 0.125, 0.000, 0.125 },
 {0.125, 0.000, 0.000, 0.125, 0.000, 0.250, 0.000, 0.000, 0.000, -0.125, 0.000, 0.000, 0.125, 0.125, 0.250, -0.125, 0.125, 0.125, -0.125, 0.250, 0.000, -0.125, -0.250, 0.000, 0.000, -0.125, 0.000, 0.000, -0.125, 0.125, 0.000, 0.125 },
 {0.250, 0.125, 0.000, 0.250, -0.125, 0.250, 0.000, 0.000, -0.250, -0.125, 0.250, 0.000, 0.000, 0.125, 0.250, -0.125, 0.125, 0.000, 0.000, 0.500, 0.000, -0.125, -0.125, 0.250, -0.125, -0.125, 0.000, -0.125, 0.000, -0.125, 0.125, 0.125 },
 {0.125, 0.000, -0.250, 0.250, -0.250, 0.000, 0.000, -0.125, -0.125, 0.000, 0.250, -0.125, 0.000, 0.000, 0.125, 0.000, 0.250, 0.000, 0.000, 0.500, 0.000, 0.125, 0.125, 0.250, 0.000, -0.250, 0.125, -0.250, 0.000, 0.000, 0.000, 0.125 },
 {0.125, 0.000, -0.125, 0.000, -0.250, -0.125, -0.125, -0.125, 0.000, -0.125, 0.250, 0.000, 0.000, 0.000, 0.250, 0.000, 0.250, 0.125, -0.125, 0.250, 0.125, -0.125, 0.125, 0.125, 0.125, -0.250, 0.000, -0.250, 0.000, 0.000, 0.125, 0.250 },
 {0.125, 0.125, -0.125, 0.000, -0.125, -0.250, -0.125, 0.000, 0.125, 0.000, 0.125, -0.125, 0.000, -0.125, 0.125, 0.125, 0.250, 0.000, 0.000, 0.125, 0.125, -0.125, 0.125, 0.000, -0.125, -0.125, 0.000, -0.250, 0.125, 0.000, 0.125, 0.250 },
 {0.000, 0.125, -0.125, 0.250, -0.125, 0.125, 0.000, 0.000, 0.250, 0.125, 0.125, -0.125, -0.125, -0.250, 0.125, 0.000, 0.125, 0.000, 0.250, 0.125, 0.125, -0.250, 0.250, 0.125, -0.250, -0.250, -0.125, -0.500, 0.125, 0.000, 0.500, 0.500 },
 {0.125, 0.250, 0.000, 0.125, 0.000, 0.000, -0.250, -0.250, 0.125, 0.125, 0.250, 0.000, 0.125, -0.250, 0.000, 0.250, 0.125, 0.125, 0.250, 0.125, -0.125, -0.250, 0.250, 0.000, -0.250, -0.125, -0.250, -0.500, 0.125, 0.000, 0.250, 0.500 },
 {0.250, -0.125, -0.125, 0.125, 0.125, -0.125, 0.000, 0.000, 0.125, 0.125, 0.500, 0.125, 0.500, 0.000, -0.125, 0.125, 0.125, -0.125, 0.125, 0.250, -0.250, -0.250, 0.125, 0.125, -0.125, 0.125, -0.125, -0.250, 0.250, 0.125, 0.250, 0.500 },
 {0.250, 0.000, -0.125, 0.125, 0.250, -0.250, 0.125, 0.125, -0.125, 0.125, 0.500, 0.000, 0.250, 0.125, -0.125, 0.125, 0.000, 0.000, 0.250, 0.250, 0.000, 0.000, 0.125, 0.000, 0.000, 0.000, 0.000, -0.125, -0.125, 0.125, 0.125, 0.250 },
 {0.125, 0.000, 0.000, -0.125, 0.000, 0.000, 0.000, 0.000, 0.000, 0.000, 0.125, 0.000, -0.125, 0.000, -0.125, -0.125, 0.000, 0.000, 0.000, 0.000, 0.000, 0.000, 0.000, 0.000, 0.000, 0.000, 0.000, -0.125, -0.125, 0.125, 0.000, 0.125 },
 {0.000, 0.000, -0.125, 0.125, 0.000, 0.000, 0.000, 0.000, 0.000, 0.125, 0.125, 0.000, 0.000, 0.000, 0.000, 0.000, 0.000, -0.125, 0.000, 0.000, 0.000, -0.125, 0.000, 0.000, 0.125, 0.000, 0.000, 0.000, 0.000, 0.000, 0.000, 0.000 },
 {0.000, 0.000, -0.125, 0.000, 0.125, 0.000, -0.125, 0.000, 0.000, 0.000, 0.000, 0.000, 0.000, 0.000, 0.000, 0.000, 0.000, 0.125, 0.000, 0.000, 0.000, 0.000, 0.000, 0.000, 0.000, -0.125, -0.125, -0.125, -0.125, 0.125, -0.125, 0.000 },
 {0.125, -0.125, 0.000, 0.000, 0.125, 0.000, 0.000, 0.000, 0.000, 0.125, 0.125, 0.125, 0.000, 0.000, 0.000, 0.125, -0.125, 0.000, 0.000, 0.125, 0.125, 0.125, 0.000, -0.125, 0.125, 0.125, 0.000, 0.125, 0.000, 0.000, 0.000, 0.000 },
 {0.125, 0.250, -0.250, -0.125, 0.000, 0.000, -0.250, -0.125, 0.000, 0.125, 0.000, 0.125, 0.250, -0.125, 0.125, 0.250, -0.125, 0.500, 0.250, 0.125, 0.000, 0.500, 0.000, 0.125, 0.000, -0.125, 0.000, 0.125, -0.125, 0.000, 0.000, -0.125 },
 {0.000, 0.250, -0.250, 0.125, 0.125, -0.125, -0.125, 0.000, 0.125, 0.250, 0.125, -0.125, 0.125, -0.250, 0.125, 0.500, 0.125, 0.500, 0.250, 0.000, 0.000, 0.250, 0.000, 0.500, 0.250, -0.250, 0.000, 0.125, 0.125, 0.000, 0.000, -0.250 },
 {-0.125, -0.125, -0.250, -0.125, 0.125, -0.125, -0.125, 0.125, 0.125, 0.125, -0.125, -0.125, 0.125, -0.250, 0.000, 0.250, 0.000, 0.250, 0.500, 0.000, -0.125, 0.125, 0.250, 0.000, 0.250, 0.250, 0.000, 0.125, 0.125, -0.125, 0.000, -0.125 },
 {-0.125, 0.000, 0.000, -0.125, 0.000, 0.000, 0.000, 0.125, 0.125, 0.000, -0.125, 0.000, 0.250, -0.500, 0.125, 0.125, -0.125, 0.125, 0.125, 0.125, 0.000, 0.125, 0.000, 0.000, 0.250, 0.000, -0.125, 0.250, 0.125, -0.125, 0.125, -0.125 },
 {0.000, 0.125, 0.000, 0.000, 0.000, 0.000, -0.125, 0.125, 0.125, 0.000, -0.125, 0.000, 0.000, -0.250, 0.000, 0.000, 0.000, 0.000, 0.250, 0.000, 0.125, 0.125, 0.250, 0.125, 0.125, 0.125, 0.000, 0.125, 0.125, 0.000, 0.125, 0.000 },
 {0.125, 0.125, -0.125, 0.000, 0.125, 0.000, -0.125, 0.000, 0.250, -0.125, 0.000, 0.125, 0.125, -0.250, 0.125, 0.000, -0.125, 0.000, 0.125, 0.000, 0.125, 0.250, 0.250, 0.000, 0.000, 0.125, -0.250, 0.000, 0.000, 0.000, 0.000, 0.000 },
 {0.125, 0.000, -0.125, 0.000, 0.125, 0.000, -0.125, -0.125, 0.250, -0.250, -0.125, 0.125, 0.125, -0.125, 0.125, 0.000, 0.000, 0.000, 0.000, 0.000, 0.125, 0.125, 0.125, 0.000, 0.125, 0.000, -0.250, -0.125, 0.125, 0.125, 0.000, 0.000 },
 {0.125, 0.000, 0.000, 0.000, 0.250, 0.125, 0.000, 0.000, 0.000, 0.000, -0.125, 0.125, 0.125, 0.000, 0.000, 0.000, 0.000, -0.125, -0.125, -0.125, 0.000, 0.000, 0.000, 0.000, 0.250, 0.125, -0.250, -0.125, 0.000, 0.125, 0.000, 0.000 },
 {0.125, 0.000, 0.000, 0.125, 0.125, 0.000, -0.125, 0.125, 0.000, 0.125, 0.000, 0.125, 0.125, 0.000, -0.125, 0.125, 0.125, -0.250, -0.125, 0.000, 0.000, 0.125, 0.000, 0.125, 0.125, 0.125, -0.125, 0.000, 0.000, 0.250, 0.000, 0.000 },
 {0.125, 0.000, 0.000, 0.125, 0.000, 0.125, -0.250, 0.000, -0.125, 0.125, -0.125, 0.250, 0.125, 0.125, -0.250, 0.000, 0.125, -0.125, -0.125, 0.000, 0.000, 0.125, 0.250, -0.125, 0.250, 0.125, 0.000, 0.125, 0.000, 0.250, 0.000, 0.125 },
 {0.125, 0.000, 0.000, 0.125, 0.125, 0.125, -0.125, 0.000, 0.125, 0.125, 0.000, 0.250, 0.250, 0.000, -0.250, 0.000, 0.125, -0.125, -0.125, 0.000, 0.000, 0.125, 0.000, 0.125, 0.250, 0.125, 0.000, 0.125, 0.000, 0.125, -0.125, 0.000 },
 {0.000, 0.000, -0.125, 0.125, 0.125, 0.125, 0.000, -0.125, 0.000, 0.125, 0.000, 0.250, 0.125, 0.000, -0.500, 0.125, 0.000, -0.125, -0.125, 0.125, 0.125, 0.000, 0.000, 0.000, 0.125, 0.000, 0.125, 0.250, 0.000, 0.000, -0.125, 0.000 },
 {0.125, 0.125, -0.125, 0.125, 0.125, 0.125, 0.000, 0.000, 0.000, -0.125, 0.000, 0.125, 0.000, 0.125, -0.250, -0.125, 0.125, 0.125, -0.125, 0.250, 0.000, 0.000, 0.125, 0.000, 0.125, 0.000, 0.125, 0.250, -0.125, 0.000, -0.125, 0.000 },
 {0.000, 0.000, -0.125, 0.125, 0.125, 0.125, 0.000, -0.125, 0.000, -0.125, -0.125, 0.125, 0.250, 0.125, -0.125, -0.125, 0.000, 0.000, -0.125, 0.125, 0.000, 0.125, 0.125, 0.125, 0.000, 0.000, 0.125, 0.500, -0.125, 0.125, -0.125, 0.125 },
 {0.125, 0.000, -0.125, 0.125, 0.125, 0.000, 0.000, 0.125, 0.125, 0.000, -0.125, 0.250, 0.000, 0.000, 0.125, 0.125, -0.125, -0.125, -0.125, 0.250, 0.125, 0.125, 0.125, 0.125, 0.000, 0.125, 0.000, 0.250, 0.000, 0.125, 0.000, 0.125 },
 {0.250, -0.125, -0.250, 0.000, -0.125, 0.000, 0.125, 0.000, 0.000, -0.125, -0.125, 0.250, 0.000, 0.000, 0.250, 0.000, -0.250, 0.000, -0.250, 0.250, 0.000, 0.125, 0.125, 0.125, 0.125, 0.000, 0.000, 0.250, 0.000, 0.125, -0.125, 0.250 },
 {0.250, -0.250, -0.250, 0.125, 0.000, 0.000, -0.125, 0.000, 0.000, 0.000, 0.125, 0.000, -0.125, 0.000, 0.250, 0.125, -0.125, -0.125, -0.125, 0.125, -0.125, -0.125, 0.125, 0.125, 0.000, 0.125, 0.000, 0.125, 0.000, 0.125, 0.125, 0.125 },
 {0.125, -0.125, -0.250, 0.125, 0.125, 0.125, -0.125, 0.000, 0.000, 0.125, 0.125, 0.000, 0.000, 0.000, 0.250, 0.000, 0.000, -0.125, -0.125, 0.250, 0.125, 0.125, 0.250, 0.125, -0.125, -0.125, -0.125, 0.000, 0.000, 0.000, 0.000, 0.250 },
 {0.000, 0.000, -0.125, 0.125, 0.125, 0.000, 0.000, 0.000, 0.000, -0.125, 0.125, 0.250, -0.125, -0.125, 0.125, -0.125, 0.125, -0.125, -0.250, 0.250, 0.125, 0.125, 0.125, 0.250, 0.000, 0.125, 0.125, 0.000, 0.125, 0.000, 0.000, 0.125 },
 {0.000, 0.125, 0.000, 0.000, 0.000, -0.250, 0.125, 0.125, 0.250, 0.125, 0.125, -0.125, -0.125, -0.125, 0.125, 0.000, 0.125, -0.125, 0.125, 0.125, 0.125, -0.125, 0.250, 0.125, -0.125, 0.125, 0.125, 0.000, 0.000, 0.000, -0.125, 0.250 },
 {0.000, 0.250, -0.250, 0.125, 0.000, -0.125, 0.125, 0.125, 0.250, 0.250, 0.250, 0.000, 0.000, -0.250, 0.000, 0.125, 0.125, -0.125, 0.000, 0.125, 0.000, -0.250, 0.125, 0.000, -0.250, 0.000, 0.000, -0.500, 0.250, 0.125, 0.125, 0.250 },
 {0.125, 0.125, -0.250, 0.125, 0.000, 0.000, 0.000, -0.250, 0.250, 0.250, 0.250, -0.250, 0.250, -0.250, -0.250, 0.500, 0.000, -0.125, 0.250, 0.125, -0.125, -0.500, 0.250, -0.125, -0.500, -0.125, -0.250, -0.500, 0.125, -0.125, 0.250, 0.250 },
 {0.500, 0.250, -0.250, 0.250, 0.250, -0.125, 0.125, 0.000, 0.125, 0.125, 0.500, -0.125, 0.500, 0.000, -0.500, 0.125, 0.125, -0.125, 0.125, 0.250, -0.250, -0.125, 0.250, 0.125, -0.125, 0.000, 0.000, -0.250, 0.125, 0.125, 0.500, 0.500 },
 {0.500, 0.125, -0.125, 0.125, 0.250, -0.125, 0.000, 0.000, -0.125, 0.125, 0.500, 0.000, 0.125, 0.000, -0.125, 0.250, 0.125, 0.000, 0.125, 0.500, 0.000, -0.125, 0.125, -0.125, 0.000, 0.000, 0.125, 0.000, -0.125, 0.250, 0.250, 0.500 },
 {0.000, 0.000, 0.125, -0.125, 0.125, -0.125, 0.000, 0.000, 0.000, 0.125, 0.125, -0.125, 0.125, 0.000, 0.125, 0.125, -0.125, -0.125, 0.000, 0.250, 0.000, 0.000, 0.125, 0.000, 0.125, 0.000, 0.000, 0.000, 0.000, 0.000, 0.000, 0.125 },
 {0.000, 0.000, 0.000, 0.000, 0.000, -0.125, 0.000, 0.000, -0.125, 0.000, 0.000, 0.000, 0.125, 0.000, 0.000, 0.000, -0.125, -0.125, 0.000, 0.000, 0.000, 0.000, 0.125, 0.125, 0.000, 0.000, 0.000, 0.000, 0.000, -0.125, 0.000, 0.125 },
 {0.000, -0.125, -0.125, -0.250, 0.000, -0.125, -0.125, 0.000, 0.000, 0.125, 0.000, 0.125, 0.000, 0.125, 0.125, 0.000, 0.000, 0.000, 0.125, 0.125, 0.000, 0.000, 0.125, -0.125, 0.125, 0.125, -0.125, 0.125, 0.125, -0.125, 0.000, 0.000 },
 {0.125, -0.250, 0.000, -0.125, 0.250, -0.125, 0.000, 0.250, 0.000, 0.000, 0.000, 0.250, -0.250, 0.125, 0.000, 0.250, -0.125, 0.000, 0.125, -0.125, 0.000, 0.125, 0.250, -0.250, 0.000, 0.250, -0.125, 0.250, 0.250, -0.250, 0.250, 0.000 },
 {0.000, 0.000, -0.125, 0.000, 0.250, 0.000, -0.250, 0.250, 0.125, 0.125, 0.000, 0.250, 0.125, -0.125, 0.000, 0.500, -0.125, 0.500, 0.250, 0.000, -0.125, 0.125, 0.250, 0.125, 0.125, 0.125, -0.125, 0.125, 0.125, -0.125, 0.250, -0.125 },
 {-0.250, 0.125, -0.250, -0.125, 0.250, -0.125, -0.250, -0.125, 0.000, 0.250, 0.125, -0.250, 0.500, -0.125, 0.125, 0.250, 0.250, 0.500, 0.250, 0.000, -0.125, 0.000, 0.000, 0.250, 0.500, -0.250, 0.000, -0.125, 0.125, 0.000, -0.125, -0.250 },
 {-0.250, -0.125, -0.250, -0.125, 0.000, -0.125, -0.500, 0.125, 0.125, 0.125, 0.000, -0.125, 0.250, -0.250, 0.000, 0.125, 0.125, 0.250, 0.250, 0.125, 0.000, -0.125, 0.125, 0.125, 0.500, 0.000, -0.125, -0.125, 0.125, 0.000, 0.125, -0.125 },
 {-0.250, 0.000, 0.000, -0.250, 0.125, 0.000, -0.250, 0.000, 0.125, 0.000, -0.125, 0.125, 0.250, -0.250, 0.125, 0.125, 0.125, 0.125, 0.125, -0.125, -0.125, 0.125, 0.125, 0.000, 0.250, 0.125, -0.125, -0.125, 0.125, 0.000, 0.125, -0.125 },
 {-0.125, 0.125, 0.125, 0.000, 0.125, 0.000, -0.250, 0.000, 0.000, -0.250, 0.000, 0.000, 0.000, -0.250, 0.000, 0.000, -0.125, 0.000, 0.250, -0.125, -0.125, 0.000, 0.125, 0.000, 0.125, 0.125, -0.125, 0.000, 0.125, 0.000, 0.000, -0.125 },
 {0.125, -0.125, -0.250, 0.000, 0.125, 0.000, -0.125, 0.000, 0.000, -0.250, 0.125, 0.125, 0.125, 0.000, -0.125, 0.125, 0.000, -0.250, 0.125, -0.125, 0.000, 0.125, 0.125, -0.125, 0.125, 0.250, 0.000, -0.125, 0.125, 0.125, 0.000, 0.125 },
 {0.125, 0.000, 0.000, 0.125, 0.125, -0.125, -0.125, 0.000, 0.000, -0.125, 0.000, 0.000, 0.125, -0.125, 0.000, 0.125, 0.000, -0.250, 0.125, -0.125, 0.000, 0.000, 0.125, 0.000, 0.250, 0.250, -0.125, -0.250, 0.125, 0.000, 0.000, 0.125 },
 {0.125, -0.125, 0.125, 0.125, 0.125, 0.000, -0.250, 0.000, 0.000, 0.125, -0.125, 0.000, 0.000, 0.000, -0.125, 0.125, 0.000, -0.250, 0.125, 0.000, 0.000, -0.125, 0.125, 0.000, 0.250, 0.250, -0.125, -0.125, 0.125, 0.000, 0.000, 0.125 },
 {0.125, -0.125, 0.125, 0.125, 0.000, 0.000, -0.125, 0.250, 0.000, 0.125, 0.000, 0.000, 0.125, 0.000, 0.000, 0.000, 0.125, -0.250, 0.125, 0.000, 0.125, 0.000, 0.000, 0.000, 0.500, 0.250, 0.000, -0.125, 0.000, 0.000, 0.125, 0.125 },
 {0.125, -0.125, 0.125, 0.125, 0.000, -0.125, -0.250, 0.000, 0.000, 0.125, -0.125, 0.250, 0.125, 0.000, -0.125, 0.000, 0.125, -0.125, -0.125, 0.125, 0.000, 0.250, -0.125, 0.000, 0.250, 0.250, 0.250, 0.000, 0.000, 0.125, 0.000, 0.000 },
 {0.000, -0.125, -0.125, 0.000, 0.000, 0.125, -0.125, 0.000, 0.000, 0.125, 0.000, 0.250, 0.125, -0.125, -0.250, 0.000, 0.250, -0.125, -0.125, 0.125, 0.000, 0.250, -0.250, 0.125, 0.250, 0.125, 0.125, 0.000, -0.125, 0.125, -0.250, 0.000 },
 {0.125, 0.125, 0.125, 0.000, -0.125, 0.250, 0.000, 0.000, 0.000, 0.000, -0.125, 0.250, 0.250, 0.000, -0.250, -0.125, 0.000, -0.125, -0.125, 0.250, 0.000, 0.125, -0.125, -0.125, 0.250, 0.000, 0.125, 0.000, 0.000, 0.000, -0.250, 0.000 },
 {0.125, 0.125, -0.125, 0.125, -0.125, 0.000, -0.125, 0.000, 0.000, -0.125, -0.125, 0.125, 0.000, 0.000, -0.250, 0.000, 0.000, 0.000, -0.125, 0.250, 0.000, 0.125, 0.125, -0.125, 0.000, 0.000, 0.125, 0.250, 0.000, 0.000, -0.125, 0.125 },
 {0.125, 0.000, -0.250, 0.000, 0.000, -0.125, 0.000, 0.125, 0.000, -0.250, 0.000, 0.250, 0.125, 0.000, 0.000, 0.000, -0.250, 0.000, 0.000, 0.250, 0.125, 0.000, 0.125, 0.000, 0.000, 0.000, 0.250, 0.125, 0.000, 0.000, 0.000, 0.125 },
 {0.000, 0.000, -0.125, 0.125, -0.125, -0.250, 0.125, 0.125, 0.125, -0.125, -0.125, 0.125, 0.000, -0.125, 0.125, 0.000, -0.250, 0.125, 0.000, 0.125, 0.125, 0.000, 0.125, 0.250, 0.000, 0.125, 0.250, 0.125, 0.000, 0.125, 0.125, 0.125 },
 {0.125, -0.125, -0.125, 0.000, 0.000, -0.125, 0.000, 0.250, 0.000, -0.125, 0.000, 0.250, 0.000, 0.000, 0.125, 0.000, -0.250, 0.000, 0.000, 0.125, 0.125, 0.000, 0.125, 0.250, 0.000, 0.250, 0.125, 0.125, 0.125, 0.125, 0.125, 0.250 },
 {0.250, -0.125, -0.250, 0.000, 0.000, 0.000, -0.125, 0.250, 0.125, -0.125, -0.125, 0.125, 0.000, 0.000, 0.500, 0.000, -0.250, -0.125, 0.000, 0.250, 0.000, -0.125, 0.125, 0.125, 0.000, 0.125, 0.000, 0.125, 0.000, 0.000, 0.125, 0.250 },
 {0.125, -0.250, -0.250, 0.125, 0.125, 0.125, -0.125, 0.125, 0.000, 0.000, -0.125, 0.125, -0.125, 0.000, 0.250, 0.125, -0.125, -0.250, 0.000, 0.125, 0.000, 0.000, 0.125, 0.125, 0.000, 0.000, 0.000, 0.125, 0.000, 0.125, 0.125, 0.250 },
 {0.125, -0.125, -0.125, 0.125, 0.000, 0.000, 0.125, 0.000, 0.000, 0.000, 0.125, 0.125, 0.125, 0.000, 0.125, 0.000, 0.000, -0.250, -0.125, 0.250, 0.000, 0.000, 0.125, 0.125, -0.125, 0.250, 0.000, 0.250, 0.000, 0.000, 0.125, 0.250 },
 {0.000, 0.000, -0.125, 0.125, 0.000, 0.000, 0.000, 0.125, 0.250, 0.125, 0.125, 0.000, 0.125, 0.000, 0.125, 0.125, 0.125, -0.250, -0.125, 0.250, 0.125, -0.250, 0.125, 0.125, -0.125, 0.250, 0.000, 0.000, 0.125, 0.125, 0.125, 0.125 },
 {0.000, 0.000, -0.125, 0.000, 0.000, -0.125, 0.000, 0.125, 0.250, 0.125, -0.125, 0.000, 0.000, 0.000, -0.125, 0.500, 0.250, 0.000, -0.125, 0.125, 0.000, -0.250, 0.125, 0.125, -0.125, 0.250, 0.000, 0.000, 0.250, 0.250, 0.000, 0.000 },
 {0.250, 0.125, -0.250, 0.250, 0.000, 0.125, 0.000, 0.125, 0.250, 0.125, 0.250, -0.250, 0.125, -0.250, -0.500, 0.500, 0.250, -0.500, 0.125, 0.250, -0.250, -0.250, 0.250, 0.000, -0.500, -0.125, -0.250, -0.500, 0.000, -0.250, 0.250, 0.500 },
 {0.500, 0.250, -0.250, 0.250, 0.125, 0.000, 0.125, 0.000, 0.125, 0.000, 0.500, 0.000, 0.500, -0.250, -0.500, 0.500, 0.125, -0.500, 0.000, 0.500, -0.250, -0.125, 0.125, 0.125, -0.250, -0.125, -0.125, -0.500, -0.250, 0.000, 0.500, 1.000 },
 {0.250, 0.000, -0.125, 0.125, 0.250, 0.000, 0.125, 0.000, 0.125, 0.250, 0.500, 0.000, 0.250, -0.125, 0.125, 0.500, 0.000, -0.250, 0.250, 0.500, 0.125, -0.125, 0.250, -0.125, 0.000, -0.125, 0.000, 0.000, -0.125, 0.000, 0.250, 0.500 },
 {0.125, 0.000, -0.125, 0.000, 0.125, -0.125, 0.125, 0.000, 0.000, 0.000, 0.250, 0.000, 0.000, 0.000, 0.000, 0.250, -0.125, -0.125, 0.000, 0.250, 0.125, 0.000, 0.000, 0.000, 0.000, 0.000, 0.125, 0.000, 0.000, 0.125, 0.125, 0.125 },
 {0.000, -0.125, 0.125, 0.000, 0.125, 0.000, 0.000, 0.125, 0.000, 0.000, 0.000, 0.000, 0.000, 0.000, 0.000, -0.125, -0.125, 0.000, -0.125, 0.000, 0.000, 0.000, 0.125, 0.000, 0.000, 0.000, 0.125, 0.000, 0.000, 0.000, -0.125, 0.000 },
 {0.000, -0.125, 0.000, -0.125, 0.000, 0.000, 0.000, 0.000, 0.000, 0.000, 0.000, 0.250, 0.000, 0.125, 0.125, 0.250, 0.000, 0.000, 0.125, -0.125, -0.125, 0.000, 0.125, -0.125, 0.000, 0.125, 0.000, 0.000, 0.250, 0.000, 0.125, -0.125 },
 {-0.125, -0.250, 0.000, 0.000, 0.250, -0.125, -0.125, 0.250, 0.125, 0.125, -0.250, 0.500, -0.250, 0.250, 0.000, 0.500, 0.000, -0.125, 0.250, -0.125, -0.125, 0.250, 0.500, -0.125, -0.125, 0.250, 0.000, 0.250, 0.500, -0.125, 0.500, 0.125 },
 {0.125, -0.125, -0.500, -0.125, 0.125, 0.000, -0.125, 0.250, 0.125, 0.250, -0.125, 0.250, 0.000, 0.000, 0.000, 0.500, -0.125, 0.250, 0.500, 0.125, -0.125, 0.125, 0.500, 0.000, 0.250, 0.125, -0.125, 0.250, 0.125, -0.125, 0.500, 0.000 },
 {-0.125, 0.125, -0.500, 0.000, 0.125, -0.250, -0.250, -0.125, 0.125, 0.125, -0.125, 0.250, 0.250, -0.250, 0.000, 0.250, 0.125, 0.250, 0.125, -0.125, -0.125, 0.250, 0.125, 0.250, 0.500, -0.250, -0.125, -0.125, 0.125, 0.125, 0.125, -0.250 },
 {0.000, 0.000, -0.250, 0.000, 0.250, 0.000, -0.250, 0.125, 0.000, -0.125, 0.000, 0.000, 0.250, -0.250, 0.000, 0.125, 0.125, 0.125, 0.250, 0.125, 0.000, 0.000, 0.125, 0.000, 0.250, 0.125, 0.000, -0.250, 0.125, 0.125, 0.250, -0.125 },
 {0.000, 0.125, 0.000, 0.125, 0.125, -0.125, -0.500, 0.000, 0.000, 0.000, 0.000, 0.000, 0.125, -0.125, 0.125, 0.250, 0.000, 0.125, 0.125, -0.125, -0.250, 0.125, 0.000, 0.125, 0.250, 0.250, 0.000, -0.125, 0.125, 0.125, 0.125, -0.125 },
 {0.125, -0.125, 0.000, 0.125, 0.250, -0.125, -0.500, 0.125, 0.125, -0.125, 0.000, 0.000, 0.125, 0.000, 0.125, 0.125, 0.000, -0.125, 0.125, -0.250, -0.125, 0.000, 0.250, 0.000, 0.250, 0.250, 0.000, -0.125, 0.250, 0.125, 0.000, 0.000 },
 {0.125, -0.125, -0.125, 0.000, 0.250, -0.125, -0.250, 0.125, 0.250, -0.250, -0.250, 0.000, 0.000, 0.000, 0.125, 0.125, -0.125, -0.250, 0.000, -0.125, 0.125, 0.125, 0.250, 0.000, 0.250, 0.250, 0.000, -0.125, 0.125, 0.125, 0.000, 0.000 },
 {0.000, -0.125, -0.125, 0.125, 0.000, -0.125, -0.250, 0.125, 0.000, -0.125, -0.125, 0.000, 0.125, 0.000, 0.125, 0.250, 0.125, -0.250, 0.000, 0.000, 0.250, 0.125, 0.250, 0.125, 0.125, 0.125, -0.125, -0.125, 0.000, 0.000, 0.125, 0.000 },
 {0.125, 0.000, 0.000, -0.125, 0.125, -0.250, -0.125, 0.125, 0.125, -0.125, -0.250, 0.000, 0.125, 0.000, 0.125, 0.000, 0.125, -0.250, 0.000, -0.125, 0.125, 0.000, -0.125, 0.000, 0.250, 0.250, -0.250, 0.000, 0.000, 0.250, 0.125, 0.000 },
 {0.125, -0.125, 0.125, -0.125, 0.000, 0.000, -0.125, 0.000, 0.000, -0.125, -0.125, -0.125, 0.000, 0.000, 0.000, 0.000, 0.250, -0.500, 0.125, 0.000, 0.125, 0.125, 0.000, -0.125, 0.125, 0.125, 0.000, 0.000, 0.125, 0.125, 0.125, 0.000 },
 {0.125, -0.125, 0.000, 0.000, 0.125, 0.000, -0.250, 0.250, -0.125, 0.125, -0.125, 0.000, 0.000, 0.000, 0.000, 0.125, 0.250, -0.250, 0.125, 0.000, -0.125, 0.125, 0.000, -0.125, 0.125, 0.250, 0.125, -0.125, 0.000, 0.125, 0.000, 0.125 },
 {0.250, 0.125, 0.000, 0.125, 0.250, 0.000, -0.125, 0.000, 0.000, 0.125, 0.000, -0.125, 0.125, 0.000, -0.250, 0.000, 0.250, -0.125, 0.125, 0.000, -0.250, 0.125, -0.250, 0.000, 0.125, 0.250, 0.250, 0.000, 0.000, 0.125, -0.125, -0.125 },
 {0.125, 0.125, 0.000, 0.000, 0.250, 0.125, 0.000, 0.125, -0.125, 0.250, -0.250, 0.125, 0.000, 0.000, -0.500, 0.000, 0.000, -0.125, 0.000, 0.000, 0.125, 0.125, -0.125, -0.125, 0.125, 0.000, 0.500, 0.250, -0.125, 0.250, -0.250, -0.125 },
 {0.000, 0.000, 0.000, 0.000, 0.000, 0.000, 0.000, 0.000, 0.000, 0.000, -0.125, 0.250, 0.000, -0.125, -0.250, 0.125, -0.125, 0.000, 0.000, -0.125, 0.250, 0.000, 0.000, 0.000, 0.125, 0.125, 0.125, 0.125, -0.125, 0.125, 0.125, -0.125 },
 {0.250, 0.125, -0.250, 0.000, -0.125, -0.125, 0.125, 0.250, -0.125, -0.125, 0.000, 0.250, 0.125, 0.000, 0.125, 0.000, -0.250, 0.000, 0.000, 0.125, 0.000, -0.125, 0.000, 0.125, 0.000, 0.125, 0.000, 0.125, -0.125, 0.000, 0.000, -0.250 },
 {0.125, 0.000, -0.125, 0.000, 0.000, -0.250, -0.125, 0.250, 0.000, 0.125, 0.125, 0.125, -0.125, -0.125, 0.250, 0.000, -0.250, 0.000, -0.125, 0.125, 0.250, 0.000, 0.000, 0.250, 0.125, 0.125, 0.000, 0.125, 0.000, 0.125, 0.125, -0.125 },
 {0.250, -0.250, -0.250, -0.125, 0.000, -0.125, -0.125, 0.250, 0.125, 0.000, 0.125, 0.250, 0.000, 0.000, 0.250, 0.125, -0.250, -0.125, -0.125, 0.250, 0.125, -0.125, 0.125, 0.125, 0.125, 0.250, 0.000, 0.125, 0.000, 0.250, 0.250, 0.000 },
 {0.250, 0.000, 0.000, 0.000, -0.125, 0.000, -0.250, 0.125, 0.000, 0.125, 0.250, 0.125, 0.000, 0.000, 0.250, 0.000, -0.125, -0.125, 0.000, 0.125, 0.000, -0.125, 0.000, 0.125, 0.000, 0.125, 0.000, 0.000, 0.000, 0.250, 0.000, 0.000 },
 {0.125, -0.125, 0.000, -0.125, 0.000, 0.125, 0.000, 0.000, 0.000, 0.125, 0.125, 0.000, -0.125, -0.125, 0.125, 0.000, 0.000, -0.250, 0.000, 0.250, 0.000, -0.250, 0.000, 0.125, 0.000, 0.125, 0.000, 0.000, 0.125, 0.000, 0.250, 0.000 },
 {0.125, -0.125, 0.000, 0.000, 0.000, 0.250, 0.000, 0.000, 0.000, 0.125, 0.125, 0.125, 0.000, -0.125, 0.250, 0.000, -0.125, -0.250, 0.000, 0.250, 0.000, -0.125, 0.125, 0.125, -0.125, 0.250, 0.000, 0.000, 0.125, 0.000, 0.250, 0.125 },
 {0.125, -0.125, -0.125, -0.125, 0.000, 0.000, 0.000, -0.250, 0.000, 0.000, 0.125, -0.125, 0.125, 0.000, 0.125, 0.250, 0.250, 0.000, 0.125, 0.125, 0.125, -0.250, 0.125, 0.000, -0.125, 0.125, 0.125, 0.000, 0.125, 0.250, 0.125, 0.000 },
 {-0.125, -0.250, -0.125, 0.000, 0.125, 0.000, -0.125, 0.250, 0.125, -0.250, 0.000, -0.125, 0.125, -0.125, -0.250, 0.250, 0.250, -0.250, 0.000, 0.125, 0.000, -0.250, 0.125, 0.000, -0.250, 0.250, 0.125, -0.125, 0.250, 0.125, 0.125, 0.000 },
 {0.250, -0.125, -0.250, 0.250, -0.125, -0.125, -0.125, 0.250, 0.125, 0.125, 0.250, -0.125, 0.125, -0.125, -0.500, 0.500, 0.125, -0.500, 0.125, 0.500, -0.250, -0.250, 0.250, 0.000, -0.500, 0.250, 0.250, -0.250, -0.125, -0.125, 0.250, 0.250 },
 {0.500, 0.000, -0.250, 0.250, 0.250, 0.125, 0.000, 0.125, 0.000, 0.250, 0.500, 0.000, 0.500, -0.125, -0.500, 1.000, 0.000, -0.500, 0.250, 0.500, -0.250, -0.125, 0.250, 0.000, -0.250, 0.000, -0.125, -0.250, -0.125, 0.000, 0.500, 0.500 },
 {0.500, 0.250, -0.125, 0.250, 0.250, 0.125, 0.000, -0.125, -0.125, 0.000, 0.500, 0.125, 0.500, 0.000, 0.000, 0.250, 0.125, -0.250, 0.000, 0.500, 0.000, -0.125, 0.000, 0.125, 0.000, 0.000, -0.125, 0.000, -0.125, 0.125, 0.250, 0.250 },
 {0.250, 0.000, -0.125, -0.125, 0.000, 0.000, 0.000, 0.125, 0.000, 0.125, 0.125, 0.000, 0.125, 0.125, 0.000, 0.125, -0.125, 0.000, 0.125, 0.125, 0.125, 0.000, -0.125, 0.000, 0.125, 0.000, -0.125, 0.000, 0.000, 0.125, 0.125, 0.000 },
 {-0.125, 0.000, 0.000, 0.000, 0.000, 0.000, 0.000, 0.000, 0.125, 0.125, 0.000, 0.000, 0.125, 0.000, 0.000, 0.125, 0.000, 0.000, 0.000, 0.000, 0.000, 0.000, 0.000, -0.125, 0.000, 0.000, -0.125, 0.000, 0.125, -0.125, 0.125, 0.000 },
 {0.000, -0.125, 0.000, -0.125, 0.125, 0.000, 0.000, 0.000, 0.000, 0.125, -0.125, 0.250, -0.125, 0.000, 0.125, 0.250, 0.000, 0.125, 0.250, -0.125, 0.125, 0.000, 0.250, -0.125, 0.000, 0.250, 0.000, 0.250, 0.125, -0.125, 0.125, 0.125 },
 {-0.125, -0.250, 0.000, 0.000, 0.250, -0.125, -0.250, 0.500, 0.125, 0.250, -0.250, 0.500, -0.250, 0.250, 0.250, 0.500, 0.125, -0.250, 0.250, -0.125, 0.000, 0.250, 0.500, -0.125, 0.000, 0.250, -0.125, 0.500, 0.250, 0.000, 0.500, 0.000 },
 {0.125, -0.250, -0.125, 0.000, 0.125, -0.125, -0.250, 0.125, 0.125, 0.250, -0.125, 0.250, 0.125, 0.250, 0.125, 0.500, -0.125, 0.250, 0.250, 0.000, -0.125, 0.250, 0.250, -0.250, 0.125, 0.250, -0.250, 0.250, 0.250, 0.125, 0.250, 0.125 },
 {0.000, 0.250, -0.250, 0.125, 0.250, -0.250, -0.250, 0.000, 0.000, 0.250, 0.000, 0.125, 0.250, 0.125, 0.000, 0.125, 0.250, 0.250, 0.125, 0.000, -0.125, 0.000, -0.125, 0.250, 0.250, 0.000, 0.000, 0.125, 0.250, 0.250, 0.000, -0.250 },
 {-0.125, 0.000, 0.000, 0.125, 0.500, 0.000, -0.125, 0.125, 0.125, 0.125, 0.000, 0.125, 0.125, 0.125, 0.125, 0.125, 0.125, 0.125, 0.000, 0.000, 0.125, 0.000, 0.125, 0.125, 0.000, 0.125, -0.125, -0.125, 0.250, 0.250, 0.125, -0.250 },
 {0.250, -0.125, -0.250, 0.000, 0.125, 0.000, -0.250, 0.000, -0.125, 0.000, 0.125, 0.125, 0.125, 0.000, 0.000, 0.125, 0.000, 0.000, -0.125, -0.125, 0.000, 0.125, 0.125, 0.000, 0.125, 0.250, 0.000, -0.125, 0.125, 0.250, 0.000, -0.125 },
 {0.000, -0.125, 0.000, -0.125, 0.125, 0.000, -0.500, 0.000, 0.125, 0.000, -0.125, 0.125, 0.125, 0.000, 0.000, 0.125, -0.125, -0.250, 0.125, -0.125, 0.125, 0.250, 0.125, 0.000, 0.000, 0.250, 0.125, -0.250, 0.125, 0.125, 0.000, 0.000 },
 {0.125, -0.125, -0.125, 0.000, 0.125, -0.125, -0.250, -0.125, 0.125, -0.125, -0.250, 0.000, 0.000, 0.000, 0.125, 0.250, -0.250, -0.125, 0.000, 0.000, 0.000, 0.250, 0.250, -0.125, 0.000, 0.000, -0.250, 0.000, 0.125, 0.125, 0.000, 0.000 },
 {0.125, 0.000, 0.000, 0.000, 0.250, -0.125, -0.250, 0.125, 0.000, 0.000, -0.125, 0.000, 0.000, 0.125, 0.000, 0.000, -0.125, -0.250, -0.125, 0.000, 0.125, 0.250, 0.000, 0.000, 0.000, 0.000, -0.125, 0.000, 0.000, 0.125, 0.125, -0.125 },
 {0.250, 0.000, 0.125, 0.000, 0.125, -0.125, 0.000, 0.250, 0.125, -0.250, -0.250, 0.125, 0.000, 0.125, 0.000, -0.125, -0.125, -0.500, 0.000, -0.125, 0.250, 0.250, -0.125, 0.000, -0.125, 0.125, -0.125, 0.000, 0.000, 0.125, 0.000, 0.000 },
 {0.125, 0.000, 0.125, 0.000, 0.125, 0.000, 0.000, 0.125, 0.000, -0.125, 0.000, -0.250, -0.125, 0.000, 0.125, 0.000, 0.125, -0.500, -0.125, -0.125, 0.125, 0.125, 0.000, -0.250, -0.250, 0.250, -0.125, 0.000, 0.000, 0.125, 0.125, 0.125 },
 {0.125, -0.125, -0.125, -0.125, 0.125, 0.000, 0.000, 0.000, 0.000, -0.125, -0.125, 0.000, 0.000, 0.125, 0.125, 0.000, 0.250, -0.125, 0.125, -0.125, 0.000, 0.250, -0.125, -0.125, -0.250, 0.125, 0.000, 0.125, -0.125, 0.125, 0.000, 0.000 },
 {0.125, -0.125, 0.000, 0.000, 0.250, 0.125, 0.000, 0.000, -0.125, 0.125, -0.125, 0.125, 0.000, 0.125, -0.250, 0.000, 0.125, 0.000, 0.125, 0.000, -0.250, 0.125, -0.125, -0.125, -0.250, 0.250, 0.250, 0.000, 0.000, 0.250, -0.125, -0.250 },
 {-0.125, 0.000, 0.125, -0.125, 0.125, 0.000, 0.000, 0.000, 0.000, 0.125, -0.250, 0.000, 0.000, -0.125, -0.500, -0.125, -0.125, 0.125, 0.125, -0.250, 0.000, 0.125, -0.125, -0.125, -0.125, 0.250, 0.250, 0.000, 0.000, 0.250, -0.250, -0.250 },
 {0.000, 0.125, 0.000, -0.125, 0.000, -0.125, 0.000, -0.125, 0.000, 0.125, -0.125, 0.125, 0.125, -0.125, -0.250, 0.000, -0.250, 0.250, 0.000, -0.125, 0.125, 0.000, -0.125, 0.000, -0.125, 0.250, 0.250, 0.125, 0.000, 0.250, -0.125, -0.500 },
 {0.125, 0.125, -0.125, -0.125, 0.000, -0.125, 0.000, 0.125, 0.000, 0.000, 0.125, 0.250, 0.125, 0.000, 0.250, 0.125, -0.250, 0.000, 0.000, -0.125, 0.125, 0.000, -0.125, 0.000, -0.125, 0.250, 0.125, 0.000, -0.250, 0.000, 0.000, -0.500 },
 {0.125, 0.125, -0.125, -0.125, 0.000, -0.125, 0.000, 0.250, 0.000, 0.125, 0.125, 0.250, -0.250, 0.000, 0.125, 0.250, -0.125, 0.000, 0.000, -0.125, 0.125, 0.000, 0.000, 0.250, 0.125, 0.250, -0.125, 0.000, 0.000, 0.250, 0.000, -1.000 },
 {0.000, 0.000, -0.125, -0.125, -0.125, 0.250, 0.125, 0.250, 0.125, 0.125, 0.125, 0.250, -0.125, -0.125, 0.125, 0.125, 0.125, -0.125, -0.125, -0.125, 0.000, 0.000, -0.125, 0.125, 0.000, 0.250, 0.000, 0.000, -0.125, 0.250, 0.000, -1.000 },
 {0.000, 0.000, -0.125, -0.125, 0.000, 0.125, 0.000, 0.125, 0.125, 0.125, 0.125, 0.125, 0.000, 0.000, 0.125, 0.125, 0.250, -0.125, -0.125, 0.000, 0.000, 0.000, 0.000, 0.250, -0.125, 0.250, -0.125, 0.000, -0.125, 0.250, -0.125, -1.000 },
 {0.000, -0.125, 0.000, 0.000, 0.000, 0.125, -0.125, 0.000, 0.125, 0.000, 0.000, 0.125, 0.000, -0.125, 0.000, 0.125, 0.125, -0.125, 0.000, -0.125, 0.000, -0.125, 0.125, 0.250, 0.000, 0.250, 0.000, 0.000, 0.000, 0.125, 0.125, -0.500 },
 {0.000, 0.000, 0.125, -0.125, -0.125, 0.000, -0.125, 0.000, 0.000, 0.125, 0.000, 0.000, -0.125, -0.125, 0.125, 0.250, 0.250, -0.125, 0.000, 0.000, 0.125, -0.250, 0.000, 0.125, 0.000, 0.250, 0.250, -0.250, 0.250, 0.125, 0.250, -0.500 },
 {0.000, -0.250, -0.250, -0.125, 0.000, 0.000, -0.250, -0.125, 0.125, 0.000, 0.000, 0.125, 0.125, -0.125, 0.000, 0.500, 0.125, 0.000, 0.125, 0.000, 0.125, -0.250, 0.000, 0.000, 0.125, 0.125, 0.125, 0.125, -0.125, 0.250, 0.000, -0.500 },
 {-0.125, -0.250, 0.125, 0.000, 0.125, 0.000, 0.000, 0.125, 0.000, -0.125, 0.000, -0.125, 0.000, 0.125, -0.125, 0.250, 0.500, -0.500, 0.125, 0.250, 0.125, -0.250, 0.000, 0.000, -0.250, 0.250, 0.000, -0.125, 0.000, 0.250, 0.125, -0.500 },
 {0.125, -0.125, -0.125, 0.250, 0.000, 0.000, 0.000, 0.250, 0.000, 0.250, 0.250, -0.125, -0.250, 0.000, -1.000, 0.500, 0.125, -1.000, 0.125, 0.500, -0.125, -0.250, 0.250, 0.000, -1.000, 0.500, 0.250, 0.000, 0.125, 0.125, 0.125, -0.250 },
 {0.500, -0.125, 0.000, 0.250, 0.250, 0.125, 0.125, 0.125, 0.125, 0.500, 0.500, -0.125, 0.250, -0.125, -0.250, 1.000, 0.000, -0.500, 0.250, 0.500, -0.125, -0.125, 0.250, -0.125, -0.250, 0.000, 0.000, -0.125, -0.125, 0.125, 0.500, 0.000 },
 {0.500, 0.000, 0.000, -0.125, 0.250, 0.000, 0.000, -0.125, -0.250, 0.250, 0.500, -0.250, 0.500, 0.000, 0.000, 0.500, -0.250, 0.000, 0.125, 0.500, 0.000, -0.125, -0.125, 0.000, 0.000, 0.125, 0.000, 0.000, 0.000, 0.125, 0.250, 0.125 },
 {0.125, 0.000, 0.000, 0.000, 0.000, 0.000, 0.000, 0.000, 0.000, 0.125, 0.000, 0.000, 0.000, 0.000, 0.125, 0.125, 0.000, -0.125, 0.000, 0.250, 0.000, 0.000, 0.000, -0.125, 0.000, 0.125, 0.000, 0.000, 0.125, 0.000, 0.000, 0.000 },
 {0.000, 0.000, 0.000, 0.000, 0.000, 0.000, 0.000, 0.000, 0.000, 0.000, -0.125, 0.000, 0.000, 0.000, 0.000, 0.125, 0.125, 0.125, 0.125, 0.000, 0.000, 0.000, 0.000, 0.000, 0.000, 0.000, 0.000, 0.000, 0.000, 0.125, 0.000, 0.000 },
 {-0.125, -0.125, -0.125, -0.250, 0.000, 0.000, 0.000, 0.250, 0.000, 0.000, -0.125, 0.250, 0.000, 0.125, 0.125, 0.250, 0.000, 0.125, 0.250, 0.000, 0.000, 0.125, 0.250, -0.125, 0.000, 0.125, 0.000, 0.250, 0.125, 0.000, 0.250, 0.000 },
 {0.000, -0.250, -0.125, -0.125, 0.250, -0.125, -0.125, 0.250, 0.000, 0.125, -0.250, 0.500, -0.250, 0.125, 0.250, 0.500, 0.000, 0.000, 0.500, -0.125, -0.125, 0.125, 0.250, -0.250, 0.000, 0.250, 0.000, 0.250, 0.250, 0.000, 0.500, 0.000 },
 {0.125, -0.125, -0.125, -0.125, 0.125, -0.250, 0.000, 0.250, 0.000, 0.125, 0.000, 0.250, 0.125, 0.250, 0.125, 0.250, 0.250, 0.250, 0.500, 0.000, 0.000, 0.125, 0.125, -0.125, -0.125, 0.125, -0.125, 0.250, 0.125, 0.250, 0.125, 0.000 },
 {0.000, 0.000, -0.250, 0.000, 0.125, 0.000, -0.125, 0.125, 0.000, 0.250, 0.125, 0.125, 0.250, 0.000, -0.125, 0.125, 0.250, 0.125, 0.250, 0.000, 0.000, -0.125, 0.000, 0.000, 0.000, 0.125, 0.000, 0.125, 0.250, 0.125, 0.125, 0.125 },
 {0.000, 0.125, 0.000, 0.000, 0.250, 0.125, -0.125, 0.125, 0.125, 0.000, 0.125, 0.250, 0.125, 0.250, 0.000, 0.000, 0.000, 0.000, 0.000, 0.000, 0.125, 0.000, 0.125, 0.250, -0.250, 0.125, 0.000, 0.125, 0.250, 0.250, 0.000, 0.125 },
 {0.250, 0.000, 0.000, 0.000, 0.250, 0.125, -0.125, 0.000, -0.125, -0.125, 0.125, 0.250, 0.125, 0.250, -0.250, 0.000, 0.000, -0.125, 0.000, 0.000, 0.125, 0.250, 0.125, 0.000, -0.250, 0.125, 0.000, 0.000, -0.125, 0.125, -0.125, 0.125 },
 {-0.125, -0.125, 0.000, 0.000, 0.125, -0.125, -0.125, 0.000, -0.125, 0.125, 0.000, -0.125, 0.000, 0.000, 0.000, 0.000, 0.000, -0.250, 0.125, 0.125, 0.125, 0.125, 0.125, 0.000, -0.500, 0.125, 0.125, 0.000, 0.125, 0.125, 0.000, 0.125 },
 {0.125, -0.125, 0.000, 0.125, 0.250, 0.000, -0.125, 0.000, -0.125, -0.125, 0.125, 0.000, -0.125, 0.000, 0.250, 0.125, -0.250, -0.250, 0.000, 0.125, 0.125, 0.125, 0.250, 0.000, -0.500, 0.125, 0.000, 0.125, 0.000, 0.000, 0.000, 0.250 },
 {0.000, -0.250, 0.000, 0.000, 0.125, 0.000, 0.000, 0.250, 0.000, -0.125, 0.000, 0.000, -0.250, 0.125, 0.000, 0.000, -0.250, -0.250, 0.000, -0.125, 0.250, 0.125, 0.000, 0.000, -1.000, 0.125, -0.125, 0.000, 0.125, 0.125, 0.125, 0.125 },
 {0.125, 0.125, -0.125, 0.000, 0.125, -0.125, -0.125, 0.125, 0.000, -0.250, -0.125, 0.125, -0.250, 0.000, 0.000, 0.000, -0.125, -0.250, 0.000, 0.000, 0.125, 0.125, 0.125, -0.250, -1.000, 0.125, -0.250, 0.000, 0.125, 0.000, 0.000, 0.000 },
 {0.125, -0.125, -0.125, -0.125, 0.250, -0.125, 0.000, 0.250, 0.000, -0.250, -0.125, 0.125, -0.250, 0.125, 0.000, 0.000, 0.125, -0.125, 0.125, -0.125, 0.000, 0.125, 0.000, -0.250, -1.000, 0.125, 0.000, 0.000, 0.000, 0.125, 0.250, 0.000 },
 {0.000, -0.250, -0.125, 0.000, 0.000, 0.125, 0.000, 0.125, 0.000, -0.125, -0.125, -0.125, -0.125, 0.000, -0.125, 0.000, 0.125, 0.125, 0.125, -0.125, -0.125, 0.000, -0.125, -0.250, -0.500, 0.125, 0.125, 0.000, -0.125, 0.125, 0.125, 0.000 },
 {-0.125, 0.000, 0.125, -0.125, 0.000, 0.125, 0.000, -0.125, -0.125, 0.125, -0.500, 0.250, 0.000, 0.000, -0.500, -0.250, 0.000, 0.250, 0.250, -0.125, -0.250, 0.000, -0.125, -0.250, -0.500, 0.250, 0.125, 0.000, 0.000, 0.250, -0.125, -0.125 },
 {0.000, 0.000, 0.125, -0.125, -0.125, -0.250, 0.000, -0.250, -0.125, 0.250, -0.500, 0.250, -0.125, 0.000, -0.500, -0.125, 0.000, 0.250, 0.000, -0.125, -0.125, 0.000, -0.250, -0.125, -0.250, 0.250, 0.250, -0.250, 0.000, 0.250, -0.125, -0.250 },
 {0.000, 0.125, 0.125, -0.250, -0.250, -0.250, 0.125, -0.250, 0.125, 0.125, -0.250, 0.125, -0.125, -0.125, 0.000, 0.000, -0.250, 0.000, -0.125, -0.250, 0.250, 0.000, -0.125, -0.250, -0.125, 0.125, 0.250, -0.250, 0.125, 0.000, 0.000, -0.125 },
 {0.000, 0.125, 0.000, 0.000, -0.125, -0.250, 0.000, 0.000, 0.000, 0.000, 0.000, 0.250, -0.125, 0.000, 0.250, 0.000, -0.125, 0.000, 0.000, 0.000, 0.250, 0.000, -0.125, 0.000, 0.000, 0.250, 0.125, -0.250, -0.125, 0.000, 0.000, -0.250 },
 {0.000, 0.125, 0.000, 0.000, 0.000, 0.000, 0.000, 0.500, 0.000, -0.125, 0.000, 0.125, -0.125, -0.125, 0.250, 0.000, -0.125, 0.000, 0.000, -0.125, 0.125, 0.000, -0.250, 0.125, 0.000, 0.250, 0.000, -0.125, -0.125, 0.250, 0.000, -0.500 },
 {0.000, 0.250, 0.000, -0.125, 0.000, 0.000, 0.000, 0.250, 0.000, 0.000, 0.125, 0.125, 0.000, -0.125, 0.000, 0.125, 0.250, -0.125, 0.000, 0.000, -0.125, -0.125, -0.125, 0.125, 0.125, 0.125, -0.250, 0.125, 0.000, 0.250, 0.000, -1.000 },
 {-0.125, 0.250, -0.125, -0.125, -0.125, 0.125, -0.125, 0.125, 0.000, 0.125, 0.000, 0.125, -0.125, -0.125, 0.125, 0.125, 0.125, -0.125, 0.000, -0.125, -0.125, -0.125, 0.000, 0.125, 0.000, 0.000, -0.250, 0.000, 0.000, 0.250, 0.000, -1.000 },
 {0.125, 0.000, 0.000, -0.125, 0.000, 0.000, -0.250, 0.000, -0.125, 0.125, -0.125, 0.125, -0.125, 0.000, 0.125, 0.250, 0.000, -0.250, 0.125, 0.000, -0.250, 0.000, 0.125, 0.250, 0.000, 0.000, -0.250, 0.000, -0.125, 0.250, -0.250, -1.000 },
 {-0.125, 0.000, 0.125, 0.000, 0.000, -0.125, -0.125, 0.125, 0.000, 0.125, 0.000, 0.125, 0.000, -0.125, -0.125, 0.125, 0.250, -0.250, 0.000, 0.000, 0.000, 0.000, 0.125, 0.000, 0.000, 0.250, 0.125, 0.000, -0.125, 0.125, 0.000, -1.000 },
 {-0.125, -0.125, -0.125, 0.000, 0.000, -0.125, -0.250, 0.125, 0.000, 0.000, -0.125, 0.125, 0.000, -0.125, -0.125, 0.250, 0.250, -0.250, -0.125, 0.000, 0.000, 0.000, -0.125, 0.250, 0.000, 0.000, 0.000, 0.000, 0.000, 0.250, -0.250, -1.000 },
 {-0.125, -0.125, -0.125, 0.000, 0.000, -0.125, 0.125, 0.000, -0.125, 0.125, 0.125, 0.000, -0.250, 0.125, -0.500, 0.250, 0.500, -0.250, 0.000, 0.125, 0.250, 0.000, -0.125, 0.125, -0.125, 0.250, 0.250, 0.000, 0.125, 0.250, -0.125, -1.000 },
 {0.250, -0.500, 0.000, 0.125, 0.000, 0.000, 0.000, 0.250, 0.000, 0.250, 0.500, -0.125, -0.125, -0.125, -0.500, 1.000, -0.125, -0.500, 0.250, 0.500, 0.000, -0.125, 0.125, -0.125, -0.500, 0.500, 0.500, -0.125, 0.125, -0.250, -0.125, -0.500 },
 {0.500, -0.250, 0.000, -0.125, 0.250, -0.125, 0.125, 0.000, -0.125, 0.500, 0.500, 0.000, 0.250, -0.250, 0.000, 1.000, -0.125, -0.250, 0.250, 0.500, 0.000, 0.125, 0.250, -0.125, 0.000, 0.250, 0.000, 0.000, 0.000, 0.000, 0.125, -0.125 },
 {0.250, -0.250, 0.000, -0.250, 0.000, -0.125, 0.125, 0.125, -0.125, 0.500, 0.500, -0.250, 0.125, -0.250, 0.000, 0.500, -0.250, -0.125, 0.250, 0.500, 0.125, -0.250, 0.125, 0.000, 0.125, 0.125, 0.125, -0.125, -0.125, 0.125, 0.250, 0.000 },
 {0.000, 0.000, 0.000, 0.000, 0.000, 0.000, 0.000, 0.000, 0.000, 0.000, 0.000, -0.125, -0.125, 0.000, -0.125, 0.000, 0.000, 0.000, 0.125, 0.125, 0.000, -0.125, -0.125, 0.125, 0.000, 0.000, 0.000, -0.125, 0.125, 0.125, 0.125, 0.000 },
 {0.000, 0.000, -0.125, 0.000, 0.000, 0.000, 0.000, 0.000, 0.125, 0.000, 0.000, 0.125, 0.000, 0.000, 0.000, 0.125, 0.000, 0.000, 0.000, -0.125, -0.125, 0.000, 0.000, -0.125, 0.000, 0.000, 0.000, 0.000, 0.125, 0.000, 0.125, 0.000 },
 {-0.125, -0.125, -0.125, 0.000, 0.125, 0.000, 0.000, 0.250, 0.000, 0.000, -0.125, 0.250, -0.125, 0.125, 0.250, 0.250, 0.125, 0.125, 0.250, -0.125, 0.000, 0.000, 0.125, -0.125, 0.000, 0.125, 0.125, 0.250, 0.250, 0.000, 0.250, 0.000 },
 {-0.125, -0.250, 0.000, -0.125, 0.250, -0.125, -0.125, 0.125, 0.000, 0.125, -0.250, 0.500, -0.250, 0.250, 0.250, 0.500, 0.125, 0.125, 0.250, -0.250, 0.000, 0.125, 0.250, -0.250, 0.000, 0.500, 0.000, 0.500, 0.250, 0.000, 0.500, 0.000 },
 {0.125, -0.125, -0.125, -0.125, 0.125, -0.125, -0.125, 0.125, 0.000, 0.250, -0.125, 0.250, 0.000, 0.125, 0.125, 0.250, 0.250, 0.250, 0.500, -0.250, -0.125, 0.125, 0.125, -0.125, 0.000, 0.000, 0.000, 0.250, 0.125, 0.250, 0.250, -0.125 },
 {0.125, -0.125, -0.125, -0.125, 0.000, 0.000, -0.250, 0.125, 0.000, 0.125, 0.125, 0.250, 0.125, 0.125, -0.250, 0.125, 0.000, 0.125, 0.250, 0.125, 0.125, 0.000, -0.125, 0.000, -0.500, 0.000, 0.000, 0.125, 0.125, 0.250, -0.125, 0.125 },
 {0.000, 0.125, 0.125, 0.250, 0.125, 0.125, -0.125, 0.125, 0.125, 0.125, 0.250, 0.125, -0.125, 0.250, -0.125, 0.000, 0.125, 0.000, -0.125, -0.125, 0.125, 0.000, 0.125, 0.250, -0.500, -0.125, 0.000, 0.125, 0.125, 0.125, 0.125, 0.125 },
 {0.125, -0.125, -0.125, 0.125, 0.250, 0.000, -0.125, 0.125, 0.000, 0.125, 0.125, 0.125, -0.125, 0.000, -0.250, 0.125, 0.000, -0.250, 0.000, 0.000, 0.000, 0.125, 0.125, 0.125, -0.500, 0.000, 0.000, 0.000, 0.125, 0.000, 0.250, 0.125 },
 {0.000, 0.000, -0.125, 0.000, 0.250, -0.125, -0.125, 0.000, -0.125, 0.000, 0.125, 0.125, -0.250, 0.125, -0.125, 0.000, 0.000, -0.125, 0.000, 0.000, 0.125, 0.250, 0.250, 0.000, -1.000, 0.000, 0.000, 0.125, 0.125, 0.125, 0.250, 0.000 },
 {0.000, -0.125, -0.125, 0.125, 0.125, -0.125, -0.125, 0.000, 0.000, -0.250, 0.125, 0.000, -0.250, 0.000, 0.000, 0.250, -0.125, 0.000, 0.000, 0.000, 0.125, 0.250, 0.125, 0.000, -1.000, 0.125, 0.000, 0.125, 0.000, -0.125, 0.000, 0.000 },
 {0.000, -0.125, -0.125, 0.125, 0.250, 0.000, -0.250, 0.000, 0.125, -0.125, 0.125, 0.000, -0.125, 0.125, -0.125, 0.250, -0.125, 0.000, 0.000, 0.000, 0.000, -0.125, 0.250, -0.125, -1.000, 0.000, -0.125, 0.000, 0.000, 0.000, 0.000, 0.000 },
 {-0.125, -0.125, -0.125, 0.000, -0.125, 0.000, -0.125, 0.125, 0.125, -0.250, 0.000, 0.125, -0.125, 0.000, 0.000, 0.000, 0.000, 0.125, 0.000, 0.000, -0.125, -0.125, 0.000, -0.250, -1.000, 0.000, 0.000, 0.000, 0.125, 0.000, 0.125, 0.000 },
 {-0.125, -0.125, 0.000, -0.125, 0.000, -0.125, 0.000, 0.125, 0.000, -0.250, -0.125, 0.125, 0.125, 0.125, -0.250, 0.125, 0.125, 0.125, 0.000, -0.125, -0.250, 0.000, -0.125, -0.125, -0.500, 0.125, 0.000, 0.000, 0.000, 0.250, 0.125, 0.000 },
 {0.000, 0.000, -0.250, 0.125, -0.250, 0.000, 0.125, -0.125, 0.000, 0.000, -0.125, 0.125, 0.125, 0.125, -0.250, -0.125, 0.000, 0.125, 0.125, -0.125, -0.250, -0.125, 0.125, -0.250, -0.500, 0.000, 0.000, 0.000, 0.000, 0.125, 0.125, 0.000 },
 {0.000, 0.125, 0.000, 0.000, -0.500, -0.125, 0.125, -0.250, -0.250, 0.125, -0.500, 0.250, 0.250, 0.000, -0.500, -0.125, -0.250, 0.250, -0.125, -0.125, -0.250, -0.250, 0.000, -0.250, -0.250, 0.000, 0.125, -0.125, 0.000, 0.125, -0.125, 0.000 },
 {0.125, 0.125, 0.125, 0.000, -0.500, -0.500, 0.000, -0.250, 0.000, 0.125, -0.250, 0.250, 0.000, -0.125, -0.250, 0.000, -0.250, 0.250, -0.125, -0.125, 0.000, 0.125, 0.125, -0.250, 0.000, 0.000, 0.250, -0.125, 0.000, 0.125, -0.250, -0.125 },
 {0.125, 0.125, 0.000, -0.125, -0.250, -0.250, -0.125, -0.500, 0.250, 0.000, -0.250, 0.125, 0.000, -0.125, 0.125, 0.125, -0.250, 0.125, -0.125, -0.125, 0.125, 0.125, 0.000, -0.250, 0.000, -0.125, 0.125, -0.250, 0.125, 0.125, -0.125, 0.000 },
 {0.250, 0.250, -0.125, 0.000, -0.125, -0.125, -0.125, -0.125, 0.125, -0.125, -0.125, 0.000, -0.125, -0.125, 0.250, 0.000, -0.250, 0.000, 0.000, -0.125, 0.000, 0.000, 0.000, -0.125, 0.000, 0.000, 0.000, -0.125, 0.000, -0.125, 0.125, 0.125 },
 {0.250, 0.125, -0.125, 0.000, 0.000, 0.000, 0.000, 0.250, 0.000, 0.125, 0.000, 0.125, 0.000, -0.125, 0.250, 0.000, -0.250, -0.250, 0.000, -0.250, -0.125, 0.125, -0.250, -0.125, 0.000, 0.000, -0.125, 0.000, -0.125, 0.125, 0.000, 0.125 },
 {0.000, 0.250, -0.125, -0.125, 0.000, 0.000, 0.000, 0.250, 0.125, 0.000, 0.000, 0.125, 0.125, 0.000, 0.125, 0.125, -0.125, -0.125, 0.000, -0.125, -0.125, -0.125, 0.000, -0.125, 0.000, 0.000, -0.250, 0.000, -0.125, 0.125, 0.000, 0.000 },
 {-0.125, 0.125, 0.125, 0.000, -0.125, 0.125, 0.125, 0.000, 0.000, 0.000, 0.125, 0.000, -0.125, 0.000, 0.000, 0.000, 0.000, 0.000, 0.000, -0.125, -0.250, -0.125, 0.000, 0.000, -0.125, -0.125, -0.250, 0.000, 0.000, 0.125, -0.125, -0.250 },
 {-0.125, 0.125, 0.000, -0.125, 0.125, 0.125, -0.125, 0.000, -0.125, -0.125, 0.000, 0.250, -0.125, 0.000, 0.000, 0.000, 0.000, -0.250, 0.000, -0.125, -0.250, 0.125, 0.000, 0.125, 0.000, 0.000, -0.250, 0.125, -0.125, 0.250, -0.125, -0.500 },
 {-0.250, 0.000, 0.000, -0.125, 0.000, 0.125, -0.125, 0.000, -0.125, 0.000, 0.000, 0.000, -0.125, -0.125, -0.125, 0.000, 0.125, -0.250, -0.125, -0.125, -0.125, 0.000, 0.000, 0.125, 0.000, 0.125, 0.125, 0.000, 0.125, 0.125, -0.125, -0.500 },
 {-0.125, -0.125, 0.000, 0.125, 0.000, -0.125, -0.125, 0.125, 0.000, 0.125, 0.000, 0.250, -0.250, 0.000, -0.250, 0.125, 0.125, -0.250, 0.000, -0.125, 0.000, 0.125, 0.125, 0.125, -0.125, 0.125, 0.250, 0.125, 0.125, 0.250, -0.250, -1.000 },
 {0.000, -0.250, 0.000, 0.125, 0.000, 0.125, -0.125, 0.000, -0.125, 0.125, 0.250, 0.000, -0.500, 0.125, -0.500, 0.250, 0.125, -0.250, 0.000, 0.000, 0.125, 0.000, 0.125, 0.250, -0.250, 0.250, 0.250, 0.125, 0.125, 0.000, -0.250, -1.000 },
 {0.125, -0.500, 0.000, 0.000, 0.000, -0.125, 0.125, 0.250, -0.125, 0.125, 0.500, -0.125, -0.500, 0.125, -0.250, 0.500, 0.125, -0.250, 0.125, 0.125, 0.250, -0.250, 0.250, 0.250, -0.125, 0.500, 0.500, 0.000, 0.125, -0.125, -0.500, -0.500 },
 {0.250, -0.500, -0.125, -0.250, 0.250, 0.125, 0.125, 0.000, 0.000, 0.250, 0.500, -0.125, 0.125, -0.125, -0.125, 0.500, 0.000, 0.125, 0.125, 0.250, 0.000, -0.125, 0.250, -0.250, 0.125, 0.250, -0.125, 0.000, -0.125, 0.000, 0.000, -0.250 },
 {0.250, -0.250, -0.125, -0.125, 0.000, -0.125, -0.125, 0.125, 0.000, 0.250, 0.500, -0.250, 0.000, -0.125, 0.125, 0.500, -0.250, 0.000, 0.250, 0.250, -0.125, -0.125, 0.125, -0.125, 0.000, 0.250, -0.125, -0.125, 0.000, 0.125, 0.000, 0.000 },
 {0.000, 0.125, 0.000, 0.000, 0.000, 0.125, 0.000, 0.125, 0.000, 0.000, 0.000, 0.000, 0.000, 0.000, 0.000, 0.125, -0.125, 0.000, 0.000, -0.125, 0.125, 0.000, 0.000, 0.000, 0.125, 0.000, 0.125, 0.000, 0.125, 0.125, 0.125, 0.125 },
 {0.000, 0.000, 0.000, 0.000, 0.000, 0.000, 0.000, 0.000, 0.000, 0.000, 0.000, 0.000, 0.000, 0.000, 0.000, 0.000, 0.000, 0.000, 0.000, -0.125, 0.000, 0.000, 0.000, -0.125, -0.125, 0.125, 0.125, 0.000, 0.125, 0.000, 0.000, -0.125 },
 {0.000, -0.125, -0.125, 0.000, 0.125, -0.125, 0.000, 0.250, 0.000, 0.000, -0.125, 0.250, 0.000, 0.000, 0.125, 0.125, 0.000, 0.000, 0.250, 0.000, -0.125, 0.125, 0.250, -0.125, 0.000, 0.125, -0.125, 0.125, 0.125, 0.000, 0.125, 0.000 },
 {0.000, -0.250, -0.125, -0.250, 0.125, -0.125, -0.125, 0.125, -0.125, 0.125, -0.500, 0.500, -0.250, 0.125, 0.125, 0.250, 0.125, 0.250, 0.500, -0.250, 0.125, 0.000, 0.250, -0.125, 0.000, 0.250, 0.125, 0.250, 0.250, 0.000, 0.500, 0.000 },
 {0.125, -0.125, -0.125, -0.125, 0.250, 0.000, 0.000, 0.125, 0.000, 0.250, 0.000, 0.125, 0.000, 0.000, 0.000, 0.250, 0.125, 0.000, 0.250, -0.125, 0.000, 0.000, 0.250, 0.000, -0.250, -0.125, 0.000, 0.250, 0.250, 0.125, 0.125, 0.125 },
 {0.000, -0.125, -0.250, -0.125, -0.125, 0.250, 0.000, 0.000, -0.125, 0.125, -0.125, 0.500, -0.125, 0.125, -0.250, 0.125, -0.125, -0.125, 0.125, 0.000, 0.000, 0.250, 0.000, 0.125, -0.500, -0.125, -0.125, 0.125, 0.250, 0.250, 0.000, 0.250 },
 {0.000, -0.125, -0.125, 0.000, 0.125, 0.000, 0.125, 0.000, 0.000, 0.125, 0.125, 0.250, 0.000, 0.125, -0.125, 0.000, 0.000, 0.000, 0.000, 0.125, 0.125, 0.000, 0.125, 0.125, -0.500, -0.125, 0.000, 0.000, 0.250, 0.125, 0.000, 0.000 },
 {0.000, -0.125, -0.125, 0.000, 0.000, 0.125, 0.000, 0.125, 0.125, 0.000, 0.125, 0.125, 0.000, 0.125, -0.250, 0.000, 0.000, -0.125, 0.000, -0.125, 0.000, 0.000, 0.250, 0.125, -1.000, 0.125, 0.000, 0.000, 0.125, -0.125, 0.125, 0.000 },
 {-0.125, 0.000, -0.125, 0.125, 0.000, -0.125, -0.125, 0.125, 0.000, -0.125, 0.250, 0.000, 0.125, 0.000, -0.125, 0.000, -0.125, 0.125, 0.000, 0.000, 0.000, 0.125, 0.125, -0.125, -1.000, -0.125, 0.000, 0.000, 0.000, -0.125, 0.000, 0.000 },
 {-0.250, -0.250, 0.000, 0.000, 0.000, 0.000, 0.000, 0.125, 0.125, -0.125, 0.125, 0.125, 0.000, 0.125, -0.250, 0.125, 0.125, 0.250, 0.000, -0.125, 0.000, 0.000, 0.250, -0.125, -1.000, -0.125, 0.000, 0.000, 0.125, 0.000, 0.125, 0.125 },
 {-0.250, -0.125, -0.125, 0.000, -0.250, 0.000, -0.125, 0.125, 0.000, -0.250, 0.125, 0.000, 0.000, 0.000, -0.250, 0.125, 0.000, 0.125, -0.125, 0.125, 0.000, -0.125, 0.250, 0.000, -0.250, -0.125, -0.125, 0.000, 0.000, 0.125, 0.000, -0.125 },
 {-0.250, -0.250, 0.000, 0.000, -0.500, 0.000, 0.000, 0.125, 0.250, -0.125, 0.000, 0.000, 0.125, -0.125, -0.250, 0.125, 0.125, 0.125, 0.000, 0.000, -0.250, -0.125, 0.000, -0.250, -0.125, 0.000, -0.125, 0.000, -0.125, 0.125, 0.125, -0.125 },
 {-0.250, -0.125, 0.125, 0.125, -0.500, 0.000, 0.125, 0.125, 0.125, 0.000, 0.125, 0.000, 0.125, -0.250, -0.125, 0.000, 0.125, 0.125, 0.000, 0.000, -0.250, -0.250, 0.000, -0.250, 0.000, 0.000, 0.000, -0.125, 0.000, -0.125, 0.125, 0.000 },
 {-0.125, 0.000, -0.125, 0.125, -0.500, 0.000, 0.250, 0.000, 0.000, 0.250, 0.125, -0.250, 0.250, -0.250, -0.125, 0.000, 0.125, 0.000, 0.000, -0.125, -0.250, -0.250, -0.250, -0.250, 0.000, -0.125, 0.000, -0.250, 0.000, 0.125, 0.125, 0.000 },
 {0.125, 0.125, 0.000, 0.250, -0.500, -0.250, 0.250, -0.125, -0.125, 0.250, 0.125, -0.125, 0.125, -0.250, -0.250, -0.125, -0.125, 0.250, -0.250, 0.000, -0.250, -0.125, 0.125, -0.125, 0.000, -0.250, 0.125, -0.250, -0.125, 0.125, -0.125, 0.000 },
 {0.250, 0.250, 0.125, 0.000, -0.250, -0.500, 0.125, -0.500, 0.125, 0.250, -0.125, 0.000, 0.125, -0.250, -0.125, 0.000, -0.250, 0.250, -0.125, 0.000, 0.000, 0.125, -0.125, -0.250, 0.125, -0.500, 0.125, -0.250, 0.000, 0.000, -0.250, 0.000 },
 {0.250, 0.250, 0.000, 0.000, 0.000, -0.250, 0.000, -0.500, 0.250, 0.125, -0.125, 0.250, 0.000, -0.125, 0.250, 0.125, -0.250, 0.000, -0.125, 0.000, 0.125, 0.250, 0.125, -0.250, 0.000, -0.250, 0.125, 0.000, 0.125, 0.000, -0.125, 0.000 },
 {0.125, 0.250, -0.250, 0.125, 0.000, -0.250, 0.000, -0.125, 0.250, 0.000, -0.250, 0.125, 0.000, -0.125, 0.125, 0.000, -0.250, -0.125, 0.000, -0.125, 0.000, 0.000, 0.000, -0.125, 0.000, -0.125, 0.125, -0.125, 0.125, -0.125, 0.000, 0.000 },
 {0.125, 0.500, -0.250, 0.125, 0.000, -0.125, -0.125, 0.125, 0.125, 0.000, -0.125, 0.125, 0.000, -0.125, 0.125, -0.125, -0.125, -0.125, -0.125, -0.125, -0.125, 0.000, -0.250, 0.000, -0.125, -0.250, -0.250, 0.000, -0.125, 0.250, -0.125, 0.000 },
 {-0.125, 0.250, -0.250, 0.000, -0.125, -0.125, 0.125, 0.000, 0.125, 0.000, -0.125, 0.125, 0.000, -0.125, 0.000, -0.125, -0.250, -0.250, -0.125, 0.000, -0.125, 0.125, -0.250, -0.125, -0.125, -0.125, -0.250, -0.125, 0.000, 0.250, 0.000, 0.000 },
 {0.000, 0.125, -0.250, 0.000, 0.125, 0.000, 0.125, 0.000, 0.125, -0.125, 0.250, 0.000, -0.125, 0.125, 0.000, 0.000, 0.000, -0.125, -0.125, -0.125, -0.125, 0.125, -0.250, 0.125, 0.000, 0.000, -0.250, -0.125, 0.125, 0.250, -0.125, 0.125 },
 {-0.125, 0.000, -0.125, 0.000, 0.000, -0.125, -0.125, 0.000, 0.000, -0.250, 0.125, 0.000, -0.125, 0.125, -0.125, 0.000, 0.000, -0.125, -0.125, -0.125, -0.250, 0.000, -0.125, 0.250, -0.125, 0.000, -0.250, 0.000, -0.125, 0.125, 0.125, 0.125 },
 {-0.250, -0.250, 0.000, 0.125, 0.000, 0.000, -0.250, 0.000, 0.000, -0.250, 0.125, 0.000, 0.000, 0.000, 0.000, 0.000, 0.000, 0.000, 0.000, 0.000, -0.250, -0.125, -0.250, 0.250, -0.125, 0.000, 0.125, 0.000, -0.125, 0.000, -0.125, -0.125 },
 {-0.125, -0.125, 0.125, 0.125, 0.000, 0.125, -0.250, 0.125, 0.000, -0.125, 0.000, 0.125, -0.250, 0.000, -0.250, 0.000, 0.250, -0.250, 0.125, -0.125, 0.000, 0.250, 0.125, 0.250, -0.250, 0.125, 0.250, 0.000, 0.125, 0.000, 0.000, -0.500 },
 {-0.125, 0.000, 0.000, 0.500, -0.125, 0.125, -0.250, 0.000, -0.125, -0.250, 0.250, 0.125, -0.250, 0.250, -0.250, 0.000, 0.125, -0.125, 0.250, -0.125, 0.000, 0.125, 0.250, 0.250, -0.125, 0.125, 0.250, 0.125, -0.125, -0.250, -0.125, -0.500 },
 {-0.125, -0.125, 0.250, 0.250, 0.125, 0.125, -0.250, 0.250, 0.000, -0.250, 0.500, -0.250, -0.500, 0.250, 0.000, -0.125, 0.500, 0.000, 0.125, 0.125, 0.125, -0.500, 0.125, 0.500, 0.000, 0.500, 0.250, 0.000, 0.000, -0.500, -0.500, -0.500 },
 {-0.125, -0.250, -0.125, 0.125, 0.250, -0.125, 0.125, -0.125, 0.000, -0.125, 0.500, -0.125, 0.000, 0.125, 0.250, 0.125, 0.250, 0.250, -0.125, -0.125, 0.000, 0.000, 0.000, 0.000, 0.250, 0.250, -0.125, 0.125, 0.125, 0.000, -0.125, -0.250 },
 {0.000, -0.250, -0.125, 0.000, 0.125, -0.250, 0.000, 0.000, -0.250, 0.125, 0.250, 0.000, 0.000, 0.125, 0.000, 0.125, -0.125, 0.250, 0.000, 0.000, 0.125, 0.000, -0.125, 0.125, 0.000, 0.250, -0.125, -0.125, 0.000, 0.125, 0.000, 0.125 },
 {0.000, -0.125, 0.000, 0.000, 0.125, -0.125, 0.000, 0.000, 0.000, 0.125, 0.125, 0.000, 0.000, 0.125, 0.000, 0.000, -0.125, 0.125, 0.000, 0.000, 0.000, 0.125, -0.125, 0.125, 0.000, -0.125, 0.000, 0.125, 0.125, 0.125, -0.125, 0.000 },
 {0.000, 0.000, 0.000, 0.000, -0.125, 0.125, -0.125, 0.000, 0.000, 0.125, 0.125, 0.000, 0.125, 0.000, 0.000, -0.125, 0.000, 0.000, -0.125, 0.000, 0.000, 0.000, 0.000, 0.000, 0.125, 0.125, 0.000, 0.000, 0.000, 0.000, 0.000, 0.000 },
 {0.000, 0.000, -0.125, -0.125, 0.125, 0.000, -0.125, 0.250, 0.000, 0.125, -0.125, 0.125, 0.000, 0.000, 0.125, 0.125, 0.000, 0.000, 0.000, -0.125, -0.125, 0.000, 0.125, 0.000, 0.000, 0.125, 0.000, 0.000, 0.125, 0.000, 0.250, 0.000 },
 {0.000, -0.125, 0.125, 0.000, 0.250, -0.250, 0.000, 0.250, 0.000, -0.125, -0.125, 0.250, -0.125, 0.125, 0.125, 0.250, 0.125, 0.125, 0.125, -0.250, 0.125, 0.000, 0.250, -0.250, -0.125, 0.250, 0.000, 0.125, 0.250, -0.125, 0.250, 0.125 },
 {0.250, -0.250, 0.000, -0.125, 0.125, 0.000, 0.000, 0.125, 0.125, 0.250, 0.000, 0.125, -0.125, -0.250, 0.000, 0.250, 0.000, 0.125, 0.125, -0.125, 0.000, -0.125, 0.125, -0.125, -0.250, -0.125, -0.125, 0.125, 0.250, 0.000, 0.125, 0.000 },
 {0.000, 0.000, -0.125, -0.125, -0.250, 0.000, 0.250, 0.125, 0.000, 0.000, 0.125, 0.500, 0.000, 0.000, -0.250, 0.000, -0.250, 0.000, 0.000, 0.125, -0.125, 0.250, 0.000, 0.250, -0.500, -0.500, 0.000, 0.000, 0.125, 0.125, 0.000, 0.125 },
 {0.000, -0.125, 0.000, -0.125, -0.250, 0.125, 0.125, 0.000, 0.000, 0.125, 0.250, 0.250, 0.000, 0.000, -0.250, 0.250, 0.000, 0.000, 0.125, 0.125, 0.125, 0.125, 0.125, 0.125, -0.500, -0.125, -0.125, -0.125, 0.125, 0.000, 0.125, 0.125 },
 {-0.250, 0.000, 0.000, 0.125, -0.500, 0.000, 0.000, 0.125, 0.125, -0.125, 0.125, 0.125, 0.125, 0.125, -0.250, 0.000, 0.000, 0.125, 0.125, -0.125, -0.125, 0.000, 0.000, 0.250, -0.500, -0.125, 0.000, 0.000, 0.125, -0.125, 0.250, 0.000 },
 {0.000, 0.000, 0.000, 0.000, -0.500, -0.125, 0.125, 0.250, 0.125, -0.125, 0.000, 0.125, 0.125, 0.000, -0.250, 0.000, -0.125, 0.000, 0.125, 0.000, -0.125, 0.000, 0.000, -0.125, -0.125, 0.000, 0.125, 0.125, 0.000, -0.125, 0.250, 0.000 },
 {-0.250, 0.000, 0.000, 0.125, -0.500, 0.000, 0.125, 0.125, 0.125, -0.125, 0.000, 0.125, 0.125, 0.000, -0.250, 0.250, 0.000, 0.250, 0.000, -0.125, -0.125, 0.000, 0.125, 0.000, -0.125, 0.000, 0.000, 0.000, -0.125, -0.125, 0.000, -0.125 },
 {-0.250, -0.125, 0.000, 0.125, -0.500, 0.125, 0.000, 0.125, 0.000, 0.125, 0.000, -0.125, 0.125, -0.125, -0.125, 0.125, 0.125, 0.125, -0.125, 0.000, -0.250, -0.250, 0.125, 0.000, 0.000, 0.000, 0.000, 0.000, 0.125, -0.125, 0.000, -0.125 },
 {-0.250, -0.250, 0.000, 0.125, -1.000, 0.000, 0.125, 0.125, 0.125, 0.250, 0.125, -0.125, 0.125, -0.125, -0.125, 0.250, 0.250, 0.000, 0.000, -0.125, -0.250, 0.000, 0.125, 0.000, 0.250, 0.000, -0.250, 0.125, -0.125, -0.250, 0.000, 0.000 },
 {-0.250, 0.000, 0.000, 0.125, -0.500, -0.125, 0.125, 0.000, 0.000, 0.250, 0.250, -0.125, 0.125, -0.250, 0.000, 0.250, 0.250, 0.000, -0.125, -0.125, -0.250, -0.125, -0.250, -0.125, 0.250, 0.000, -0.125, 0.000, -0.125, -0.125, 0.125, 0.000 },
 {0.000, 0.125, 0.000, 0.250, -0.250, -0.250, 0.500, 0.000, -0.125, 0.125, 0.500, -0.250, 0.125, -0.250, 0.000, 0.000, 0.125, 0.000, -0.125, 0.000, -0.250, -0.125, -0.250, -0.125, 0.250, -0.125, 0.000, -0.125, -0.125, 0.000, 0.000, 0.125 },
 {0.250, 0.250, 0.000, 0.125, 0.125, -0.250, 0.250, -0.125, -0.125, 0.000, 0.500, -0.250, 0.250, -0.125, -0.125, 0.125, -0.125, 0.125, 0.000, 0.000, -0.125, 0.125, 0.000, -0.250, 0.250, -0.125, -0.125, 0.000, -0.250, -0.125, -0.125, 0.000 },
 {0.250, 0.250, 0.125, 0.000, 0.125, -0.250, 0.000, -0.500, 0.000, 0.125, 0.000, -0.125, 0.250, 0.000, 0.000, 0.125, -0.250, 0.125, 0.000, 0.000, 0.000, 0.125, 0.000, -0.250, 0.125, -0.125, 0.250, 0.125, 0.000, 0.000, -0.250, 0.000 },
 {0.125, 0.250, 0.000, 0.125, 0.000, -0.250, 0.000, -0.500, 0.250, 0.000, -0.125, -0.125, 0.000, 0.000, 0.000, 0.125, -0.250, 0.000, 0.000, -0.125, -0.125, 0.125, -0.125, -0.125, -0.125, -0.250, 0.125, 0.000, 0.125, -0.125, -0.125, 0.000 },
 {0.250, 0.250, -0.250, 0.125, 0.125, -0.125, 0.000, -0.250, 0.250, 0.000, -0.250, 0.000, 0.000, -0.125, 0.000, 0.000, 0.000, 0.000, 0.000, -0.125, 0.000, 0.125, 0.000, 0.000, 0.000, -0.250, 0.000, -0.125, 0.000, 0.000, 0.000, -0.125 },
 {0.000, 0.250, -0.250, 0.000, 0.000, -0.125, 0.125, 0.000, 0.000, 0.000, -0.250, 0.000, 0.000, -0.125, 0.000, -0.125, -0.125, 0.000, -0.250, -0.125, 0.125, 0.125, -0.250, 0.000, 0.000, -0.250, 0.000, 0.000, 0.000, 0.250, 0.125, 0.125 },
 {-0.125, 0.125, -0.125, 0.125, 0.000, -0.250, 0.125, 0.000, 0.125, 0.000, 0.125, 0.125, -0.125, 0.000, -0.125, -0.125, 0.000, 0.000, -0.125, 0.000, -0.125, 0.125, -0.125, 0.125, -0.125, -0.125, -0.250, -0.125, 0.125, 0.125, 0.000, 0.000 },
 {0.000, 0.125, -0.125, 0.125, -0.125, 0.000, 0.000, -0.125, 0.000, -0.125, 0.250, 0.000, 0.000, 0.000, -0.125, 0.000, 0.125, 0.000, 0.000, 0.000, -0.250, 0.000, -0.250, 0.250, 0.000, -0.250, -0.500, 0.000, 0.125, 0.125, 0.000, 0.000 },
 {0.000, -0.250, 0.000, 0.125, -0.125, -0.125, -0.250, 0.000, 0.125, -0.125, 0.000, 0.125, -0.125, 0.125, 0.000, 0.125, 0.000, 0.125, 0.125, -0.125, -0.500, 0.125, -0.125, 0.250, 0.000, -0.125, -0.250, 0.000, 0.125, 0.125, 0.125, 0.250 },
 {-0.125, -0.125, 0.125, 0.000, 0.125, 0.000, -0.500, 0.125, 0.250, -0.250, 0.125, 0.000, -0.125, 0.000, 0.000, 0.000, 0.000, -0.125, 0.000, -0.125, -0.125, 0.125, -0.125, 0.250, 0.000, -0.125, 0.000, -0.125, 0.125, -0.125, 0.125, 0.000 },
 {-0.250, 0.125, 0.125, 0.250, 0.000, 0.125, -0.250, 0.250, 0.125, -0.250, 0.125, 0.000, -0.250, 0.125, -0.125, -0.125, 0.125, -0.125, 0.250, -0.125, 0.000, 0.125, 0.000, 0.250, -0.250, 0.000, 0.125, 0.000, 0.125, -0.250, 0.125, -0.125 },
 {-0.250, 0.000, 0.250, 0.250, 0.000, 0.125, -0.250, 0.125, -0.125, -0.250, 0.125, 0.000, -0.250, 0.250, -0.125, 0.000, 0.125, 0.000, 0.500, 0.000, -0.125, 0.000, 0.000, 0.500, 0.000, 0.125, 0.250, 0.000, 0.125, -0.250, 0.000, -0.250 },
 {-0.500, 0.125, 0.500, 0.125, 0.125, 0.250, -0.250, 0.250, 0.000, -0.500, 0.250, -0.250, -0.250, 0.250, -0.125, -0.125, 0.500, 0.000, 0.250, 0.000, 0.000, -0.250, -0.125, 0.250, 0.125, 0.250, 0.250, 0.000, 0.250, -0.500, -0.250, -0.250 },
 {-0.125, 0.000, 0.250, 0.125, 0.250, 0.125, 0.000, -0.125, 0.125, -0.500, 0.250, 0.000, -0.125, 0.250, 0.250, 0.000, 0.500, 0.250, -0.125, -0.125, 0.000, 0.000, 0.000, 0.000, 0.250, 0.250, 0.000, 0.125, 0.000, 0.000, -0.125, -0.250 },
 {-0.125, -0.125, 0.250, -0.125, 0.125, 0.000, 0.250, 0.000, 0.000, 0.000, 0.250, 0.000, 0.000, 0.125, 0.125, 0.000, 0.000, 0.125, -0.250, -0.125, 0.125, 0.000, -0.125, 0.250, 0.125, 0.250, -0.125, 0.000, 0.000, 0.125, 0.000, -0.125 },
 {0.125, 0.000, 0.000, 0.000, 0.000, 0.000, 0.000, 0.000, -0.125, 0.000, 0.125, 0.125, -0.125, 0.000, 0.000, 0.000, 0.000, 0.000, 0.000, 0.125, 0.125, 0.000, -0.125, 0.125, 0.000, 0.125, 0.000, 0.000, 0.000, 0.125, 0.000, 0.000 },
 {0.000, 0.000, -0.125, 0.000, 0.000, 0.000, 0.000, 0.000, -0.125, 0.000, 0.000, 0.000, 0.000, 0.000, 0.000, -0.125, 0.000, 0.000, 0.000, 0.000, -0.125, -0.125, 0.125, 0.000, 0.000, 0.125, 0.000, 0.000, -0.125, -0.125, 0.125, 0.000 },
 {0.000, -0.125, 0.000, 0.000, 0.000, -0.125, 0.000, 0.000, 0.000, 0.125, 0.000, 0.000, 0.125, 0.000, 0.000, 0.000, 0.000, 0.125, 0.125, 0.000, 0.000, 0.000, 0.000, -0.125, 0.000, -0.125, 0.000, 0.000, 0.000, -0.125, 0.000, 0.000 },
 {0.000, -0.125, 0.000, -0.125, 0.125, -0.125, -0.125, 0.125, 0.000, 0.000, -0.125, 0.250, -0.125, 0.125, 0.125, 0.250, 0.000, 0.125, 0.250, -0.125, 0.125, 0.000, 0.125, -0.250, 0.000, 0.000, 0.000, 0.000, 0.250, 0.000, 0.250, 0.000 },
 {-0.125, 0.000, 0.125, 0.125, -0.250, 0.125, 0.000, 0.000, 0.250, 0.000, 0.125, 0.125, -0.125, -0.250, 0.125, 0.500, 0.250, 0.000, 0.000, -0.125, 0.125, 0.000, 0.125, -0.250, 0.125, -0.125, -0.125, 0.000, 0.125, 0.000, 0.250, 0.000 },
 {-0.125, -0.125, -0.125, 0.000, -0.500, 0.250, 0.250, 0.125, 0.250, 0.000, 0.000, 0.250, -0.250, -0.500, 0.125, 0.125, -0.125, 0.125, -0.125, -0.125, 0.125, 0.125, 0.125, 0.250, 0.000, -0.500, 0.000, 0.000, 0.125, 0.000, 0.125, 0.125 },
 {-0.125, -0.250, 0.000, 0.000, -0.500, 0.250, -0.125, 0.250, 0.125, 0.125, 0.000, 0.250, -0.125, -0.125, 0.000, 0.125, -0.125, 0.000, 0.125, 0.000, 0.125, -0.250, 0.125, 0.250, 0.000, -0.125, 0.125, 0.000, 0.250, -0.250, 0.125, 0.125 },
 {0.000, 0.125, 0.125, 0.000, -1.000, 0.250, 0.125, 0.000, -0.125, 0.000, 0.250, 0.125, 0.125, 0.125, -0.125, 0.000, -0.125, 0.000, 0.125, -0.125, -0.250, -0.125, 0.125, 0.125, 0.250, -0.125, 0.125, 0.000, 0.000, -0.125, 0.125, 0.125 },
 {0.000, 0.000, 0.000, 0.000, -1.000, 0.125, 0.250, 0.250, 0.125, -0.125, 0.000, 0.000, 0.000, 0.000, -0.125, 0.000, -0.125, -0.125, 0.000, 0.000, -0.125, -0.125, 0.125, 0.125, 0.250, 0.000, 0.125, -0.125, 0.000, -0.125, 0.125, 0.000 },
 {-0.125, -0.125, 0.125, 0.000, -1.000, 0.000, 0.125, 0.125, 0.000, -0.125, 0.000, -0.125, 0.000, 0.000, -0.125, 0.125, 0.000, 0.125, 0.125, -0.250, -0.125, 0.000, 0.125, 0.125, 0.250, 0.125, 0.000, -0.125, -0.125, -0.125, 0.000, 0.000 },
 {-0.125, 0.000, 0.125, 0.000, -1.000, 0.000, 0.000, 0.000, 0.125, 0.125, 0.000, -0.250, 0.125, 0.000, 0.000, 0.250, 0.125, 0.125, 0.000, 0.000, -0.125, 0.125, 0.125, 0.125, 0.500, 0.000, 0.000, 0.000, -0.125, -0.250, 0.125, 0.000 },
 {-0.125, -0.125, 0.125, 0.250, -0.500, -0.250, 0.125, 0.125, 0.000, 0.125, 0.000, -0.250, 0.000, 0.125, 0.000, 0.125, 0.125, -0.250, 0.000, 0.000, -0.125, 0.125, 0.125, 0.000, 0.250, 0.125, -0.125, 0.125, -0.125, -0.250, 0.125, 0.000 },
 {-0.125, 0.000, 0.125, 0.250, 0.000, -0.250, 0.250, 0.125, 0.000, 0.125, 0.250, -0.250, 0.000, 0.000, 0.125, 0.250, 0.250, -0.125, 0.000, -0.125, -0.125, 0.125, 0.000, 0.125, 0.250, 0.125, -0.125, 0.000, -0.125, -0.250, -0.125, -0.125 },
 {0.000, 0.125, 0.000, 0.250, 0.125, -0.250, 0.250, 0.000, -0.125, 0.125, 0.250, -0.250, 0.000, -0.125, 0.125, 0.250, 0.125, 0.000, 0.000, 0.000, -0.125, 0.125, -0.125, 0.000, 0.125, 0.000, -0.125, 0.000, -0.125, -0.125, 0.125, 0.000 },
 {0.125, 0.125, 0.250, 0.125, 0.125, -0.500, 0.125, -0.250, 0.000, 0.000, 0.250, -0.250, 0.000, 0.125, -0.125, 0.250, 0.000, 0.000, 0.000, 0.000, -0.125, 0.125, -0.125, 0.000, 0.000, -0.250, 0.000, 0.125, 0.000, 0.000, -0.125, 0.000 },
 {0.250, 0.125, 0.250, 0.125, 0.000, -0.250, 0.000, -0.500, 0.000, 0.125, 0.125, -0.125, 0.125, 0.250, 0.000, 0.250, 0.000, 0.250, 0.125, 0.125, 0.000, 0.125, -0.125, -0.125, 0.125, -0.250, 0.250, 0.125, 0.125, 0.000, 0.000, 0.000 },
 {0.125, 0.125, 0.000, 0.125, 0.125, 0.000, -0.125, -0.500, 0.125, -0.125, 0.000, 0.000, 0.125, 0.125, 0.000, 0.250, -0.125, 0.125, 0.125, 0.000, 0.000, 0.125, 0.125, -0.125, 0.000, -0.125, 0.125, 0.000, 0.000, -0.125, 0.000, 0.125 },
 {0.125, 0.000, -0.250, 0.125, 0.000, 0.000, 0.000, -0.250, 0.250, -0.125, -0.125, -0.125, 0.000, 0.000, 0.000, 0.000, -0.125, 0.125, 0.125, -0.250, 0.000, 0.000, 0.125, -0.125, 0.000, -0.250, 0.125, 0.000, 0.000, 0.000, 0.000, 0.000 },
 {0.000, -0.125, -0.250, 0.000, 0.000, -0.125, 0.125, 0.000, 0.250, 0.000, -0.125, 0.000, -0.125, 0.000, 0.125, 0.000, -0.125, 0.000, -0.125, -0.125, 0.000, 0.000, 0.000, 0.125, 0.000, -0.125, -0.250, 0.000, 0.000, 0.125, 0.125, 0.000 },
 {0.000, -0.250, 0.000, -0.125, 0.000, -0.125, 0.250, 0.000, 0.250, -0.125, 0.000, 0.000, -0.125, 0.000, 0.000, 0.000, -0.125, -0.125, -0.125, 0.000, 0.125, 0.125, 0.000, 0.125, 0.000, -0.125, -0.250, 0.000, 0.000, 0.000, 0.000, 0.125 },
 {-0.125, -0.125, -0.125, 0.125, 0.125, -0.125, 0.000, 0.000, 0.125, -0.125, -0.125, 0.125, -0.125, 0.000, 0.000, -0.125, 0.000, 0.000, 0.000, -0.250, -0.250, 0.125, 0.125, 0.250, 0.000, -0.125, -0.250, 0.125, 0.000, 0.000, 0.000, 0.125 },
 {-0.125, -0.250, 0.000, 0.000, -0.125, 0.125, -0.125, 0.125, 0.250, 0.000, 0.000, 0.125, -0.125, 0.000, 0.000, 0.000, -0.125, 0.000, 0.000, 0.000, -0.500, 0.125, 0.000, 0.250, 0.125, 0.000, -0.125, 0.000, -0.125, -0.250, 0.125, 0.250 },
 {0.000, -0.125, 0.125, 0.000, 0.000, 0.000, -0.250, 0.000, 0.125, 0.125, 0.000, 0.000, 0.000, 0.125, 0.125, -0.125, -0.250, -0.125, 0.125, 0.125, -0.250, 0.250, 0.000, 0.500, 0.000, -0.125, 0.125, 0.000, 0.000, -0.250, 0.125, 0.000 },
 {0.000, -0.125, 0.125, 0.125, -0.125, 0.250, -0.250, 0.000, 0.125, -0.125, 0.000, 0.000, 0.000, 0.125, 0.000, 0.125, -0.125, 0.000, 0.250, -0.125, -0.125, 0.125, -0.125, 0.500, 0.000, 0.000, 0.125, 0.125, 0.000, -0.500, 0.000, 0.000 },
 {-0.125, 0.000, 0.250, -0.250, -0.125, 0.125, -0.125, 0.250, 0.125, -0.500, 0.000, 0.000, 0.000, 0.125, -0.125, 0.000, -0.125, -0.125, 0.500, 0.000, -0.125, 0.125, 0.125, 0.250, -0.125, 0.250, 0.250, 0.000, 0.250, -0.250, -0.125, 0.000 },
 {-0.250, 0.250, 0.500, -0.125, 0.000, 0.125, 0.125, 0.250, 0.000, -0.500, 0.125, -0.125, -0.125, 0.125, 0.125, -0.125, 0.000, 0.000, 0.500, -0.125, 0.000, -0.125, 0.000, 0.125, 0.125, 0.250, 0.500, 0.125, 0.125, -0.250, 0.000, 0.000 },
 {-0.125, 0.500, 0.500, 0.125, -0.125, 0.125, 0.125, -0.125, 0.000, -0.250, 0.250, -0.250, 0.125, 0.250, 0.000, -0.125, 0.250, 0.125, 0.000, -0.125, -0.125, -0.125, 0.000, 0.125, 0.250, 0.000, 0.000, 0.250, 0.125, 0.000, -0.125, -0.250 },
 {-0.125, 0.000, 0.500, -0.250, 0.125, -0.125, 0.500, -0.125, -0.125, -0.250, 0.250, -0.125, 0.000, 0.250, 0.000, -0.125, 0.500, 0.250, -0.250, -0.125, 0.125, 0.000, -0.250, 0.500, 0.250, 0.250, -0.125, 0.125, 0.000, 0.125, -0.125, -0.125 },
 {-0.125, -0.125, 0.125, 0.000, 0.000, 0.000, 0.000, 0.000, 0.125, 0.000, 0.125, 0.000, 0.000, 0.000, 0.000, 0.000, 0.125, 0.000, 0.000, 0.000, 0.000, 0.125, -0.125, 0.125, 0.000, 0.000, 0.000, 0.125, -0.125, 0.000, 0.000, 0.000 },
