//infer_main.cpp

#include "header.hpp"
#include <iostream>
//#include <bits/stdc++.h>
using namespace std;
#include <hls_math.h>
my_type relu(my_type x);
void MLP_MNIST(my_type x[NO_OF_INPUTS],my_type predict[NO_OF_OUTPUTS])
{
#pragma HLS INTERFACE s_axilite port=return bundle=CTRL
#pragma HLS INTERFACE m_axi port=x offset=slave depth=1024 bundle=DATA
#pragma HLS INTERFACE m_axi port=predict offset=slave depth=1024 bundle=DATA
  // Iterate over the rows of the A matrix
	my_type layer1_acc[N_LAYER_1];
	my_type layer1_op[N_LAYER_1];
	my_type layer2_acc[N_LAYER_2];
	my_type layer2_op[N_LAYER_2];
	my_type layer3_acc[NO_OF_OUTPUTS];
	my_type layer3_op[NO_OF_OUTPUTS];

	//Parameters : w1,b1,w2,b2,w3,b3-------------
	//Parameters : w1,b1,w2,b2,w3,b3-------------

	my_type w1[784][32] ={
	 {0.000, 0.000, -0.125, 0.000, 0.125, 0.000, 0.000, 0.000, 0.000, 0.000, 0.000, 0.000, 0.000, 0.000, 0.125, 0.000, -0.125, 0.125, 0.000, 0.000, 0.000, 0.000, 0.000, 0.000, 0.125, 0.000, 0.000, 0.000, 0.000, 0.000, 0.000, 0.000 },
	 {0.000, 0.125, 0.000, 0.000, -0.125, 0.000, 0.000, 0.000, 0.000, 0.000, 0.000, 0.000, 0.000, 0.125, 0.000, 0.000, 0.000, 0.125, -0.125, 0.000, 0.125, 0.000, 0.000, 0.125, 0.000, 0.000, 0.000, 0.125, 0.000, 0.125, 0.000, 0.125 },
	 {0.125, 0.000, 0.125, 0.125, 0.000, 0.000, 0.000, 0.000, -0.125, 0.000, 0.000, 0.000, 0.000, 0.000, 0.000, 0.125, 0.000, 0.000, 0.000, 0.000, 0.000, 0.000, -0.125, 0.125, 0.000, 0.000, 0.000, 0.000, 0.125, -0.125, 0.000, 0.125 },
	 {0.000, 0.125, 0.000, 0.000, 0.125, -0.125, -0.125, 0.000, -0.125, 0.000, 0.000, 0.000, -0.125, 0.000, 0.125, 0.000, 0.000, -0.125, 0.000, 0.125, 0.000, 0.000, 0.125, 0.000, 0.125, -0.125, -0.125, 0.125, 0.000, 0.125, -0.125, 0.000 },
	 {0.000, 0.000, 0.125, 0.000, 0.125, -0.125, 0.000, 0.000, 0.000, 0.000, 0.000, 0.000, 0.000, 0.000, -0.125, 0.000, 0.000, 0.125, 0.125, -0.125, 0.000, 0.000, 0.000, 0.125, -0.125, 0.000, 0.000, 0.000, 0.000, 0.125, 0.000, -0.125 },
	 {0.000, 0.000, -0.125, 0.000, 0.000, 0.000, 0.000, 0.000, 0.000, 0.000, 0.000, 0.000, 0.000, 0.000, 0.000, 0.000, 0.000, 0.000, 0.000, 0.125, -0.125, 0.000, 0.000, 0.000, 0.000, 0.125, 0.000, 0.000, 0.125, 0.000, 0.000, 0.000 },
	 {-0.125, 0.000, 0.000, -0.125, 0.000, 0.000, 0.000, -0.125, -0.125, 0.000, -0.125, 0.000, 0.000, 0.125, -0.125, 0.125, 0.000, 0.000, 0.000, 0.000, 0.000, 0.000, -0.125, 0.000, 0.125, 0.125, 0.000, 0.000, -0.125, 0.000, 0.125, 0.000 },
	 {-0.125, 0.125, 0.000, 0.000, 0.000, 0.000, -0.125, 0.000, 0.000, 0.000, 0.000, 0.000, 0.000, -0.125, 0.000, 0.000, -0.125, 0.000, 0.125, 0.000, 0.000, 0.000, 0.000, -0.125, 0.000, -0.125, 0.000, 0.125, 0.000, -0.125, 0.000, 0.000 },
	 {0.125, 0.125, 0.000, 0.000, 0.000, 0.125, 0.000, 0.000, 0.000, 0.000, 0.000, -0.125, 0.125, 0.000, 0.000, 0.125, 0.000, -0.125, 0.000, 0.000, 0.000, 0.000, 0.125, 0.125, 0.000, 0.000, 0.125, 0.000, 0.125, -0.125, 0.000, 0.000 },
	 {0.000, 0.125, 0.000, 0.125, 0.125, 0.000, 0.000, 0.000, 0.125, 0.000, 0.125, 0.000, 0.000, 0.125, 0.000, 0.125, 0.000, 0.000, 0.125, 0.000, 0.000, 0.000, 0.125, 0.000, -0.125, 0.000, 0.000, 0.000, 0.000, -0.125, -0.125, 0.125 },
	 {0.000, 0.000, 0.000, 0.000, -0.125, -0.125, 0.000, 0.000, 0.000, 0.125, 0.000, 0.000, 0.000, 0.000, 0.000, 0.000, 0.125, 0.000, 0.000, 0.000, -0.125, 0.000, 0.000, 0.000, 0.000, 0.125, -0.125, 0.000, 0.000, 0.125, 0.125, 0.125 },
	 {0.000, 0.000, 0.000, 0.000, 0.000, 0.000, 0.125, 0.000, 0.000, -0.125, 0.125, 0.000, 0.000, 0.000, 0.000, 0.000, 0.000, 0.000, 0.125, 0.000, 0.000, 0.000, 0.000, 0.000, -0.125, 0.000, -0.125, 0.000, 0.000, 0.000, -0.125, 0.000 },
	 {0.000, 0.000, 0.125, 0.125, 0.125, 0.000, -0.125, 0.125, -0.125, 0.000, 0.000, -0.125, 0.000, 0.000, -0.125, 0.000, -0.125, -0.125, 0.000, 0.000, 0.000, 0.000, 0.125, 0.000, 0.000, 0.000, 0.000, 0.125, 0.000, 0.000, 0.000, 0.000 },
	 {0.000, 0.000, 0.125, 0.000, 0.125, 0.125, -0.125, -0.125, 0.000, -0.125, 0.000, -0.125, 0.000, -0.125, 0.000, 0.000, 0.000, 0.000, -0.125, 0.000, 0.000, 0.000, 0.000, 0.000, 0.000, 0.125, 0.000, 0.125, 0.125, 0.000, 0.000, 0.000 },
	 {0.000, 0.000, 0.000, 0.000, 0.125, 0.000, 0.125, 0.000, 0.000, 0.000, 0.000, 0.125, 0.000, 0.000, -0.125, 0.000, 0.000, 0.000, 0.000, 0.000, 0.000, 0.000, -0.125, 0.000, 0.000, 0.125, 0.000, 0.000, 0.000, 0.000, 0.000, -0.125 },
	 {0.000, 0.000, 0.000, 0.000, 0.000, 0.000, 0.000, 0.000, 0.000, -0.125, 0.125, 0.000, 0.125, 0.125, 0.000, 0.000, 0.000, -0.125, 0.000, 0.000, -0.125, 0.125, 0.000, 0.000, 0.000, 0.000, 0.125, 0.000, 0.000, 0.000, 0.000, 0.125 },
	 {0.000, 0.000, 0.000, 0.125, 0.000, -0.125, 0.000, -0.125, 0.000, 0.000, 0.125, 0.000, 0.125, 0.000, 0.000, 0.000, 0.000, 0.125, 0.000, -0.125, 0.000, 0.000, 0.000, 0.000, 0.125, 0.000, 0.000, 0.000, 0.000, -0.125, 0.000, 0.000 },
	 {0.000, 0.000, 0.000, 0.000, -0.125, 0.000, 0.125, 0.000, 0.000, 0.125, -0.125, -0.125, 0.000, 0.000, 0.000, 0.000, 0.000, 0.000, 0.000, 0.000, 0.000, -0.125, 0.000, 0.000, 0.000, -0.125, 0.125, 0.000, 0.125, 0.000, -0.125, -0.125 },
	 {0.125, 0.000, 0.000, -0.125, -0.125, 0.000, 0.000, -0.125, 0.000, -0.125, 0.125, 0.000, 0.000, 0.125, 0.000, 0.000, 0.000, 0.000, 0.000, 0.000, -0.125, 0.000, 0.000, 0.000, 0.125, 0.000, 0.000, 0.000, 0.000, 0.000, 0.125, -0.125 },
	 {0.000, 0.000, 0.125, 0.000, 0.125, 0.000, 0.000, 0.000, -0.125, 0.000, 0.125, -0.125, -0.125, -0.125, 0.125, 0.125, 0.000, 0.000, 0.125, 0.000, 0.000, 0.000, 0.125, 0.000, 0.000, 0.000, 0.000, 0.000, 0.000, 0.000, 0.125, 0.000 },
	 {-0.125, 0.000, 0.000, 0.000, 0.000, 0.000, 0.000, -0.125, 0.000, 0.000, 0.000, 0.000, -0.125, 0.125, 0.000, -0.125, 0.125, 0.000, 0.125, -0.125, 0.000, 0.000, 0.000, 0.000, 0.000, 0.000, 0.000, 0.125, -0.125, 0.000, -0.125, 0.000 },
	 {0.125, 0.000, 0.000, 0.000, 0.000, 0.000, 0.125, 0.000, 0.000, 0.000, 0.000, 0.000, 0.000, 0.000, 0.000, -0.125, -0.125, 0.000, 0.000, 0.000, 0.000, 0.000, 0.000, 0.000, 0.125, 0.000, 0.125, 0.000, 0.000, 0.125, 0.125, 0.000 },
	 {0.000, 0.125, 0.000, 0.000, 0.000, 0.000, 0.000, 0.125, 0.000, 0.000, 0.000, 0.000, -0.125, 0.000, 0.000, 0.000, 0.000, 0.000, 0.000, 0.000, 0.000, 0.000, -0.125, 0.000, 0.000, 0.125, 0.000, -0.125, 0.000, 0.000, 0.000, 0.000 },
	 {0.000, 0.000, -0.125, 0.000, 0.000, 0.000, -0.125, 0.000, -0.125, 0.000, 0.125, 0.000, -0.125, 0.000, 0.000, 0.000, 0.000, 0.000, 0.125, 0.125, -0.125, 0.000, 0.000, 0.000, 0.000, 0.000, 0.000, 0.000, 0.125, 0.000, 0.000, 0.000 },
	 {0.000, 0.000, 0.125, -0.125, -0.125, 0.000, 0.000, 0.000, 0.000, 0.000, 0.000, 0.125, 0.000, 0.000, 0.000, 0.125, 0.000, 0.000, -0.125, 0.000, 0.000, 0.000, 0.000, 0.000, -0.125, 0.000, 0.000, 0.000, 0.000, 0.000, 0.000, 0.000 },
	 {0.000, 0.000, 0.000, 0.000, 0.125, 0.125, 0.000, 0.000, 0.000, 0.125, 0.000, -0.125, 0.000, 0.125, 0.000, 0.000, 0.000, 0.000, 0.000, 0.000, 0.000, 0.125, 0.125, -0.125, 0.000, 0.125, 0.000, 0.000, 0.125, 0.000, 0.000, 0.000 },
	 {0.000, -0.125, 0.125, -0.125, 0.125, 0.000, 0.000, 0.000, -0.125, 0.000, 0.000, -0.125, 0.000, 0.000, -0.125, 0.000, 0.000, 0.125, 0.000, 0.000, 0.000, -0.125, 0.125, 0.000, 0.000, -0.125, 0.125, -0.125, 0.000, 0.000, 0.000, 0.125 },
	 {0.125, 0.125, 0.125, 0.000, 0.000, 0.000, 0.000, 0.125, 0.000, 0.000, 0.000, 0.000, 0.125, 0.000, 0.000, 0.000, 0.000, 0.000, 0.000, 0.000, 0.000, 0.000, 0.125, 0.000, 0.000, 0.000, 0.000, 0.125, 0.000, 0.125, 0.000, 0.000 },
	 {0.000, -0.125, 0.000, 0.000, 0.125, -0.125, 0.000, 0.000, 0.125, 0.000, -0.125, 0.125, 0.000, 0.000, 0.000, 0.000, 0.000, 0.000, 0.000, 0.000, 0.000, 0.000, 0.000, 0.125, 0.125, 0.000, 0.000, 0.125, 0.000, 0.000, -0.125, 0.000 },
	 {-0.125, 0.125, 0.000, 0.000, 0.000, 0.000, -0.125, 0.125, 0.125, 0.000, 0.000, 0.000, 0.000, -0.125, -0.125, 0.000, 0.000, 0.125, 0.000, 0.000, 0.125, 0.000, 0.000, 0.000, -0.125, 0.000, -0.125, 0.000, 0.000, 0.000, 0.000, 0.000 },
	 {0.125, 0.000, -0.125, 0.125, -0.125, 0.000, 0.000, 0.000, 0.000, 0.000, 0.000, 0.000, 0.125, 0.000, 0.000, 0.125, 0.000, 0.000, 0.125, 0.000, 0.125, -0.125, 0.000, 0.125, 0.000, 0.000, 0.000, 0.000, 0.000, -0.125, 0.000, 0.000 },
	 {0.000, 0.000, 0.000, 0.125, 0.125, 0.000, 0.000, 0.000, -0.125, 0.000, 0.000, 0.000, 0.000, 0.000, 0.000, 0.125, 0.000, -0.125, -0.125, 0.000, 0.125, 0.000, 0.000, 0.000, 0.000, 0.000, 0.000, 0.000, 0.125, 0.000, 0.000, 0.000 },
	 {0.000, 0.000, 0.000, 0.000, 0.000, 0.125, -0.125, 0.000, 0.000, 0.000, 0.000, 0.000, -0.125, 0.000, 0.000, 0.000, -0.125, -0.125, 0.125, 0.000, 0.000, 0.000, 0.000, 0.000, 0.000, 0.000, 0.000, 0.000, 0.000, 0.000, 0.000, -0.125 },
	 {0.000, 0.000, 0.125, 0.000, 0.000, 0.000, 0.000, 0.000, 0.000, 0.000, 0.000, 0.125, 0.000, 0.000, 0.000, 0.000, 0.000, -0.125, 0.000, 0.000, 0.000, 0.000, 0.000, 0.000, 0.125, 0.000, 0.000, 0.000, 0.000, 0.125, 0.000, 0.000 },
	 {0.125, 0.125, 0.000, 0.000, 0.125, 0.000, -0.125, -0.125, 0.000, 0.000, 0.000, 0.000, -0.125, 0.125, -0.125, 0.000, -0.125, -0.125, 0.125, 0.000, 0.000, -0.125, 0.000, 0.000, 0.000, 0.000, 0.000, 0.125, -0.125, 0.000, 0.000, -0.125 },
	 {0.125, 0.250, 0.125, 0.000, 0.000, -0.125, -0.250, -0.125, 0.000, 0.000, 0.125, 0.000, 0.000, 0.250, 0.000, 0.000, 0.000, -0.125, 0.125, 0.000, 0.000, -0.125, 0.000, -0.125, 0.000, 0.000, 0.000, 0.125, 0.000, 0.000, -0.125, 0.125 },
	 {0.125, 0.125, 0.125, 0.125, 0.000, -0.125, -0.125, 0.000, -0.125, 0.000, 0.250, -0.125, -0.125, 0.125, -0.125, 0.000, -0.125, -0.125, 0.125, 0.000, 0.000, 0.000, 0.000, -0.125, 0.000, 0.000, 0.000, 0.250, 0.000, -0.125, 0.000, 0.000 },
	 {0.125, 0.125, 0.125, 0.125, -0.125, 0.000, -0.125, 0.000, -0.125, 0.000, 0.125, 0.000, -0.125, 0.125, -0.125, 0.000, 0.000, -0.125, 0.250, 0.000, 0.000, -0.125, 0.125, -0.125, -0.125, 0.125, 0.000, 0.125, -0.125, 0.000, 0.000, -0.125 },
	 {0.125, 0.250, 0.250, 0.250, -0.125, 0.125, -0.250, -0.125, 0.000, -0.125, 0.250, 0.000, -0.125, 0.250, -0.125, 0.000, -0.125, -0.250, 0.250, 0.125, 0.125, 0.000, 0.125, -0.125, 0.000, 0.000, 0.000, 0.250, -0.125, 0.000, 0.000, 0.000 },
	 {0.250, 0.250, 0.500, 0.250, -0.125, 0.125, -0.250, 0.000, 0.000, 0.000, 0.250, -0.125, 0.000, 0.250, -0.125, 0.000, -0.125, -0.250, 0.500, 0.125, 0.000, 0.000, 0.250, -0.125, -0.250, 0.125, 0.000, 0.250, 0.000, 0.000, -0.125, 0.000 },
	 {0.250, 0.500, 0.500, 0.500, -0.125, 0.125, -0.500, -0.125, -0.125, 0.125, 0.250, -0.125, -0.125, 0.500, -0.250, -0.125, -0.125, -0.250, 0.500, 0.125, 0.125, 0.000, 0.250, 0.000, -0.250, 0.000, 0.125, 0.500, 0.000, -0.125, -0.250, 0.125 },
	 {0.250, 0.500, 0.250, 0.500, -0.125, 0.125, -0.500, -0.125, 0.000, 0.125, 0.250, -0.125, 0.000, 0.250, -0.125, 0.000, 0.000, -0.250, 0.500, 0.125, 0.000, 0.000, 0.250, 0.000, -0.250, 0.125, 0.000, 0.500, 0.000, -0.125, -0.125, 0.000 },
	 {0.250, 0.500, 0.500, 0.500, -0.125, 0.000, -0.500, -0.125, -0.125, 0.125, 0.250, -0.125, -0.125, 0.500, 0.000, -0.125, -0.125, -0.250, 0.500, 0.250, 0.125, 0.000, 0.250, 0.000, -0.125, 0.000, 0.000, 0.500, 0.125, -0.125, -0.125, 0.000 },
	 {0.125, 0.125, 0.250, 0.125, 0.000, -0.125, -0.125, -0.125, 0.000, 0.125, 0.250, 0.000, 0.000, 0.500, 0.000, 0.000, 0.125, -0.250, 0.250, 0.250, 0.125, -0.125, 0.000, 0.125, 0.125, 0.250, 0.000, 0.500, 0.000, -0.125, -0.125, 0.125 },
	 {0.125, 0.125, 0.500, 0.250, 0.000, 0.000, -0.250, -0.125, 0.000, 0.000, 0.250, 0.000, 0.000, 0.500, 0.000, -0.125, 0.125, -0.250, 0.250, 0.250, 0.250, 0.000, 0.125, 0.125, 0.000, 0.125, 0.125, 0.500, 0.000, 0.000, -0.125, 0.000 },
	 {0.250, 0.250, 0.500, 0.250, 0.125, -0.125, -0.250, 0.000, -0.125, 0.000, 0.500, 0.000, 0.000, 0.500, -0.125, -0.125, 0.000, -0.250, 0.500, 0.500, 0.125, 0.000, 0.125, 0.125, 0.000, 0.000, 0.000, 0.500, 0.125, -0.125, -0.125, 0.000 },
	 {0.500, 0.250, 0.250, 0.250, 0.000, 0.000, -0.500, 0.000, 0.000, 0.125, 0.250, 0.000, 0.000, 0.250, 0.000, 0.000, -0.125, -0.250, 0.500, 0.250, 0.125, 0.000, 0.250, 0.000, -0.125, -0.125, 0.000, 0.500, 0.000, 0.000, -0.125, 0.000 },
	 {0.125, 0.250, 0.250, 0.250, -0.125, 0.125, -0.250, -0.125, 0.000, 0.125, 0.125, 0.000, 0.000, 0.250, 0.000, 0.000, 0.000, -0.250, 0.500, 0.125, 0.125, 0.000, 0.125, 0.000, 0.000, 0.000, 0.000, 0.250, 0.000, 0.000, -0.125, 0.000 },
	 {0.125, 0.250, 0.250, 0.125, -0.125, 0.000, -0.250, -0.125, 0.000, 0.000, 0.250, 0.000, 0.000, 0.125, -0.125, -0.125, -0.125, -0.125, 0.250, 0.125, -0.125, 0.000, 0.250, -0.125, -0.125, 0.000, 0.125, 0.250, 0.000, 0.000, 0.000, 0.000 },
	 {0.000, 0.125, 0.125, 0.125, 0.000, 0.000, -0.125, -0.125, -0.125, 0.125, 0.125, 0.000, 0.000, 0.125, -0.125, 0.000, 0.000, -0.125, 0.125, 0.000, 0.000, -0.125, 0.000, -0.125, -0.125, 0.000, 0.000, 0.000, -0.125, 0.000, 0.000, 0.000 },
	 {0.000, 0.000, 0.125, 0.125, 0.000, 0.125, 0.000, 0.125, 0.000, 0.000, 0.125, 0.000, 0.000, 0.000, -0.125, 0.000, -0.125, -0.125, 0.125, 0.000, 0.000, -0.125, 0.000, 0.000, 0.000, 0.000, 0.000, 0.000, 0.125, -0.125, -0.125, 0.125 },
	 {0.000, 0.125, 0.125, 0.000, 0.000, 0.000, 0.000, 0.000, 0.000, 0.000, 0.000, 0.125, -0.125, 0.000, 0.000, 0.000, -0.125, 0.000, 0.125, 0.000, 0.000, -0.125, -0.125, 0.000, -0.125, 0.000, 0.000, 0.000, 0.000, 0.000, 0.000, 0.000 },
	 {0.000, 0.000, 0.000, 0.000, 0.000, -0.125, -0.125, 0.000, 0.000, 0.000, 0.125, 0.000, 0.000, 0.000, 0.000, 0.000, 0.000, 0.000, 0.125, 0.000, 0.000, 0.125, 0.125, 0.000, 0.000, -0.125, 0.000, 0.000, 0.000, 0.000, 0.000, 0.000 },
	 {0.000, -0.125, 0.125, -0.125, 0.000, 0.000, 0.000, -0.125, 0.000, 0.000, 0.000, -0.125, 0.000, 0.000, 0.000, 0.000, 0.000, 0.000, 0.000, 0.000, 0.000, 0.000, 0.000, -0.125, 0.000, 0.000, 0.000, -0.125, -0.125, 0.125, 0.000, 0.000 },
	 {0.000, 0.125, 0.000, 0.000, 0.000, 0.000, 0.000, 0.000, 0.125, 0.000, 0.000, 0.000, 0.000, 0.000, 0.000, 0.000, 0.000, 0.000, -0.125, 0.000, 0.000, 0.000, 0.125, 0.000, 0.000, 0.000, 0.000, 0.000, 0.000, 0.125, -0.125, 0.000 },
	 {0.000, 0.000, 0.000, 0.000, -0.125, 0.000, 0.000, 0.000, 0.000, 0.000, 0.000, 0.000, 0.000, 0.125, 0.000, 0.125, 0.000, -0.125, -0.125, -0.125, 0.000, 0.000, -0.125, 0.000, 0.125, 0.125, 0.000, 0.000, 0.000, 0.125, 0.000, 0.000 },
	 {0.125, -0.125, 0.000, 0.000, -0.125, 0.000, -0.125, 0.000, 0.000, 0.000, 0.000, 0.000, 0.000, 0.125, 0.000, 0.125, 0.000, 0.125, 0.000, 0.000, 0.000, 0.000, 0.000, 0.000, 0.000, 0.000, 0.000, 0.000, 0.000, -0.125, 0.000, 0.000 },
	 {0.125, -0.125, 0.125, 0.000, 0.125, -0.125, 0.000, 0.000, 0.000, 0.000, 0.125, 0.125, 0.000, 0.000, 0.000, 0.000, 0.125, 0.000, 0.000, 0.000, 0.000, 0.000, 0.125, -0.125, 0.000, 0.000, 0.000, 0.000, 0.000, 0.000, -0.125, 0.000 },
	 {0.000, 0.000, 0.000, 0.000, 0.000, 0.125, 0.000, 0.000, 0.000, 0.000, 0.125, 0.125, 0.000, 0.000, 0.000, -0.125, 0.000, 0.000, 0.125, 0.000, 0.000, 0.000, 0.000, 0.125, 0.000, 0.000, 0.000, 0.000, 0.000, 0.000, 0.000, -0.125 },
	 {0.125, 0.000, 0.000, -0.125, 0.000, 0.000, 0.000, 0.125, 0.000, 0.000, 0.000, 0.125, 0.000, 0.000, -0.125, 0.125, -0.125, 0.000, 0.125, -0.125, 0.000, 0.000, 0.000, 0.000, 0.000, -0.125, 0.000, 0.000, 0.000, 0.125, 0.000, 0.000 },
	 {0.000, 0.125, 0.125, 0.125, 0.125, 0.125, -0.125, 0.000, 0.000, 0.000, 0.000, 0.000, 0.000, 0.125, 0.000, 0.125, -0.125, 0.000, 0.000, 0.000, 0.000, 0.125, 0.000, 0.000, 0.000, 0.000, 0.000, 0.000, 0.125, 0.000, 0.000, 0.000 },
	 {0.125, 0.000, 0.000, 0.000, 0.000, 0.125, 0.000, 0.000, 0.125, 0.000, 0.125, 0.125, 0.000, 0.125, 0.000, 0.000, 0.000, 0.000, 0.125, 0.000, 0.000, 0.000, 0.000, 0.000, 0.000, -0.125, 0.000, 0.000, 0.000, 0.000, 0.000, 0.000 },
	 {0.250, 0.250, 0.250, 0.125, 0.125, 0.000, -0.125, -0.125, -0.125, 0.000, 0.125, 0.000, -0.125, 0.125, -0.125, -0.125, -0.125, -0.250, 0.250, 0.000, 0.125, -0.250, 0.125, 0.000, 0.000, 0.000, 0.125, 0.125, -0.125, 0.000, 0.000, 0.000 },
	 {0.125, 0.500, 0.500, 0.250, 0.000, 0.000, -0.250, -0.250, -0.125, 0.000, 0.250, 0.125, 0.000, 0.250, -0.250, -0.125, 0.000, -0.250, 0.500, 0.000, 0.125, -0.250, 0.250, 0.000, 0.000, 0.000, 0.000, 0.250, 0.000, -0.250, -0.250, 0.125 },
	 {0.250, 0.500, 0.500, 0.250, 0.000, 0.125, -0.250, -0.250, -0.125, -0.125, 0.500, -0.125, 0.000, 0.500, -0.250, -0.250, 0.000, -0.250, 0.500, 0.000, 0.125, -0.250, 0.250, 0.000, 0.125, -0.125, 0.000, 0.500, 0.000, -0.500, -0.250, 0.000 },
	 {0.125, 0.500, 0.500, 0.500, 0.125, 0.250, -0.250, -0.500, -0.250, 0.000, 0.250, -0.250, 0.000, 0.500, -0.250, -0.125, 0.125, -0.500, 0.500, -0.125, -0.125, -0.250, 0.250, 0.000, 0.125, -0.250, 0.000, 1.000, -0.125, -0.500, -0.250, 0.000 },
	 {0.125, 1.000, 1.000, 0.500, 0.125, 0.250, -0.250, -0.500, -0.250, -0.125, 0.500, -0.500, 0.000, 1.000, -0.250, -0.250, 0.250, -0.250, 1.000, -0.250, 0.125, -0.250, 0.250, 0.125, 0.125, -0.125, -0.125, 1.000, 0.000, -0.500, -0.250, 0.000 },
	 {0.125, 1.000, 1.000, 0.500, 0.000, 0.500, -0.250, -1.000, -0.250, -0.125, 0.500, -0.500, -0.125, 1.000, -0.500, -0.500, 0.250, -0.250, 1.000, -0.125, 0.000, -0.250, 0.500, 0.000, 0.000, -0.250, -0.125, 1.000, 0.000, -0.500, -0.500, 0.125 },
	 {-0.250, 1.000, 1.000, 0.500, -0.125, 0.250, 0.000, -1.000, -0.250, 0.000, 0.500, -0.500, -0.250, 1.000, -0.250, -0.250, 0.500, -0.250, 0.500, -0.125, 0.250, -0.250, 0.250, 0.000, 0.000, -0.125, -0.125, 1.000, 0.000, -0.500, -0.500, 0.250 },
	 {-0.125, 1.000, 1.000, 1.000, 0.000, 0.250, -0.125, -1.000, -0.250, -0.125, 0.250, -0.500, -0.250, 1.000, -0.250, -0.250, 0.250, -0.250, 0.500, 0.000, 0.250, -0.250, 0.250, 0.125, 0.000, 0.125, -0.125, 1.000, 0.000, -0.500, -1.000, 0.250 },
	 {-0.125, 1.000, 1.000, 0.500, 0.000, 0.250, -0.250, -1.000, -0.125, 0.000, 0.125, -0.500, -0.250, 1.000, -0.125, -0.500, 0.250, -0.250, 0.500, 0.250, 0.250, -0.125, 0.125, 0.250, 0.125, -0.125, 0.125, 1.000, 0.125, -0.500, -0.500, 0.250 },
	 {0.000, 1.000, 1.000, 0.500, 0.125, 0.250, -0.250, -1.000, -0.250, 0.000, 0.250, -0.500, -0.250, 1.000, 0.000, -0.250, 0.250, -0.250, 0.500, 0.250, 0.250, -0.250, 0.250, 0.500, 0.250, 0.000, 0.000, 1.000, 0.250, -0.250, -0.500, 0.125 },
	 {0.000, 0.500, 1.000, 0.500, 0.000, 0.250, -0.250, -0.500, -0.125, 0.000, 0.500, -0.500, -0.250, 0.500, 0.000, -0.500, 0.250, -0.500, 0.500, 0.250, 0.250, -0.125, 0.250, 0.500, 0.000, 0.125, 0.125, 1.000, 0.250, -0.250, -0.500, 0.125 },
	 {0.125, 1.000, 1.000, 0.500, 0.000, 0.250, -0.250, -0.500, -0.250, 0.000, 0.500, -0.500, -0.250, 0.500, 0.125, -0.250, 0.250, -0.500, 0.500, 0.500, 0.125, 0.000, 0.500, 0.250, -0.125, -0.125, 0.000, 1.000, 0.250, -0.250, -0.250, 0.000 },
	 {0.125, 0.500, 1.000, 1.000, -0.125, 0.500, -0.500, -0.500, -0.125, 0.000, 0.500, -0.500, -0.250, 0.500, 0.000, -0.250, 0.250, -0.500, 1.000, 0.500, 0.000, 0.000, 0.500, 0.250, -0.250, -0.250, 0.000, 1.000, 0.500, -0.500, -0.250, 0.000 },
	 {0.000, 1.000, 1.000, 1.000, -0.125, 0.500, -0.500, -0.500, -0.250, 0.000, 0.500, -0.500, -0.250, 0.500, -0.250, -0.250, 0.500, -0.500, 1.000, 0.250, 0.000, 0.000, 0.500, 0.500, -0.500, -0.250, -0.125, 1.000, 0.250, -0.500, 0.000, 0.000 },
	 {0.125, 1.000, 1.000, 1.000, 0.000, 0.500, -0.500, -0.250, -0.125, -0.125, 0.250, -0.250, -0.125, 0.500, -0.125, -0.250, 0.500, -0.250, 1.000, 0.000, -0.125, -0.125, 0.500, 0.500, -0.250, -0.250, -0.125, 1.000, 0.000, -0.500, 0.000, 0.000 },
	 {0.000, 1.000, 1.000, 1.000, 0.000, 0.500, -0.500, -0.250, -0.125, 0.000, 0.500, -0.250, -0.125, 0.500, -0.500, -0.250, 0.250, -0.250, 1.000, 0.125, -0.125, 0.000, 0.500, 0.500, -0.250, -0.125, -0.125, 1.000, 0.000, -0.500, 0.000, 0.000 },
	 {0.000, 1.000, 0.500, 0.500, -0.125, 0.250, -0.500, -0.125, -0.125, -0.125, 0.250, -0.250, -0.125, 0.500, -0.500, -0.250, 0.125, -0.250, 0.500, 0.125, 0.000, -0.125, 0.250, 0.250, -0.250, -0.125, -0.125, 0.500, 0.125, -0.125, 0.000, -0.125 },
	 {0.125, 0.250, 0.500, 0.250, 0.000, 0.125, -0.250, -0.125, -0.125, 0.000, 0.250, 0.000, 0.000, 0.250, -0.250, -0.125, 0.125, -0.125, 0.500, 0.125, 0.000, 0.000, 0.125, 0.250, -0.125, 0.000, -0.125, 0.250, 0.000, -0.125, 0.000, 0.000 },
	 {0.000, 0.125, 0.250, 0.125, 0.000, -0.125, -0.125, 0.000, 0.000, 0.000, 0.125, 0.125, -0.125, 0.250, -0.125, -0.125, 0.125, 0.000, 0.250, 0.000, 0.000, 0.000, 0.000, 0.125, -0.125, 0.000, -0.125, 0.000, 0.000, 0.000, 0.000, 0.000 },
	 {0.000, 0.125, 0.125, 0.000, 0.000, 0.000, 0.000, -0.125, 0.000, -0.125, 0.000, -0.125, 0.125, 0.125, 0.000, -0.125, 0.000, 0.125, 0.000, 0.000, -0.125, 0.000, 0.000, 0.000, 0.000, 0.000, 0.000, 0.000, 0.000, 0.000, 0.000, 0.000 },
	 {0.000, 0.000, 0.000, 0.000, 0.000, 0.000, 0.000, 0.000, 0.125, 0.125, 0.000, 0.000, 0.000, 0.125, 0.000, 0.125, -0.125, 0.000, 0.000, 0.000, -0.125, 0.000, 0.000, 0.000, 0.000, 0.000, 0.000, 0.000, -0.125, 0.000, 0.000, 0.000 },
	 {0.000, 0.125, 0.000, -0.125, 0.000, -0.125, 0.000, 0.000, 0.000, 0.000, 0.000, 0.125, 0.125, 0.000, -0.125, 0.000, 0.125, 0.125, 0.000, 0.000, 0.000, 0.000, 0.000, 0.000, 0.000, 0.125, 0.000, 0.000, -0.125, 0.000, 0.125, 0.000 },
	 {0.000, 0.000, 0.000, -0.125, 0.000, 0.125, 0.000, -0.125, 0.000, 0.000, 0.125, 0.125, 0.000, 0.000, 0.000, 0.125, 0.000, 0.000, 0.000, 0.000, 0.125, 0.000, 0.125, 0.000, 0.000, 0.000, 0.000, 0.125, 0.000, 0.000, -0.125, 0.000 },
	 {0.000, 0.000, 0.125, 0.000, 0.000, 0.000, 0.000, -0.125, 0.000, 0.000, 0.000, 0.000, 0.000, 0.000, 0.000, 0.000, 0.125, 0.000, 0.000, 0.000, 0.000, 0.000, 0.125, 0.000, 0.125, 0.000, 0.125, 0.000, -0.125, -0.125, 0.000, 0.000 },
	 {0.000, 0.125, 0.000, 0.000, -0.125, 0.000, 0.000, 0.125, -0.125, 0.000, 0.000, 0.000, 0.000, 0.000, 0.000, 0.000, 0.000, 0.000, 0.000, 0.125, 0.000, -0.125, 0.125, 0.000, 0.000, 0.000, -0.125, 0.000, 0.000, -0.125, 0.000, 0.000 },
	 {0.125, 0.000, 0.000, 0.000, 0.000, -0.125, 0.000, 0.000, 0.000, 0.000, 0.000, 0.000, -0.125, 0.000, 0.000, 0.000, 0.000, 0.000, 0.125, 0.000, 0.000, -0.125, 0.000, 0.000, 0.000, 0.000, 0.000, 0.000, 0.000, 0.000, 0.000, 0.125 },
	 {0.000, 0.000, 0.000, 0.125, 0.125, 0.000, 0.000, 0.000, -0.125, 0.125, 0.125, 0.000, 0.000, -0.125, 0.000, 0.000, -0.125, 0.000, 0.125, 0.125, 0.000, -0.125, 0.000, 0.125, 0.125, 0.000, 0.000, 0.000, 0.000, 0.000, 0.000, 0.000 },
	 {-0.125, 0.000, 0.125, 0.125, 0.250, 0.000, 0.125, -0.125, 0.000, 0.000, 0.250, 0.000, 0.000, 0.000, -0.125, 0.000, 0.000, -0.125, 0.125, 0.125, 0.000, -0.125, 0.000, 0.125, 0.000, 0.000, 0.000, 0.125, 0.000, -0.250, -0.125, 0.000 },
	 {0.125, 0.500, 0.500, 0.250, 0.250, 0.000, 0.000, -0.250, -0.125, 0.125, 0.250, 0.000, 0.125, 0.500, -0.250, -0.250, 0.000, -0.250, 0.250, 0.000, 0.125, -0.500, 0.125, 0.125, 0.125, 0.125, 0.000, 0.500, 0.000, -0.125, -0.125, 0.000 },
	 {0.125, 0.500, 0.500, 0.250, 0.250, 0.125, 0.000, -0.250, -0.125, 0.125, 0.500, -0.125, 0.000, 0.500, -0.500, -0.250, 0.000, -0.125, 0.500, -0.125, 0.125, -0.250, 0.125, 0.000, 0.250, -0.125, -0.125, 0.500, 0.000, -0.250, -0.125, 0.000 },
	 {0.125, 0.500, 0.500, 0.250, 0.250, 0.000, 0.125, -0.250, -0.250, -0.250, 0.500, -0.250, 0.000, 0.500, -0.500, -0.500, 0.125, 0.000, 0.500, 0.000, 0.000, -0.500, 0.125, 0.125, 0.250, 0.000, -0.125, 0.500, 0.000, -0.500, -0.125, 0.000 },
	 {0.000, 0.500, 0.500, 0.250, 0.125, 0.000, 0.125, -0.250, -0.250, -0.125, 0.500, -0.125, 0.250, 0.500, -0.500, -0.500, 0.125, 0.000, 0.500, 0.000, 0.000, -0.500, 0.250, 0.125, 0.500, 0.000, -0.125, 0.500, 0.000, -0.250, -0.250, 0.000 },
	 {-0.125, 0.500, 0.500, 0.250, 0.250, 0.125, 0.250, -0.125, -0.250, -0.500, 0.250, -0.125, 0.125, 0.500, -0.500, -0.500, 0.250, 0.000, 0.250, 0.000, 0.125, -0.500, 0.250, 0.250, 0.250, 0.125, -0.125, 0.500, 0.000, -0.250, -0.125, -0.125 },
	 {-0.250, 0.500, 0.250, 0.000, 0.250, 0.000, 0.125, -0.250, -0.250, -0.125, 0.250, -0.125, 0.250, 0.500, -0.500, -0.500, 0.500, 0.125, 0.500, 0.250, 0.250, -0.500, 0.250, 0.125, 0.250, 0.250, -0.250, 0.250, -0.125, -0.500, -0.125, 0.000 },
	 {-0.250, 0.500, 0.250, 0.000, 0.250, -0.125, 0.125, -0.500, -0.250, -0.125, 0.250, 0.125, 0.125, 0.500, -0.250, -0.250, 0.250, 0.125, 0.500, 0.250, 0.250, -0.500, 0.125, 0.125, 0.500, 0.125, -0.125, 0.250, 0.000, -0.250, 0.000, 0.000 },
	 {-0.250, 0.250, 0.500, 0.125, 0.125, 0.000, -0.125, -0.250, -0.250, -0.125, 0.250, -0.125, 0.125, 0.500, -0.250, -0.500, 0.000, 0.000, 0.500, 0.250, 0.250, -0.500, 0.000, 0.000, 0.250, 0.000, -0.125, 0.500, 0.000, -0.250, -0.250, 0.125 },
	 {-0.125, 0.250, 0.250, 0.000, 0.000, 0.250, -0.125, -0.125, -0.250, -0.125, 0.125, -0.125, 0.000, 0.250, -0.125, -0.500, 0.125, 0.125, 0.500, 0.500, 0.125, -0.500, 0.125, 0.000, 0.250, 0.125, 0.000, 0.250, 0.000, -0.500, -0.250, 0.125 },
	 {0.125, 0.250, 0.250, 0.000, -0.125, 0.125, -0.125, -0.125, -0.250, 0.000, 0.250, -0.125, -0.250, 0.250, 0.000, -0.125, 0.125, 0.000, 0.500, 0.500, 0.125, -0.500, 0.125, 0.125, 0.125, 0.125, 0.000, 0.250, 0.000, -0.125, -0.250, 0.000 },
	 {-0.125, 0.250, 0.250, 0.125, -0.125, 0.125, 0.000, 0.000, -0.125, 0.000, 0.125, 0.000, -0.250, 0.125, 0.125, -0.125, 0.250, 0.000, 0.500, 0.500, 0.250, -0.250, 0.000, 0.250, 0.125, 0.125, 0.000, 0.500, 0.125, -0.250, -0.250, 0.000 },
	 {-0.125, 0.250, 0.250, 0.250, -0.125, 0.125, 0.125, -0.125, -0.250, -0.125, 0.250, 0.000, -0.500, 0.125, 0.250, 0.000, 0.250, 0.000, 0.500, 0.500, 0.250, -0.125, 0.125, 0.250, 0.125, 0.125, -0.125, 0.500, 0.000, -0.250, -0.250, -0.125 },
	 {0.000, 0.250, 0.250, 0.125, 0.000, 0.125, 0.000, -0.125, 0.000, 0.000, 0.125, -0.125, -0.250, 0.000, 0.125, 0.125, 0.000, 0.000, 0.500, 0.500, 0.000, -0.125, 0.125, 0.125, 0.000, 0.000, 0.000, 0.500, 0.000, -0.125, -0.125, 0.125 },
	 {0.000, 0.500, 0.250, 0.250, 0.000, 0.125, 0.125, -0.125, 0.000, 0.000, 0.125, -0.250, -0.250, -0.125, 0.000, 0.000, 0.125, -0.125, 0.500, 0.250, 0.125, -0.125, 0.250, 0.250, -0.125, -0.125, 0.000, 0.500, 0.125, 0.000, 0.125, 0.125 },
	 {0.000, 0.500, 0.250, 0.250, 0.125, -0.125, 0.125, 0.000, 0.250, 0.000, 0.125, -0.125, 0.000, 0.000, -0.125, 0.125, 0.125, 0.000, 1.000, 0.125, 0.000, -0.125, 0.250, 0.125, -0.125, -0.125, 0.000, 0.500, 0.000, 0.125, 0.250, 0.125 },
	 {0.125, 0.500, 0.250, 0.500, 0.125, 0.000, 0.000, 0.000, 0.250, 0.125, 0.250, -0.250, -0.125, 0.125, -0.250, -0.125, 0.250, -0.125, 0.500, 0.125, 0.000, 0.000, 0.250, 0.000, -0.125, -0.250, -0.125, 0.500, 0.000, 0.000, 0.500, 0.125 },
	 {-0.125, 0.500, 0.250, 0.500, 0.125, 0.250, 0.000, -0.125, 0.125, 0.000, 0.250, -0.250, 0.000, 0.125, -0.250, -0.125, 0.125, 0.000, 0.500, 0.125, 0.000, -0.125, 0.250, 0.000, -0.250, -0.250, -0.125, 0.250, 0.125, -0.125, 0.500, 0.125 },
	 {-0.125, 0.500, 0.500, 0.500, 0.000, 0.125, -0.250, 0.000, 0.125, 0.000, 0.125, -0.250, 0.000, 0.125, -0.250, -0.125, 0.250, -0.125, 0.250, 0.000, -0.125, -0.125, 0.125, 0.250, -0.250, -0.125, -0.250, 0.000, 0.000, -0.125, 0.250, 0.000 },
	 {0.000, 0.250, 0.125, 0.250, 0.000, 0.000, 0.000, 0.000, 0.000, 0.000, 0.125, 0.000, 0.000, 0.250, -0.250, -0.125, 0.125, 0.000, 0.250, 0.125, -0.125, 0.000, 0.125, 0.000, -0.125, 0.000, 0.000, 0.000, -0.125, 0.000, 0.250, 0.000 },
	 {-0.125, 0.250, 0.125, 0.125, 0.000, 0.125, 0.000, 0.000, 0.000, -0.125, 0.000, 0.000, 0.000, 0.000, -0.125, 0.000, 0.125, 0.000, 0.000, -0.125, 0.000, -0.125, 0.125, 0.250, -0.125, 0.000, 0.000, 0.000, 0.000, -0.125, 0.250, -0.125 },
	 {-0.125, -0.125, 0.000, 0.000, 0.000, 0.000, 0.000, 0.125, 0.000, 0.000, 0.000, 0.125, 0.000, 0.000, 0.000, 0.000, 0.000, -0.125, 0.000, 0.000, -0.125, -0.125, 0.000, 0.000, 0.000, 0.125, 0.125, -0.125, -0.125, 0.000, 0.000, 0.000 },
	 {0.000, 0.000, 0.000, 0.125, 0.000, 0.000, 0.000, 0.000, 0.000, 0.000, 0.000, 0.000, -0.125, 0.000, 0.000, 0.000, 0.125, 0.000, 0.000, 0.000, 0.000, 0.125, -0.125, -0.125, 0.000, 0.000, -0.125, 0.000, 0.000, 0.000, 0.000, 0.125 },
	 {0.000, 0.000, 0.000, 0.125, 0.000, 0.000, 0.000, 0.000, 0.000, 0.000, -0.125, 0.000, 0.125, 0.000, 0.000, 0.000, 0.000, 0.125, 0.000, 0.000, 0.000, 0.000, -0.125, 0.000, -0.125, -0.125, 0.000, 0.000, 0.000, -0.125, 0.000, 0.125 },
	 {-0.125, 0.000, 0.000, 0.000, 0.000, 0.000, 0.000, 0.000, 0.000, 0.000, 0.000, 0.000, 0.000, 0.000, -0.125, 0.125, 0.000, 0.125, 0.000, 0.000, 0.000, 0.000, 0.000, 0.000, 0.125, 0.000, 0.000, 0.000, 0.000, 0.000, 0.000, 0.125 },
	 {-0.125, 0.000, 0.000, 0.000, 0.000, 0.125, 0.000, 0.000, 0.000, -0.125, 0.000, 0.000, 0.000, 0.000, 0.000, 0.000, 0.000, 0.000, 0.000, 0.000, 0.125, 0.000, 0.000, 0.000, 0.125, 0.000, 0.000, 0.000, 0.125, 0.000, 0.000, 0.000 },
	 {0.000, 0.000, 0.000, -0.125, 0.000, 0.000, 0.000, 0.125, 0.000, -0.125, -0.125, 0.000, 0.125, 0.000, 0.000, 0.000, -0.125, 0.125, 0.125, 0.125, 0.000, 0.125, 0.000, 0.000, 0.000, 0.000, 0.125, 0.000, -0.125, 0.000, -0.125, 0.000 },
	 {-0.125, 0.250, -0.125, 0.000, 0.125, -0.125, 0.000, -0.125, 0.125, 0.000, -0.250, 0.000, 0.125, -0.125, 0.000, 0.125, 0.000, 0.125, 0.125, 0.125, 0.125, 0.125, 0.000, 0.250, 0.000, -0.125, 0.000, 0.125, 0.000, 0.250, -0.125, 0.000 },
	 {0.000, 0.250, -0.125, 0.125, 0.250, 0.000, 0.000, -0.125, 0.125, 0.125, 0.125, 0.125, 0.250, -0.125, -0.125, 0.125, 0.125, 0.250, 0.000, 0.125, -0.125, 0.125, -0.125, 0.125, 0.250, -0.125, -0.125, 0.125, 0.125, 0.000, -0.250, 0.000 },
	 {0.000, 0.250, 0.000, 0.125, 0.500, 0.125, 0.000, 0.000, 0.125, 0.000, 0.250, 0.000, 0.125, 0.125, -0.125, 0.250, 0.125, 0.000, 0.250, 0.250, 0.000, 0.000, 0.125, 0.000, 0.250, 0.000, -0.125, 0.250, -0.125, -0.125, 0.000, 0.125 },
	 {0.125, 0.250, 0.000, -0.125, 0.250, 0.000, 0.125, 0.000, 0.250, -0.125, 0.250, 0.125, 0.250, 0.125, -0.125, 0.125, -0.125, 0.250, 0.250, 0.250, 0.125, 0.000, 0.000, 0.125, 0.250, 0.000, 0.000, 0.250, -0.125, 0.000, -0.250, -0.125 },
	 {0.000, 0.500, 0.250, -0.125, 0.125, 0.125, 0.000, 0.125, 0.000, -0.250, 0.125, 0.125, 0.250, 0.000, -0.125, 0.000, 0.000, 0.250, 0.125, 0.250, 0.125, -0.250, 0.000, 0.250, 0.250, -0.125, -0.125, 0.250, 0.000, 0.125, -0.250, -0.125 },
	 {0.000, 0.250, 0.250, 0.000, -0.125, 0.125, 0.250, 0.000, -0.125, -0.500, 0.500, -0.250, 0.125, -0.125, -0.125, -0.125, 0.000, 0.250, 0.250, 0.250, 0.000, -0.500, 0.000, 0.250, 0.250, 0.125, -0.250, 0.250, 0.125, 0.125, 0.000, 0.000 },
	 {0.000, 0.500, 0.250, 0.000, 0.000, 0.125, 0.125, 0.000, -0.250, -0.500, 0.250, 0.000, 0.250, -0.250, -0.125, -0.125, 0.000, 0.250, 0.250, 0.250, 0.000, -0.500, 0.000, 0.125, 0.250, 0.000, -0.250, 0.125, 0.250, 0.125, 0.000, 0.125 },
	 {0.125, 0.125, 0.000, -0.125, -0.125, 0.000, 0.125, 0.125, -0.250, 0.000, 0.125, 0.125, 0.250, -0.250, 0.000, 0.000, 0.000, 0.125, 0.125, 0.500, 0.000, -0.250, 0.000, 0.250, 0.250, 0.125, 0.000, 0.000, 0.000, 0.250, 0.125, 0.125 },
	 {-0.125, 0.125, 0.125, -0.125, 0.000, 0.000, 0.125, 0.000, 0.000, -0.125, 0.500, 0.000, 0.250, -0.125, 0.000, 0.000, 0.250, 0.250, -0.125, 0.250, 0.125, -0.500, 0.000, 0.250, 0.125, 0.125, -0.125, -0.125, 0.125, 0.250, 0.000, 0.000 },
	 {0.000, 0.125, 0.000, 0.000, -0.125, 0.125, -0.125, 0.000, -0.250, 0.000, 0.250, 0.000, 0.125, 0.000, -0.250, 0.000, 0.250, 0.250, 0.000, 0.250, 0.125, -0.500, -0.125, 0.125, 0.125, 0.000, -0.125, -0.250, 0.000, 0.125, 0.000, 0.000 },
	 {0.000, 0.000, -0.125, 0.125, -0.125, 0.125, -0.125, -0.125, -0.250, -0.125, 0.250, 0.000, 0.125, 0.000, -0.125, 0.000, 0.250, 0.125, 0.000, 0.125, 0.250, -0.500, 0.000, 0.125, 0.125, 0.250, -0.125, -0.125, -0.125, 0.125, -0.125, 0.125 },
	 {0.125, 0.000, -0.125, 0.000, -0.125, 0.125, 0.000, 0.000, -0.125, -0.125, 0.125, 0.250, 0.125, 0.000, 0.125, 0.250, 0.125, 0.000, 0.000, 0.250, 0.125, -0.500, -0.125, 0.125, 0.125, 0.250, -0.125, -0.250, 0.000, 0.250, 0.000, 0.000 },
	 {0.000, 0.000, 0.000, 0.000, -0.125, 0.000, -0.125, 0.125, -0.125, -0.125, 0.250, -0.125, 0.125, 0.125, 0.250, 0.000, 0.125, 0.125, 0.125, 0.250, 0.125, -0.500, -0.125, 0.125, 0.125, 0.125, 0.000, -0.125, 0.000, 0.125, 0.000, 0.125 },
	 {0.125, 0.000, 0.000, 0.250, -0.250, 0.000, -0.125, 0.125, 0.125, -0.125, 0.250, -0.125, 0.000, 0.125, 0.250, 0.250, 0.250, 0.000, 0.125, 0.500, 0.250, -0.500, -0.250, 0.250, 0.125, 0.125, 0.125, 0.000, 0.125, 0.125, -0.125, 0.000 },
	 {0.125, -0.125, 0.000, 0.125, 0.000, 0.000, 0.000, 0.125, 0.000, 0.000, 0.500, 0.000, 0.125, 0.125, 0.250, 0.250, 0.125, 0.000, 0.250, 0.500, 0.125, -0.500, -0.125, 0.125, 0.125, 0.125, 0.125, 0.125, 0.250, 0.125, 0.000, 0.125 },
	 {0.250, 0.000, 0.000, 0.125, -0.125, -0.250, 0.000, 0.125, 0.000, 0.125, 0.500, -0.125, 0.000, 0.000, 0.250, 0.250, 0.125, 0.125, 0.250, 0.250, 0.125, -0.500, -0.125, 0.125, 0.000, -0.125, 0.000, 0.000, 0.125, -0.125, 0.125, 0.250 },
	 {0.125, 0.250, 0.000, 0.250, -0.125, -0.125, 0.000, 0.000, 0.125, 0.125, 0.250, -0.125, 0.000, 0.000, 0.125, 0.250, 0.250, 0.000, 0.125, 0.250, 0.125, -0.250, 0.000, 0.125, 0.000, -0.250, 0.125, 0.000, 0.125, 0.125, 0.125, 0.125 },
	 {0.000, 0.250, 0.125, 0.250, -0.125, 0.000, 0.000, 0.000, 0.125, 0.125, 0.250, 0.000, -0.125, 0.000, 0.000, 0.250, 0.250, 0.000, 0.250, 0.125, 0.125, -0.250, 0.250, 0.000, -0.125, -0.500, -0.125, 0.000, -0.125, 0.000, 0.250, 0.125 },
	 {0.000, 0.125, -0.125, 0.250, -0.250, 0.000, 0.000, -0.125, 0.125, 0.125, 0.125, 0.000, 0.125, -0.125, 0.000, 0.250, 0.250, 0.125, 0.250, 0.125, 0.125, -0.250, 0.250, 0.000, 0.000, -0.500, -0.125, -0.125, 0.000, 0.000, 0.250, 0.250 },
	 {0.125, 0.250, -0.125, 0.250, -0.125, 0.125, -0.125, 0.000, 0.250, 0.250, 0.125, -0.125, 0.125, -0.250, -0.125, 0.250, 0.250, -0.125, 0.250, 0.000, 0.125, -0.250, 0.250, 0.000, -0.250, -0.250, -0.250, -0.125, 0.125, 0.000, 0.250, 0.250 },
	 {0.250, 0.000, -0.250, 0.125, -0.250, 0.000, -0.250, 0.125, 0.125, 0.125, 0.250, -0.125, 0.125, -0.250, -0.125, 0.125, 0.000, -0.125, 0.250, 0.125, -0.125, 0.000, 0.250, 0.000, -0.250, 0.000, -0.250, -0.125, 0.125, 0.000, 0.250, 0.250 },
	 {0.250, -0.125, -0.125, 0.125, 0.000, 0.000, 0.000, 0.125, -0.125, 0.000, 0.250, 0.125, 0.250, 0.000, -0.125, 0.125, 0.125, -0.250, 0.125, 0.250, -0.250, 0.000, 0.250, 0.000, -0.250, 0.125, 0.000, 0.000, 0.000, 0.000, 0.125, 0.500 },
	 {0.250, 0.000, -0.125, -0.125, 0.000, -0.250, 0.125, 0.000, -0.125, 0.000, 0.125, 0.250, 0.125, 0.000, -0.125, 0.000, -0.125, 0.000, 0.000, 0.125, 0.000, -0.125, 0.000, 0.000, 0.000, 0.125, -0.125, -0.125, 0.000, 0.125, 0.000, 0.250 },
	 {0.000, 0.125, 0.125, 0.125, 0.000, -0.125, 0.000, 0.125, -0.125, 0.000, 0.000, 0.000, 0.000, 0.125, 0.000, 0.000, 0.125, 0.000, 0.000, 0.125, 0.125, -0.125, 0.000, 0.000, -0.125, 0.000, 0.000, 0.000, 0.000, 0.000, 0.000, 0.000 },
	 {0.000, 0.000, 0.000, 0.000, -0.125, 0.000, 0.000, 0.000, 0.000, 0.125, 0.125, 0.000, 0.000, 0.000, 0.000, 0.000, -0.125, 0.000, 0.000, 0.000, 0.125, 0.000, -0.125, 0.000, -0.125, 0.125, 0.000, -0.125, 0.000, 0.000, 0.000, 0.000 },
	 {0.000, 0.000, 0.000, 0.000, 0.000, 0.000, 0.000, 0.000, 0.000, 0.000, 0.000, 0.000, 0.000, 0.125, -0.125, 0.000, 0.000, 0.000, 0.000, 0.000, 0.000, 0.000, 0.000, 0.000, 0.000, 0.000, 0.000, -0.125, 0.000, 0.125, 0.000, 0.000 },
	 {0.000, 0.125, 0.000, 0.000, 0.125, 0.000, -0.125, 0.000, 0.000, 0.000, 0.000, 0.000, 0.000, 0.125, 0.000, 0.000, 0.000, 0.125, 0.000, 0.125, 0.000, -0.125, 0.000, 0.000, 0.000, 0.000, 0.000, 0.125, 0.000, 0.000, 0.000, 0.000 },
	 {0.000, 0.250, 0.000, 0.000, 0.000, -0.125, -0.125, 0.000, -0.125, 0.000, 0.000, 0.125, 0.250, 0.000, 0.125, 0.125, 0.125, 0.250, 0.000, 0.125, 0.125, 0.125, 0.000, 0.125, 0.125, -0.125, 0.000, -0.125, -0.125, 0.125, -0.125, -0.125 },
	 {0.000, 0.500, -0.125, -0.125, 0.000, -0.125, -0.125, 0.000, 0.000, 0.125, -0.125, 0.000, 0.500, -0.250, 0.000, 0.125, 0.000, 0.500, 0.125, 0.125, -0.125, 0.250, -0.125, 0.125, 0.125, -0.250, 0.125, 0.000, 0.000, 0.125, -0.250, -0.125 },
	 {0.000, 0.125, -0.125, -0.125, 0.250, 0.000, -0.125, 0.000, 0.125, 0.125, 0.000, 0.000, 0.250, -0.250, 0.000, 0.125, -0.125, 0.250, 0.125, 0.250, -0.125, 0.250, 0.000, 0.125, 0.125, -0.125, -0.125, 0.000, 0.000, 0.125, -0.125, -0.125 },
	 {0.000, 0.250, 0.000, -0.125, 0.000, 0.000, 0.000, 0.000, 0.125, 0.250, 0.000, 0.000, 0.250, -0.250, 0.000, 0.000, 0.000, 0.250, 0.125, 0.125, 0.125, 0.000, 0.125, 0.125, 0.125, 0.000, 0.000, 0.125, 0.000, 0.000, -0.125, -0.125 },
	 {0.125, 0.125, 0.125, 0.000, 0.000, 0.000, 0.000, 0.000, 0.000, 0.000, 0.125, 0.000, 0.125, -0.250, -0.125, 0.000, -0.125, 0.125, 0.250, 0.000, 0.000, 0.125, 0.250, -0.125, 0.125, 0.000, -0.125, 0.250, 0.000, 0.125, 0.000, 0.000 },
	 {0.000, 0.250, 0.125, -0.125, 0.125, 0.000, 0.000, 0.125, 0.125, -0.250, 0.000, 0.250, -0.125, -0.500, -0.125, 0.000, -0.125, 0.000, 0.250, 0.125, 0.000, 0.000, 0.250, 0.125, 0.000, 0.250, -0.500, 0.250, 0.250, -0.125, 0.000, -0.125 },
	 {0.000, 0.125, 0.000, 0.000, 0.125, -0.125, -0.125, 0.000, 0.125, -0.125, 0.125, 0.125, 0.000, -0.500, 0.125, 0.000, 0.000, 0.000, 0.000, 0.000, 0.125, -0.250, 0.500, 0.125, 0.125, 0.125, -0.500, 0.125, 0.000, 0.000, 0.000, 0.000 },
	 {0.000, 0.250, 0.000, 0.000, 0.000, 0.000, 0.125, 0.250, 0.125, -0.250, 0.125, 0.000, 0.125, -0.250, -0.125, 0.000, 0.000, 0.000, -0.125, 0.125, 0.000, -0.250, 0.250, 0.000, 0.125, 0.250, -0.500, 0.000, 0.125, 0.000, 0.125, 0.125 },
	 {0.250, 0.000, 0.000, 0.125, 0.000, -0.125, 0.000, 0.000, 0.125, -0.125, 0.125, 0.125, 0.250, -0.250, -0.125, -0.125, 0.000, -0.125, -0.250, 0.125, 0.125, 0.000, 0.125, 0.250, 0.125, 0.250, -0.250, -0.125, 0.000, 0.125, 0.000, 0.000 },
	 {0.125, 0.000, -0.125, 0.250, 0.125, 0.000, -0.250, -0.125, 0.000, 0.000, 0.125, 0.125, 0.125, -0.125, -0.250, 0.125, 0.125, 0.000, -0.125, 0.000, 0.000, -0.125, 0.125, 0.250, 0.125, 0.125, -0.125, -0.250, 0.000, 0.125, 0.000, 0.000 },
	 {0.125, 0.125, 0.000, 0.000, 0.000, 0.125, -0.125, 0.000, -0.125, 0.125, 0.000, 0.250, 0.125, -0.125, -0.250, -0.125, 0.000, 0.125, -0.250, 0.125, -0.125, -0.125, 0.125, 0.250, 0.000, 0.125, 0.000, 0.000, -0.125, 0.250, 0.000, 0.000 },
	 {0.000, 0.000, 0.000, 0.125, 0.000, 0.125, -0.125, -0.125, 0.000, 0.125, 0.000, 0.125, 0.125, 0.000, -0.250, 0.000, 0.250, 0.125, -0.125, 0.125, 0.000, -0.250, 0.125, 0.125, 0.000, 0.125, 0.000, -0.125, 0.000, 0.000, -0.250, 0.125 },
	 {0.000, 0.125, 0.000, 0.125, 0.000, 0.125, 0.000, -0.125, 0.000, 0.000, 0.000, 0.000, 0.125, 0.000, -0.250, 0.000, 0.125, 0.125, -0.125, 0.000, 0.000, -0.250, -0.125, 0.125, 0.000, 0.000, 0.000, -0.125, -0.125, 0.250, -0.125, 0.000 },
	 {0.000, -0.125, -0.250, 0.000, 0.000, 0.125, 0.000, -0.250, -0.125, 0.000, 0.250, 0.000, 0.125, 0.125, 0.000, 0.000, 0.125, 0.250, 0.125, 0.250, 0.000, -0.250, -0.125, 0.125, 0.250, -0.125, 0.000, -0.125, -0.125, 0.125, 0.000, 0.125 },
	 {0.000, -0.250, -0.125, 0.125, -0.250, 0.250, 0.000, 0.000, -0.125, 0.000, 0.125, -0.125, 0.125, 0.125, 0.000, 0.125, 0.250, 0.000, 0.125, 0.250, 0.000, -0.125, -0.250, 0.125, 0.000, -0.125, 0.000, 0.000, 0.000, 0.125, 0.000, 0.125 },
	 {0.125, 0.000, 0.000, 0.125, 0.000, 0.250, 0.000, 0.000, 0.000, -0.125, 0.000, 0.000, 0.125, 0.125, 0.250, -0.125, 0.125, 0.125, -0.125, 0.250, 0.000, -0.125, -0.250, 0.000, 0.000, -0.125, 0.000, 0.000, -0.125, 0.125, 0.000, 0.125 },
	 {0.250, 0.125, 0.000, 0.250, -0.125, 0.250, 0.000, 0.000, -0.250, -0.125, 0.250, 0.000, 0.000, 0.125, 0.250, -0.125, 0.125, 0.000, 0.000, 0.500, 0.000, -0.125, -0.125, 0.250, -0.125, -0.125, 0.000, -0.125, 0.000, -0.125, 0.125, 0.125 },
	 {0.125, 0.000, -0.250, 0.250, -0.250, 0.000, 0.000, -0.125, -0.125, 0.000, 0.250, -0.125, 0.000, 0.000, 0.125, 0.000, 0.250, 0.000, 0.000, 0.500, 0.000, 0.125, 0.125, 0.250, 0.000, -0.250, 0.125, -0.250, 0.000, 0.000, 0.000, 0.125 },
	 {0.125, 0.000, -0.125, 0.000, -0.250, -0.125, -0.125, -0.125, 0.000, -0.125, 0.250, 0.000, 0.000, 0.000, 0.250, 0.000, 0.250, 0.125, -0.125, 0.250, 0.125, -0.125, 0.125, 0.125, 0.125, -0.250, 0.000, -0.250, 0.000, 0.000, 0.125, 0.250 },
	 {0.125, 0.125, -0.125, 0.000, -0.125, -0.250, -0.125, 0.000, 0.125, 0.000, 0.125, -0.125, 0.000, -0.125, 0.125, 0.125, 0.250, 0.000, 0.000, 0.125, 0.125, -0.125, 0.125, 0.000, -0.125, -0.125, 0.000, -0.250, 0.125, 0.000, 0.125, 0.250 },
	 {0.000, 0.125, -0.125, 0.250, -0.125, 0.125, 0.000, 0.000, 0.250, 0.125, 0.125, -0.125, -0.125, -0.250, 0.125, 0.000, 0.125, 0.000, 0.250, 0.125, 0.125, -0.250, 0.250, 0.125, -0.250, -0.250, -0.125, -0.500, 0.125, 0.000, 0.500, 0.500 },
	 {0.125, 0.250, 0.000, 0.125, 0.000, 0.000, -0.250, -0.250, 0.125, 0.125, 0.250, 0.000, 0.125, -0.250, 0.000, 0.250, 0.125, 0.125, 0.250, 0.125, -0.125, -0.250, 0.250, 0.000, -0.250, -0.125, -0.250, -0.500, 0.125, 0.000, 0.250, 0.500 },
	 {0.250, -0.125, -0.125, 0.125, 0.125, -0.125, 0.000, 0.000, 0.125, 0.125, 0.500, 0.125, 0.500, 0.000, -0.125, 0.125, 0.125, -0.125, 0.125, 0.250, -0.250, -0.250, 0.125, 0.125, -0.125, 0.125, -0.125, -0.250, 0.250, 0.125, 0.250, 0.500 },
	 {0.250, 0.000, -0.125, 0.125, 0.250, -0.250, 0.125, 0.125, -0.125, 0.125, 0.500, 0.000, 0.250, 0.125, -0.125, 0.125, 0.000, 0.000, 0.250, 0.250, 0.000, 0.000, 0.125, 0.000, 0.000, 0.000, 0.000, -0.125, -0.125, 0.125, 0.125, 0.250 },
	 {0.125, 0.000, 0.000, -0.125, 0.000, 0.000, 0.000, 0.000, 0.000, 0.000, 0.125, 0.000, -0.125, 0.000, -0.125, -0.125, 0.000, 0.000, 0.000, 0.000, 0.000, 0.000, 0.000, 0.000, 0.000, 0.000, 0.000, -0.125, -0.125, 0.125, 0.000, 0.125 },
	 {0.000, 0.000, -0.125, 0.125, 0.000, 0.000, 0.000, 0.000, 0.000, 0.125, 0.125, 0.000, 0.000, 0.000, 0.000, 0.000, 0.000, -0.125, 0.000, 0.000, 0.000, -0.125, 0.000, 0.000, 0.125, 0.000, 0.000, 0.000, 0.000, 0.000, 0.000, 0.000 },
	 {0.000, 0.000, -0.125, 0.000, 0.125, 0.000, -0.125, 0.000, 0.000, 0.000, 0.000, 0.000, 0.000, 0.000, 0.000, 0.000, 0.000, 0.125, 0.000, 0.000, 0.000, 0.000, 0.000, 0.000, 0.000, -0.125, -0.125, -0.125, -0.125, 0.125, -0.125, 0.000 },
	 {0.125, -0.125, 0.000, 0.000, 0.125, 0.000, 0.000, 0.000, 0.000, 0.125, 0.125, 0.125, 0.000, 0.000, 0.000, 0.125, -0.125, 0.000, 0.000, 0.125, 0.125, 0.125, 0.000, -0.125, 0.125, 0.125, 0.000, 0.125, 0.000, 0.000, 0.000, 0.000 },
	 {0.125, 0.250, -0.250, -0.125, 0.000, 0.000, -0.250, -0.125, 0.000, 0.125, 0.000, 0.125, 0.250, -0.125, 0.125, 0.250, -0.125, 0.500, 0.250, 0.125, 0.000, 0.500, 0.000, 0.125, 0.000, -0.125, 0.000, 0.125, -0.125, 0.000, 0.000, -0.125 },
	 {0.000, 0.250, -0.250, 0.125, 0.125, -0.125, -0.125, 0.000, 0.125, 0.250, 0.125, -0.125, 0.125, -0.250, 0.125, 0.500, 0.125, 0.500, 0.250, 0.000, 0.000, 0.250, 0.000, 0.500, 0.250, -0.250, 0.000, 0.125, 0.125, 0.000, 0.000, -0.250 },
	 {-0.125, -0.125, -0.250, -0.125, 0.125, -0.125, -0.125, 0.125, 0.125, 0.125, -0.125, -0.125, 0.125, -0.250, 0.000, 0.250, 0.000, 0.250, 0.500, 0.000, -0.125, 0.125, 0.250, 0.000, 0.250, 0.250, 0.000, 0.125, 0.125, -0.125, 0.000, -0.125 },
	 {-0.125, 0.000, 0.000, -0.125, 0.000, 0.000, 0.000, 0.125, 0.125, 0.000, -0.125, 0.000, 0.250, -0.500, 0.125, 0.125, -0.125, 0.125, 0.125, 0.125, 0.000, 0.125, 0.000, 0.000, 0.250, 0.000, -0.125, 0.250, 0.125, -0.125, 0.125, -0.125 },
	 {0.000, 0.125, 0.000, 0.000, 0.000, 0.000, -0.125, 0.125, 0.125, 0.000, -0.125, 0.000, 0.000, -0.250, 0.000, 0.000, 0.000, 0.000, 0.250, 0.000, 0.125, 0.125, 0.250, 0.125, 0.125, 0.125, 0.000, 0.125, 0.125, 0.000, 0.125, 0.000 },
	 {0.125, 0.125, -0.125, 0.000, 0.125, 0.000, -0.125, 0.000, 0.250, -0.125, 0.000, 0.125, 0.125, -0.250, 0.125, 0.000, -0.125, 0.000, 0.125, 0.000, 0.125, 0.250, 0.250, 0.000, 0.000, 0.125, -0.250, 0.000, 0.000, 0.000, 0.000, 0.000 },
	 {0.125, 0.000, -0.125, 0.000, 0.125, 0.000, -0.125, -0.125, 0.250, -0.250, -0.125, 0.125, 0.125, -0.125, 0.125, 0.000, 0.000, 0.000, 0.000, 0.000, 0.125, 0.125, 0.125, 0.000, 0.125, 0.000, -0.250, -0.125, 0.125, 0.125, 0.000, 0.000 },
	 {0.125, 0.000, 0.000, 0.000, 0.250, 0.125, 0.000, 0.000, 0.000, 0.000, -0.125, 0.125, 0.125, 0.000, 0.000, 0.000, 0.000, -0.125, -0.125, -0.125, 0.000, 0.000, 0.000, 0.000, 0.250, 0.125, -0.250, -0.125, 0.000, 0.125, 0.000, 0.000 },
	 {0.125, 0.000, 0.000, 0.125, 0.125, 0.000, -0.125, 0.125, 0.000, 0.125, 0.000, 0.125, 0.125, 0.000, -0.125, 0.125, 0.125, -0.250, -0.125, 0.000, 0.000, 0.125, 0.000, 0.125, 0.125, 0.125, -0.125, 0.000, 0.000, 0.250, 0.000, 0.000 },
	 {0.125, 0.000, 0.000, 0.125, 0.000, 0.125, -0.250, 0.000, -0.125, 0.125, -0.125, 0.250, 0.125, 0.125, -0.250, 0.000, 0.125, -0.125, -0.125, 0.000, 0.000, 0.125, 0.250, -0.125, 0.250, 0.125, 0.000, 0.125, 0.000, 0.250, 0.000, 0.125 },
	 {0.125, 0.000, 0.000, 0.125, 0.125, 0.125, -0.125, 0.000, 0.125, 0.125, 0.000, 0.250, 0.250, 0.000, -0.250, 0.000, 0.125, -0.125, -0.125, 0.000, 0.000, 0.125, 0.000, 0.125, 0.250, 0.125, 0.000, 0.125, 0.000, 0.125, -0.125, 0.000 },
	 {0.000, 0.000, -0.125, 0.125, 0.125, 0.125, 0.000, -0.125, 0.000, 0.125, 0.000, 0.250, 0.125, 0.000, -0.500, 0.125, 0.000, -0.125, -0.125, 0.125, 0.125, 0.000, 0.000, 0.000, 0.125, 0.000, 0.125, 0.250, 0.000, 0.000, -0.125, 0.000 },
	 {0.125, 0.125, -0.125, 0.125, 0.125, 0.125, 0.000, 0.000, 0.000, -0.125, 0.000, 0.125, 0.000, 0.125, -0.250, -0.125, 0.125, 0.125, -0.125, 0.250, 0.000, 0.000, 0.125, 0.000, 0.125, 0.000, 0.125, 0.250, -0.125, 0.000, -0.125, 0.000 },
	 {0.000, 0.000, -0.125, 0.125, 0.125, 0.125, 0.000, -0.125, 0.000, -0.125, -0.125, 0.125, 0.250, 0.125, -0.125, -0.125, 0.000, 0.000, -0.125, 0.125, 0.000, 0.125, 0.125, 0.125, 0.000, 0.000, 0.125, 0.500, -0.125, 0.125, -0.125, 0.125 },
	 {0.125, 0.000, -0.125, 0.125, 0.125, 0.000, 0.000, 0.125, 0.125, 0.000, -0.125, 0.250, 0.000, 0.000, 0.125, 0.125, -0.125, -0.125, -0.125, 0.250, 0.125, 0.125, 0.125, 0.125, 0.000, 0.125, 0.000, 0.250, 0.000, 0.125, 0.000, 0.125 },
	 {0.250, -0.125, -0.250, 0.000, -0.125, 0.000, 0.125, 0.000, 0.000, -0.125, -0.125, 0.250, 0.000, 0.000, 0.250, 0.000, -0.250, 0.000, -0.250, 0.250, 0.000, 0.125, 0.125, 0.125, 0.125, 0.000, 0.000, 0.250, 0.000, 0.125, -0.125, 0.250 },
	 {0.250, -0.250, -0.250, 0.125, 0.000, 0.000, -0.125, 0.000, 0.000, 0.000, 0.125, 0.000, -0.125, 0.000, 0.250, 0.125, -0.125, -0.125, -0.125, 0.125, -0.125, -0.125, 0.125, 0.125, 0.000, 0.125, 0.000, 0.125, 0.000, 0.125, 0.125, 0.125 },
	 {0.125, -0.125, -0.250, 0.125, 0.125, 0.125, -0.125, 0.000, 0.000, 0.125, 0.125, 0.000, 0.000, 0.000, 0.250, 0.000, 0.000, -0.125, -0.125, 0.250, 0.125, 0.125, 0.250, 0.125, -0.125, -0.125, -0.125, 0.000, 0.000, 0.000, 0.000, 0.250 },
	 {0.000, 0.000, -0.125, 0.125, 0.125, 0.000, 0.000, 0.000, 0.000, -0.125, 0.125, 0.250, -0.125, -0.125, 0.125, -0.125, 0.125, -0.125, -0.250, 0.250, 0.125, 0.125, 0.125, 0.250, 0.000, 0.125, 0.125, 0.000, 0.125, 0.000, 0.000, 0.125 },
	 {0.000, 0.125, 0.000, 0.000, 0.000, -0.250, 0.125, 0.125, 0.250, 0.125, 0.125, -0.125, -0.125, -0.125, 0.125, 0.000, 0.125, -0.125, 0.125, 0.125, 0.125, -0.125, 0.250, 0.125, -0.125, 0.125, 0.125, 0.000, 0.000, 0.000, -0.125, 0.250 },
	 {0.000, 0.250, -0.250, 0.125, 0.000, -0.125, 0.125, 0.125, 0.250, 0.250, 0.250, 0.000, 0.000, -0.250, 0.000, 0.125, 0.125, -0.125, 0.000, 0.125, 0.000, -0.250, 0.125, 0.000, -0.250, 0.000, 0.000, -0.500, 0.250, 0.125, 0.125, 0.250 },
	 {0.125, 0.125, -0.250, 0.125, 0.000, 0.000, 0.000, -0.250, 0.250, 0.250, 0.250, -0.250, 0.250, -0.250, -0.250, 0.500, 0.000, -0.125, 0.250, 0.125, -0.125, -0.500, 0.250, -0.125, -0.500, -0.125, -0.250, -0.500, 0.125, -0.125, 0.250, 0.250 },
	 {0.500, 0.250, -0.250, 0.250, 0.250, -0.125, 0.125, 0.000, 0.125, 0.125, 0.500, -0.125, 0.500, 0.000, -0.500, 0.125, 0.125, -0.125, 0.125, 0.250, -0.250, -0.125, 0.250, 0.125, -0.125, 0.000, 0.000, -0.250, 0.125, 0.125, 0.500, 0.500 },
	 {0.500, 0.125, -0.125, 0.125, 0.250, -0.125, 0.000, 0.000, -0.125, 0.125, 0.500, 0.000, 0.125, 0.000, -0.125, 0.250, 0.125, 0.000, 0.125, 0.500, 0.000, -0.125, 0.125, -0.125, 0.000, 0.000, 0.125, 0.000, -0.125, 0.250, 0.250, 0.500 },
	 {0.000, 0.000, 0.125, -0.125, 0.125, -0.125, 0.000, 0.000, 0.000, 0.125, 0.125, -0.125, 0.125, 0.000, 0.125, 0.125, -0.125, -0.125, 0.000, 0.250, 0.000, 0.000, 0.125, 0.000, 0.125, 0.000, 0.000, 0.000, 0.000, 0.000, 0.000, 0.125 },
	 {0.000, 0.000, 0.000, 0.000, 0.000, -0.125, 0.000, 0.000, -0.125, 0.000, 0.000, 0.000, 0.125, 0.000, 0.000, 0.000, -0.125, -0.125, 0.000, 0.000, 0.000, 0.000, 0.125, 0.125, 0.000, 0.000, 0.000, 0.000, 0.000, -0.125, 0.000, 0.125 },
	 {0.000, -0.125, -0.125, -0.250, 0.000, -0.125, -0.125, 0.000, 0.000, 0.125, 0.000, 0.125, 0.000, 0.125, 0.125, 0.000, 0.000, 0.000, 0.125, 0.125, 0.000, 0.000, 0.125, -0.125, 0.125, 0.125, -0.125, 0.125, 0.125, -0.125, 0.000, 0.000 },
	 {0.125, -0.250, 0.000, -0.125, 0.250, -0.125, 0.000, 0.250, 0.000, 0.000, 0.000, 0.250, -0.250, 0.125, 0.000, 0.250, -0.125, 0.000, 0.125, -0.125, 0.000, 0.125, 0.250, -0.250, 0.000, 0.250, -0.125, 0.250, 0.250, -0.250, 0.250, 0.000 },
	 {0.000, 0.000, -0.125, 0.000, 0.250, 0.000, -0.250, 0.250, 0.125, 0.125, 0.000, 0.250, 0.125, -0.125, 0.000, 0.500, -0.125, 0.500, 0.250, 0.000, -0.125, 0.125, 0.250, 0.125, 0.125, 0.125, -0.125, 0.125, 0.125, -0.125, 0.250, -0.125 },
	 {-0.250, 0.125, -0.250, -0.125, 0.250, -0.125, -0.250, -0.125, 0.000, 0.250, 0.125, -0.250, 0.500, -0.125, 0.125, 0.250, 0.250, 0.500, 0.250, 0.000, -0.125, 0.000, 0.000, 0.250, 0.500, -0.250, 0.000, -0.125, 0.125, 0.000, -0.125, -0.250 },
	 {-0.250, -0.125, -0.250, -0.125, 0.000, -0.125, -0.500, 0.125, 0.125, 0.125, 0.000, -0.125, 0.250, -0.250, 0.000, 0.125, 0.125, 0.250, 0.250, 0.125, 0.000, -0.125, 0.125, 0.125, 0.500, 0.000, -0.125, -0.125, 0.125, 0.000, 0.125, -0.125 },
	 {-0.250, 0.000, 0.000, -0.250, 0.125, 0.000, -0.250, 0.000, 0.125, 0.000, -0.125, 0.125, 0.250, -0.250, 0.125, 0.125, 0.125, 0.125, 0.125, -0.125, -0.125, 0.125, 0.125, 0.000, 0.250, 0.125, -0.125, -0.125, 0.125, 0.000, 0.125, -0.125 },
	 {-0.125, 0.125, 0.125, 0.000, 0.125, 0.000, -0.250, 0.000, 0.000, -0.250, 0.000, 0.000, 0.000, -0.250, 0.000, 0.000, -0.125, 0.000, 0.250, -0.125, -0.125, 0.000, 0.125, 0.000, 0.125, 0.125, -0.125, 0.000, 0.125, 0.000, 0.000, -0.125 },
	 {0.125, -0.125, -0.250, 0.000, 0.125, 0.000, -0.125, 0.000, 0.000, -0.250, 0.125, 0.125, 0.125, 0.000, -0.125, 0.125, 0.000, -0.250, 0.125, -0.125, 0.000, 0.125, 0.125, -0.125, 0.125, 0.250, 0.000, -0.125, 0.125, 0.125, 0.000, 0.125 },
	 {0.125, 0.000, 0.000, 0.125, 0.125, -0.125, -0.125, 0.000, 0.000, -0.125, 0.000, 0.000, 0.125, -0.125, 0.000, 0.125, 0.000, -0.250, 0.125, -0.125, 0.000, 0.000, 0.125, 0.000, 0.250, 0.250, -0.125, -0.250, 0.125, 0.000, 0.000, 0.125 },
	 {0.125, -0.125, 0.125, 0.125, 0.125, 0.000, -0.250, 0.000, 0.000, 0.125, -0.125, 0.000, 0.000, 0.000, -0.125, 0.125, 0.000, -0.250, 0.125, 0.000, 0.000, -0.125, 0.125, 0.000, 0.250, 0.250, -0.125, -0.125, 0.125, 0.000, 0.000, 0.125 },
	 {0.125, -0.125, 0.125, 0.125, 0.000, 0.000, -0.125, 0.250, 0.000, 0.125, 0.000, 0.000, 0.125, 0.000, 0.000, 0.000, 0.125, -0.250, 0.125, 0.000, 0.125, 0.000, 0.000, 0.000, 0.500, 0.250, 0.000, -0.125, 0.000, 0.000, 0.125, 0.125 },
	 {0.125, -0.125, 0.125, 0.125, 0.000, -0.125, -0.250, 0.000, 0.000, 0.125, -0.125, 0.250, 0.125, 0.000, -0.125, 0.000, 0.125, -0.125, -0.125, 0.125, 0.000, 0.250, -0.125, 0.000, 0.250, 0.250, 0.250, 0.000, 0.000, 0.125, 0.000, 0.000 },
	 {0.000, -0.125, -0.125, 0.000, 0.000, 0.125, -0.125, 0.000, 0.000, 0.125, 0.000, 0.250, 0.125, -0.125, -0.250, 0.000, 0.250, -0.125, -0.125, 0.125, 0.000, 0.250, -0.250, 0.125, 0.250, 0.125, 0.125, 0.000, -0.125, 0.125, -0.250, 0.000 },
	 {0.125, 0.125, 0.125, 0.000, -0.125, 0.250, 0.000, 0.000, 0.000, 0.000, -0.125, 0.250, 0.250, 0.000, -0.250, -0.125, 0.000, -0.125, -0.125, 0.250, 0.000, 0.125, -0.125, -0.125, 0.250, 0.000, 0.125, 0.000, 0.000, 0.000, -0.250, 0.000 },
	 {0.125, 0.125, -0.125, 0.125, -0.125, 0.000, -0.125, 0.000, 0.000, -0.125, -0.125, 0.125, 0.000, 0.000, -0.250, 0.000, 0.000, 0.000, -0.125, 0.250, 0.000, 0.125, 0.125, -0.125, 0.000, 0.000, 0.125, 0.250, 0.000, 0.000, -0.125, 0.125 },
	 {0.125, 0.000, -0.250, 0.000, 0.000, -0.125, 0.000, 0.125, 0.000, -0.250, 0.000, 0.250, 0.125, 0.000, 0.000, 0.000, -0.250, 0.000, 0.000, 0.250, 0.125, 0.000, 0.125, 0.000, 0.000, 0.000, 0.250, 0.125, 0.000, 0.000, 0.000, 0.125 },
	 {0.000, 0.000, -0.125, 0.125, -0.125, -0.250, 0.125, 0.125, 0.125, -0.125, -0.125, 0.125, 0.000, -0.125, 0.125, 0.000, -0.250, 0.125, 0.000, 0.125, 0.125, 0.000, 0.125, 0.250, 0.000, 0.125, 0.250, 0.125, 0.000, 0.125, 0.125, 0.125 },
	 {0.125, -0.125, -0.125, 0.000, 0.000, -0.125, 0.000, 0.250, 0.000, -0.125, 0.000, 0.250, 0.000, 0.000, 0.125, 0.000, -0.250, 0.000, 0.000, 0.125, 0.125, 0.000, 0.125, 0.250, 0.000, 0.250, 0.125, 0.125, 0.125, 0.125, 0.125, 0.250 },
	 {0.250, -0.125, -0.250, 0.000, 0.000, 0.000, -0.125, 0.250, 0.125, -0.125, -0.125, 0.125, 0.000, 0.000, 0.500, 0.000, -0.250, -0.125, 0.000, 0.250, 0.000, -0.125, 0.125, 0.125, 0.000, 0.125, 0.000, 0.125, 0.000, 0.000, 0.125, 0.250 },
	 {0.125, -0.250, -0.250, 0.125, 0.125, 0.125, -0.125, 0.125, 0.000, 0.000, -0.125, 0.125, -0.125, 0.000, 0.250, 0.125, -0.125, -0.250, 0.000, 0.125, 0.000, 0.000, 0.125, 0.125, 0.000, 0.000, 0.000, 0.125, 0.000, 0.125, 0.125, 0.250 },
	 {0.125, -0.125, -0.125, 0.125, 0.000, 0.000, 0.125, 0.000, 0.000, 0.000, 0.125, 0.125, 0.125, 0.000, 0.125, 0.000, 0.000, -0.250, -0.125, 0.250, 0.000, 0.000, 0.125, 0.125, -0.125, 0.250, 0.000, 0.250, 0.000, 0.000, 0.125, 0.250 },
	 {0.000, 0.000, -0.125, 0.125, 0.000, 0.000, 0.000, 0.125, 0.250, 0.125, 0.125, 0.000, 0.125, 0.000, 0.125, 0.125, 0.125, -0.250, -0.125, 0.250, 0.125, -0.250, 0.125, 0.125, -0.125, 0.250, 0.000, 0.000, 0.125, 0.125, 0.125, 0.125 },
	 {0.000, 0.000, -0.125, 0.000, 0.000, -0.125, 0.000, 0.125, 0.250, 0.125, -0.125, 0.000, 0.000, 0.000, -0.125, 0.500, 0.250, 0.000, -0.125, 0.125, 0.000, -0.250, 0.125, 0.125, -0.125, 0.250, 0.000, 0.000, 0.250, 0.250, 0.000, 0.000 },
	 {0.250, 0.125, -0.250, 0.250, 0.000, 0.125, 0.000, 0.125, 0.250, 0.125, 0.250, -0.250, 0.125, -0.250, -0.500, 0.500, 0.250, -0.500, 0.125, 0.250, -0.250, -0.250, 0.250, 0.000, -0.500, -0.125, -0.250, -0.500, 0.000, -0.250, 0.250, 0.500 },
	 {0.500, 0.250, -0.250, 0.250, 0.125, 0.000, 0.125, 0.000, 0.125, 0.000, 0.500, 0.000, 0.500, -0.250, -0.500, 0.500, 0.125, -0.500, 0.000, 0.500, -0.250, -0.125, 0.125, 0.125, -0.250, -0.125, -0.125, -0.500, -0.250, 0.000, 0.500, 1.000 },
	 {0.250, 0.000, -0.125, 0.125, 0.250, 0.000, 0.125, 0.000, 0.125, 0.250, 0.500, 0.000, 0.250, -0.125, 0.125, 0.500, 0.000, -0.250, 0.250, 0.500, 0.125, -0.125, 0.250, -0.125, 0.000, -0.125, 0.000, 0.000, -0.125, 0.000, 0.250, 0.500 },
	 {0.125, 0.000, -0.125, 0.000, 0.125, -0.125, 0.125, 0.000, 0.000, 0.000, 0.250, 0.000, 0.000, 0.000, 0.000, 0.250, -0.125, -0.125, 0.000, 0.250, 0.125, 0.000, 0.000, 0.000, 0.000, 0.000, 0.125, 0.000, 0.000, 0.125, 0.125, 0.125 },
	 {0.000, -0.125, 0.125, 0.000, 0.125, 0.000, 0.000, 0.125, 0.000, 0.000, 0.000, 0.000, 0.000, 0.000, 0.000, -0.125, -0.125, 0.000, -0.125, 0.000, 0.000, 0.000, 0.125, 0.000, 0.000, 0.000, 0.125, 0.000, 0.000, 0.000, -0.125, 0.000 },
	 {0.000, -0.125, 0.000, -0.125, 0.000, 0.000, 0.000, 0.000, 0.000, 0.000, 0.000, 0.250, 0.000, 0.125, 0.125, 0.250, 0.000, 0.000, 0.125, -0.125, -0.125, 0.000, 0.125, -0.125, 0.000, 0.125, 0.000, 0.000, 0.250, 0.000, 0.125, -0.125 },
	 {-0.125, -0.250, 0.000, 0.000, 0.250, -0.125, -0.125, 0.250, 0.125, 0.125, -0.250, 0.500, -0.250, 0.250, 0.000, 0.500, 0.000, -0.125, 0.250, -0.125, -0.125, 0.250, 0.500, -0.125, -0.125, 0.250, 0.000, 0.250, 0.500, -0.125, 0.500, 0.125 },
	 {0.125, -0.125, -0.500, -0.125, 0.125, 0.000, -0.125, 0.250, 0.125, 0.250, -0.125, 0.250, 0.000, 0.000, 0.000, 0.500, -0.125, 0.250, 0.500, 0.125, -0.125, 0.125, 0.500, 0.000, 0.250, 0.125, -0.125, 0.250, 0.125, -0.125, 0.500, 0.000 },
	 {-0.125, 0.125, -0.500, 0.000, 0.125, -0.250, -0.250, -0.125, 0.125, 0.125, -0.125, 0.250, 0.250, -0.250, 0.000, 0.250, 0.125, 0.250, 0.125, -0.125, -0.125, 0.250, 0.125, 0.250, 0.500, -0.250, -0.125, -0.125, 0.125, 0.125, 0.125, -0.250 },
	 {0.000, 0.000, -0.250, 0.000, 0.250, 0.000, -0.250, 0.125, 0.000, -0.125, 0.000, 0.000, 0.250, -0.250, 0.000, 0.125, 0.125, 0.125, 0.250, 0.125, 0.000, 0.000, 0.125, 0.000, 0.250, 0.125, 0.000, -0.250, 0.125, 0.125, 0.250, -0.125 },
	 {0.000, 0.125, 0.000, 0.125, 0.125, -0.125, -0.500, 0.000, 0.000, 0.000, 0.000, 0.000, 0.125, -0.125, 0.125, 0.250, 0.000, 0.125, 0.125, -0.125, -0.250, 0.125, 0.000, 0.125, 0.250, 0.250, 0.000, -0.125, 0.125, 0.125, 0.125, -0.125 },
	 {0.125, -0.125, 0.000, 0.125, 0.250, -0.125, -0.500, 0.125, 0.125, -0.125, 0.000, 0.000, 0.125, 0.000, 0.125, 0.125, 0.000, -0.125, 0.125, -0.250, -0.125, 0.000, 0.250, 0.000, 0.250, 0.250, 0.000, -0.125, 0.250, 0.125, 0.000, 0.000 },
	 {0.125, -0.125, -0.125, 0.000, 0.250, -0.125, -0.250, 0.125, 0.250, -0.250, -0.250, 0.000, 0.000, 0.000, 0.125, 0.125, -0.125, -0.250, 0.000, -0.125, 0.125, 0.125, 0.250, 0.000, 0.250, 0.250, 0.000, -0.125, 0.125, 0.125, 0.000, 0.000 },
	 {0.000, -0.125, -0.125, 0.125, 0.000, -0.125, -0.250, 0.125, 0.000, -0.125, -0.125, 0.000, 0.125, 0.000, 0.125, 0.250, 0.125, -0.250, 0.000, 0.000, 0.250, 0.125, 0.250, 0.125, 0.125, 0.125, -0.125, -0.125, 0.000, 0.000, 0.125, 0.000 },
	 {0.125, 0.000, 0.000, -0.125, 0.125, -0.250, -0.125, 0.125, 0.125, -0.125, -0.250, 0.000, 0.125, 0.000, 0.125, 0.000, 0.125, -0.250, 0.000, -0.125, 0.125, 0.000, -0.125, 0.000, 0.250, 0.250, -0.250, 0.000, 0.000, 0.250, 0.125, 0.000 },
	 {0.125, -0.125, 0.125, -0.125, 0.000, 0.000, -0.125, 0.000, 0.000, -0.125, -0.125, -0.125, 0.000, 0.000, 0.000, 0.000, 0.250, -0.500, 0.125, 0.000, 0.125, 0.125, 0.000, -0.125, 0.125, 0.125, 0.000, 0.000, 0.125, 0.125, 0.125, 0.000 },
	 {0.125, -0.125, 0.000, 0.000, 0.125, 0.000, -0.250, 0.250, -0.125, 0.125, -0.125, 0.000, 0.000, 0.000, 0.000, 0.125, 0.250, -0.250, 0.125, 0.000, -0.125, 0.125, 0.000, -0.125, 0.125, 0.250, 0.125, -0.125, 0.000, 0.125, 0.000, 0.125 },
	 {0.250, 0.125, 0.000, 0.125, 0.250, 0.000, -0.125, 0.000, 0.000, 0.125, 0.000, -0.125, 0.125, 0.000, -0.250, 0.000, 0.250, -0.125, 0.125, 0.000, -0.250, 0.125, -0.250, 0.000, 0.125, 0.250, 0.250, 0.000, 0.000, 0.125, -0.125, -0.125 },
	 {0.125, 0.125, 0.000, 0.000, 0.250, 0.125, 0.000, 0.125, -0.125, 0.250, -0.250, 0.125, 0.000, 0.000, -0.500, 0.000, 0.000, -0.125, 0.000, 0.000, 0.125, 0.125, -0.125, -0.125, 0.125, 0.000, 0.500, 0.250, -0.125, 0.250, -0.250, -0.125 },
	 {0.000, 0.000, 0.000, 0.000, 0.000, 0.000, 0.000, 0.000, 0.000, 0.000, -0.125, 0.250, 0.000, -0.125, -0.250, 0.125, -0.125, 0.000, 0.000, -0.125, 0.250, 0.000, 0.000, 0.000, 0.125, 0.125, 0.125, 0.125, -0.125, 0.125, 0.125, -0.125 },
	 {0.250, 0.125, -0.250, 0.000, -0.125, -0.125, 0.125, 0.250, -0.125, -0.125, 0.000, 0.250, 0.125, 0.000, 0.125, 0.000, -0.250, 0.000, 0.000, 0.125, 0.000, -0.125, 0.000, 0.125, 0.000, 0.125, 0.000, 0.125, -0.125, 0.000, 0.000, -0.250 },
	 {0.125, 0.000, -0.125, 0.000, 0.000, -0.250, -0.125, 0.250, 0.000, 0.125, 0.125, 0.125, -0.125, -0.125, 0.250, 0.000, -0.250, 0.000, -0.125, 0.125, 0.250, 0.000, 0.000, 0.250, 0.125, 0.125, 0.000, 0.125, 0.000, 0.125, 0.125, -0.125 },
	 {0.250, -0.250, -0.250, -0.125, 0.000, -0.125, -0.125, 0.250, 0.125, 0.000, 0.125, 0.250, 0.000, 0.000, 0.250, 0.125, -0.250, -0.125, -0.125, 0.250, 0.125, -0.125, 0.125, 0.125, 0.125, 0.250, 0.000, 0.125, 0.000, 0.250, 0.250, 0.000 },
	 {0.250, 0.000, 0.000, 0.000, -0.125, 0.000, -0.250, 0.125, 0.000, 0.125, 0.250, 0.125, 0.000, 0.000, 0.250, 0.000, -0.125, -0.125, 0.000, 0.125, 0.000, -0.125, 0.000, 0.125, 0.000, 0.125, 0.000, 0.000, 0.000, 0.250, 0.000, 0.000 },
	 {0.125, -0.125, 0.000, -0.125, 0.000, 0.125, 0.000, 0.000, 0.000, 0.125, 0.125, 0.000, -0.125, -0.125, 0.125, 0.000, 0.000, -0.250, 0.000, 0.250, 0.000, -0.250, 0.000, 0.125, 0.000, 0.125, 0.000, 0.000, 0.125, 0.000, 0.250, 0.000 },
	 {0.125, -0.125, 0.000, 0.000, 0.000, 0.250, 0.000, 0.000, 0.000, 0.125, 0.125, 0.125, 0.000, -0.125, 0.250, 0.000, -0.125, -0.250, 0.000, 0.250, 0.000, -0.125, 0.125, 0.125, -0.125, 0.250, 0.000, 0.000, 0.125, 0.000, 0.250, 0.125 },
	 {0.125, -0.125, -0.125, -0.125, 0.000, 0.000, 0.000, -0.250, 0.000, 0.000, 0.125, -0.125, 0.125, 0.000, 0.125, 0.250, 0.250, 0.000, 0.125, 0.125, 0.125, -0.250, 0.125, 0.000, -0.125, 0.125, 0.125, 0.000, 0.125, 0.250, 0.125, 0.000 },
	 {-0.125, -0.250, -0.125, 0.000, 0.125, 0.000, -0.125, 0.250, 0.125, -0.250, 0.000, -0.125, 0.125, -0.125, -0.250, 0.250, 0.250, -0.250, 0.000, 0.125, 0.000, -0.250, 0.125, 0.000, -0.250, 0.250, 0.125, -0.125, 0.250, 0.125, 0.125, 0.000 },
	 {0.250, -0.125, -0.250, 0.250, -0.125, -0.125, -0.125, 0.250, 0.125, 0.125, 0.250, -0.125, 0.125, -0.125, -0.500, 0.500, 0.125, -0.500, 0.125, 0.500, -0.250, -0.250, 0.250, 0.000, -0.500, 0.250, 0.250, -0.250, -0.125, -0.125, 0.250, 0.250 },
	 {0.500, 0.000, -0.250, 0.250, 0.250, 0.125, 0.000, 0.125, 0.000, 0.250, 0.500, 0.000, 0.500, -0.125, -0.500, 1.000, 0.000, -0.500, 0.250, 0.500, -0.250, -0.125, 0.250, 0.000, -0.250, 0.000, -0.125, -0.250, -0.125, 0.000, 0.500, 0.500 },
	 {0.500, 0.250, -0.125, 0.250, 0.250, 0.125, 0.000, -0.125, -0.125, 0.000, 0.500, 0.125, 0.500, 0.000, 0.000, 0.250, 0.125, -0.250, 0.000, 0.500, 0.000, -0.125, 0.000, 0.125, 0.000, 0.000, -0.125, 0.000, -0.125, 0.125, 0.250, 0.250 },
	 {0.250, 0.000, -0.125, -0.125, 0.000, 0.000, 0.000, 0.125, 0.000, 0.125, 0.125, 0.000, 0.125, 0.125, 0.000, 0.125, -0.125, 0.000, 0.125, 0.125, 0.125, 0.000, -0.125, 0.000, 0.125, 0.000, -0.125, 0.000, 0.000, 0.125, 0.125, 0.000 },
	 {-0.125, 0.000, 0.000, 0.000, 0.000, 0.000, 0.000, 0.000, 0.125, 0.125, 0.000, 0.000, 0.125, 0.000, 0.000, 0.125, 0.000, 0.000, 0.000, 0.000, 0.000, 0.000, 0.000, -0.125, 0.000, 0.000, -0.125, 0.000, 0.125, -0.125, 0.125, 0.000 },
	 {0.000, -0.125, 0.000, -0.125, 0.125, 0.000, 0.000, 0.000, 0.000, 0.125, -0.125, 0.250, -0.125, 0.000, 0.125, 0.250, 0.000, 0.125, 0.250, -0.125, 0.125, 0.000, 0.250, -0.125, 0.000, 0.250, 0.000, 0.250, 0.125, -0.125, 0.125, 0.125 },
	 {-0.125, -0.250, 0.000, 0.000, 0.250, -0.125, -0.250, 0.500, 0.125, 0.250, -0.250, 0.500, -0.250, 0.250, 0.250, 0.500, 0.125, -0.250, 0.250, -0.125, 0.000, 0.250, 0.500, -0.125, 0.000, 0.250, -0.125, 0.500, 0.250, 0.000, 0.500, 0.000 },
	 {0.125, -0.250, -0.125, 0.000, 0.125, -0.125, -0.250, 0.125, 0.125, 0.250, -0.125, 0.250, 0.125, 0.250, 0.125, 0.500, -0.125, 0.250, 0.250, 0.000, -0.125, 0.250, 0.250, -0.250, 0.125, 0.250, -0.250, 0.250, 0.250, 0.125, 0.250, 0.125 },
	 {0.000, 0.250, -0.250, 0.125, 0.250, -0.250, -0.250, 0.000, 0.000, 0.250, 0.000, 0.125, 0.250, 0.125, 0.000, 0.125, 0.250, 0.250, 0.125, 0.000, -0.125, 0.000, -0.125, 0.250, 0.250, 0.000, 0.000, 0.125, 0.250, 0.250, 0.000, -0.250 },
	 {-0.125, 0.000, 0.000, 0.125, 0.500, 0.000, -0.125, 0.125, 0.125, 0.125, 0.000, 0.125, 0.125, 0.125, 0.125, 0.125, 0.125, 0.125, 0.000, 0.000, 0.125, 0.000, 0.125, 0.125, 0.000, 0.125, -0.125, -0.125, 0.250, 0.250, 0.125, -0.250 },
	 {0.250, -0.125, -0.250, 0.000, 0.125, 0.000, -0.250, 0.000, -0.125, 0.000, 0.125, 0.125, 0.125, 0.000, 0.000, 0.125, 0.000, 0.000, -0.125, -0.125, 0.000, 0.125, 0.125, 0.000, 0.125, 0.250, 0.000, -0.125, 0.125, 0.250, 0.000, -0.125 },
	 {0.000, -0.125, 0.000, -0.125, 0.125, 0.000, -0.500, 0.000, 0.125, 0.000, -0.125, 0.125, 0.125, 0.000, 0.000, 0.125, -0.125, -0.250, 0.125, -0.125, 0.125, 0.250, 0.125, 0.000, 0.000, 0.250, 0.125, -0.250, 0.125, 0.125, 0.000, 0.000 },
	 {0.125, -0.125, -0.125, 0.000, 0.125, -0.125, -0.250, -0.125, 0.125, -0.125, -0.250, 0.000, 0.000, 0.000, 0.125, 0.250, -0.250, -0.125, 0.000, 0.000, 0.000, 0.250, 0.250, -0.125, 0.000, 0.000, -0.250, 0.000, 0.125, 0.125, 0.000, 0.000 },
	 {0.125, 0.000, 0.000, 0.000, 0.250, -0.125, -0.250, 0.125, 0.000, 0.000, -0.125, 0.000, 0.000, 0.125, 0.000, 0.000, -0.125, -0.250, -0.125, 0.000, 0.125, 0.250, 0.000, 0.000, 0.000, 0.000, -0.125, 0.000, 0.000, 0.125, 0.125, -0.125 },
	 {0.250, 0.000, 0.125, 0.000, 0.125, -0.125, 0.000, 0.250, 0.125, -0.250, -0.250, 0.125, 0.000, 0.125, 0.000, -0.125, -0.125, -0.500, 0.000, -0.125, 0.250, 0.250, -0.125, 0.000, -0.125, 0.125, -0.125, 0.000, 0.000, 0.125, 0.000, 0.000 },
	 {0.125, 0.000, 0.125, 0.000, 0.125, 0.000, 0.000, 0.125, 0.000, -0.125, 0.000, -0.250, -0.125, 0.000, 0.125, 0.000, 0.125, -0.500, -0.125, -0.125, 0.125, 0.125, 0.000, -0.250, -0.250, 0.250, -0.125, 0.000, 0.000, 0.125, 0.125, 0.125 },
	 {0.125, -0.125, -0.125, -0.125, 0.125, 0.000, 0.000, 0.000, 0.000, -0.125, -0.125, 0.000, 0.000, 0.125, 0.125, 0.000, 0.250, -0.125, 0.125, -0.125, 0.000, 0.250, -0.125, -0.125, -0.250, 0.125, 0.000, 0.125, -0.125, 0.125, 0.000, 0.000 },
	 {0.125, -0.125, 0.000, 0.000, 0.250, 0.125, 0.000, 0.000, -0.125, 0.125, -0.125, 0.125, 0.000, 0.125, -0.250, 0.000, 0.125, 0.000, 0.125, 0.000, -0.250, 0.125, -0.125, -0.125, -0.250, 0.250, 0.250, 0.000, 0.000, 0.250, -0.125, -0.250 },
	 {-0.125, 0.000, 0.125, -0.125, 0.125, 0.000, 0.000, 0.000, 0.000, 0.125, -0.250, 0.000, 0.000, -0.125, -0.500, -0.125, -0.125, 0.125, 0.125, -0.250, 0.000, 0.125, -0.125, -0.125, -0.125, 0.250, 0.250, 0.000, 0.000, 0.250, -0.250, -0.250 },
	 {0.000, 0.125, 0.000, -0.125, 0.000, -0.125, 0.000, -0.125, 0.000, 0.125, -0.125, 0.125, 0.125, -0.125, -0.250, 0.000, -0.250, 0.250, 0.000, -0.125, 0.125, 0.000, -0.125, 0.000, -0.125, 0.250, 0.250, 0.125, 0.000, 0.250, -0.125, -0.500 },
	 {0.125, 0.125, -0.125, -0.125, 0.000, -0.125, 0.000, 0.125, 0.000, 0.000, 0.125, 0.250, 0.125, 0.000, 0.250, 0.125, -0.250, 0.000, 0.000, -0.125, 0.125, 0.000, -0.125, 0.000, -0.125, 0.250, 0.125, 0.000, -0.250, 0.000, 0.000, -0.500 },
	 {0.125, 0.125, -0.125, -0.125, 0.000, -0.125, 0.000, 0.250, 0.000, 0.125, 0.125, 0.250, -0.250, 0.000, 0.125, 0.250, -0.125, 0.000, 0.000, -0.125, 0.125, 0.000, 0.000, 0.250, 0.125, 0.250, -0.125, 0.000, 0.000, 0.250, 0.000, -1.000 },
	 {0.000, 0.000, -0.125, -0.125, -0.125, 0.250, 0.125, 0.250, 0.125, 0.125, 0.125, 0.250, -0.125, -0.125, 0.125, 0.125, 0.125, -0.125, -0.125, -0.125, 0.000, 0.000, -0.125, 0.125, 0.000, 0.250, 0.000, 0.000, -0.125, 0.250, 0.000, -1.000 },
	 {0.000, 0.000, -0.125, -0.125, 0.000, 0.125, 0.000, 0.125, 0.125, 0.125, 0.125, 0.125, 0.000, 0.000, 0.125, 0.125, 0.250, -0.125, -0.125, 0.000, 0.000, 0.000, 0.000, 0.250, -0.125, 0.250, -0.125, 0.000, -0.125, 0.250, -0.125, -1.000 },
	 {0.000, -0.125, 0.000, 0.000, 0.000, 0.125, -0.125, 0.000, 0.125, 0.000, 0.000, 0.125, 0.000, -0.125, 0.000, 0.125, 0.125, -0.125, 0.000, -0.125, 0.000, -0.125, 0.125, 0.250, 0.000, 0.250, 0.000, 0.000, 0.000, 0.125, 0.125, -0.500 },
	 {0.000, 0.000, 0.125, -0.125, -0.125, 0.000, -0.125, 0.000, 0.000, 0.125, 0.000, 0.000, -0.125, -0.125, 0.125, 0.250, 0.250, -0.125, 0.000, 0.000, 0.125, -0.250, 0.000, 0.125, 0.000, 0.250, 0.250, -0.250, 0.250, 0.125, 0.250, -0.500 },
	 {0.000, -0.250, -0.250, -0.125, 0.000, 0.000, -0.250, -0.125, 0.125, 0.000, 0.000, 0.125, 0.125, -0.125, 0.000, 0.500, 0.125, 0.000, 0.125, 0.000, 0.125, -0.250, 0.000, 0.000, 0.125, 0.125, 0.125, 0.125, -0.125, 0.250, 0.000, -0.500 },
	 {-0.125, -0.250, 0.125, 0.000, 0.125, 0.000, 0.000, 0.125, 0.000, -0.125, 0.000, -0.125, 0.000, 0.125, -0.125, 0.250, 0.500, -0.500, 0.125, 0.250, 0.125, -0.250, 0.000, 0.000, -0.250, 0.250, 0.000, -0.125, 0.000, 0.250, 0.125, -0.500 },
	 {0.125, -0.125, -0.125, 0.250, 0.000, 0.000, 0.000, 0.250, 0.000, 0.250, 0.250, -0.125, -0.250, 0.000, -1.000, 0.500, 0.125, -1.000, 0.125, 0.500, -0.125, -0.250, 0.250, 0.000, -1.000, 0.500, 0.250, 0.000, 0.125, 0.125, 0.125, -0.250 },
	 {0.500, -0.125, 0.000, 0.250, 0.250, 0.125, 0.125, 0.125, 0.125, 0.500, 0.500, -0.125, 0.250, -0.125, -0.250, 1.000, 0.000, -0.500, 0.250, 0.500, -0.125, -0.125, 0.250, -0.125, -0.250, 0.000, 0.000, -0.125, -0.125, 0.125, 0.500, 0.000 },
	 {0.500, 0.000, 0.000, -0.125, 0.250, 0.000, 0.000, -0.125, -0.250, 0.250, 0.500, -0.250, 0.500, 0.000, 0.000, 0.500, -0.250, 0.000, 0.125, 0.500, 0.000, -0.125, -0.125, 0.000, 0.000, 0.125, 0.000, 0.000, 0.000, 0.125, 0.250, 0.125 },
	 {0.125, 0.000, 0.000, 0.000, 0.000, 0.000, 0.000, 0.000, 0.000, 0.125, 0.000, 0.000, 0.000, 0.000, 0.125, 0.125, 0.000, -0.125, 0.000, 0.250, 0.000, 0.000, 0.000, -0.125, 0.000, 0.125, 0.000, 0.000, 0.125, 0.000, 0.000, 0.000 },
	 {0.000, 0.000, 0.000, 0.000, 0.000, 0.000, 0.000, 0.000, 0.000, 0.000, -0.125, 0.000, 0.000, 0.000, 0.000, 0.125, 0.125, 0.125, 0.125, 0.000, 0.000, 0.000, 0.000, 0.000, 0.000, 0.000, 0.000, 0.000, 0.000, 0.125, 0.000, 0.000 },
	 {-0.125, -0.125, -0.125, -0.250, 0.000, 0.000, 0.000, 0.250, 0.000, 0.000, -0.125, 0.250, 0.000, 0.125, 0.125, 0.250, 0.000, 0.125, 0.250, 0.000, 0.000, 0.125, 0.250, -0.125, 0.000, 0.125, 0.000, 0.250, 0.125, 0.000, 0.250, 0.000 },
	 {0.000, -0.250, -0.125, -0.125, 0.250, -0.125, -0.125, 0.250, 0.000, 0.125, -0.250, 0.500, -0.250, 0.125, 0.250, 0.500, 0.000, 0.000, 0.500, -0.125, -0.125, 0.125, 0.250, -0.250, 0.000, 0.250, 0.000, 0.250, 0.250, 0.000, 0.500, 0.000 },
	 {0.125, -0.125, -0.125, -0.125, 0.125, -0.250, 0.000, 0.250, 0.000, 0.125, 0.000, 0.250, 0.125, 0.250, 0.125, 0.250, 0.250, 0.250, 0.500, 0.000, 0.000, 0.125, 0.125, -0.125, -0.125, 0.125, -0.125, 0.250, 0.125, 0.250, 0.125, 0.000 },
	 {0.000, 0.000, -0.250, 0.000, 0.125, 0.000, -0.125, 0.125, 0.000, 0.250, 0.125, 0.125, 0.250, 0.000, -0.125, 0.125, 0.250, 0.125, 0.250, 0.000, 0.000, -0.125, 0.000, 0.000, 0.000, 0.125, 0.000, 0.125, 0.250, 0.125, 0.125, 0.125 },
	 {0.000, 0.125, 0.000, 0.000, 0.250, 0.125, -0.125, 0.125, 0.125, 0.000, 0.125, 0.250, 0.125, 0.250, 0.000, 0.000, 0.000, 0.000, 0.000, 0.000, 0.125, 0.000, 0.125, 0.250, -0.250, 0.125, 0.000, 0.125, 0.250, 0.250, 0.000, 0.125 },
	 {0.250, 0.000, 0.000, 0.000, 0.250, 0.125, -0.125, 0.000, -0.125, -0.125, 0.125, 0.250, 0.125, 0.250, -0.250, 0.000, 0.000, -0.125, 0.000, 0.000, 0.125, 0.250, 0.125, 0.000, -0.250, 0.125, 0.000, 0.000, -0.125, 0.125, -0.125, 0.125 },
	 {-0.125, -0.125, 0.000, 0.000, 0.125, -0.125, -0.125, 0.000, -0.125, 0.125, 0.000, -0.125, 0.000, 0.000, 0.000, 0.000, 0.000, -0.250, 0.125, 0.125, 0.125, 0.125, 0.125, 0.000, -0.500, 0.125, 0.125, 0.000, 0.125, 0.125, 0.000, 0.125 },
	 {0.125, -0.125, 0.000, 0.125, 0.250, 0.000, -0.125, 0.000, -0.125, -0.125, 0.125, 0.000, -0.125, 0.000, 0.250, 0.125, -0.250, -0.250, 0.000, 0.125, 0.125, 0.125, 0.250, 0.000, -0.500, 0.125, 0.000, 0.125, 0.000, 0.000, 0.000, 0.250 },
	 {0.000, -0.250, 0.000, 0.000, 0.125, 0.000, 0.000, 0.250, 0.000, -0.125, 0.000, 0.000, -0.250, 0.125, 0.000, 0.000, -0.250, -0.250, 0.000, -0.125, 0.250, 0.125, 0.000, 0.000, -1.000, 0.125, -0.125, 0.000, 0.125, 0.125, 0.125, 0.125 },
	 {0.125, 0.125, -0.125, 0.000, 0.125, -0.125, -0.125, 0.125, 0.000, -0.250, -0.125, 0.125, -0.250, 0.000, 0.000, 0.000, -0.125, -0.250, 0.000, 0.000, 0.125, 0.125, 0.125, -0.250, -1.000, 0.125, -0.250, 0.000, 0.125, 0.000, 0.000, 0.000 },
	 {0.125, -0.125, -0.125, -0.125, 0.250, -0.125, 0.000, 0.250, 0.000, -0.250, -0.125, 0.125, -0.250, 0.125, 0.000, 0.000, 0.125, -0.125, 0.125, -0.125, 0.000, 0.125, 0.000, -0.250, -1.000, 0.125, 0.000, 0.000, 0.000, 0.125, 0.250, 0.000 },
	 {0.000, -0.250, -0.125, 0.000, 0.000, 0.125, 0.000, 0.125, 0.000, -0.125, -0.125, -0.125, -0.125, 0.000, -0.125, 0.000, 0.125, 0.125, 0.125, -0.125, -0.125, 0.000, -0.125, -0.250, -0.500, 0.125, 0.125, 0.000, -0.125, 0.125, 0.125, 0.000 },
	 {-0.125, 0.000, 0.125, -0.125, 0.000, 0.125, 0.000, -0.125, -0.125, 0.125, -0.500, 0.250, 0.000, 0.000, -0.500, -0.250, 0.000, 0.250, 0.250, -0.125, -0.250, 0.000, -0.125, -0.250, -0.500, 0.250, 0.125, 0.000, 0.000, 0.250, -0.125, -0.125 },
	 {0.000, 0.000, 0.125, -0.125, -0.125, -0.250, 0.000, -0.250, -0.125, 0.250, -0.500, 0.250, -0.125, 0.000, -0.500, -0.125, 0.000, 0.250, 0.000, -0.125, -0.125, 0.000, -0.250, -0.125, -0.250, 0.250, 0.250, -0.250, 0.000, 0.250, -0.125, -0.250 },
	 {0.000, 0.125, 0.125, -0.250, -0.250, -0.250, 0.125, -0.250, 0.125, 0.125, -0.250, 0.125, -0.125, -0.125, 0.000, 0.000, -0.250, 0.000, -0.125, -0.250, 0.250, 0.000, -0.125, -0.250, -0.125, 0.125, 0.250, -0.250, 0.125, 0.000, 0.000, -0.125 },
	 {0.000, 0.125, 0.000, 0.000, -0.125, -0.250, 0.000, 0.000, 0.000, 0.000, 0.000, 0.250, -0.125, 0.000, 0.250, 0.000, -0.125, 0.000, 0.000, 0.000, 0.250, 0.000, -0.125, 0.000, 0.000, 0.250, 0.125, -0.250, -0.125, 0.000, 0.000, -0.250 },
	 {0.000, 0.125, 0.000, 0.000, 0.000, 0.000, 0.000, 0.500, 0.000, -0.125, 0.000, 0.125, -0.125, -0.125, 0.250, 0.000, -0.125, 0.000, 0.000, -0.125, 0.125, 0.000, -0.250, 0.125, 0.000, 0.250, 0.000, -0.125, -0.125, 0.250, 0.000, -0.500 },
	 {0.000, 0.250, 0.000, -0.125, 0.000, 0.000, 0.000, 0.250, 0.000, 0.000, 0.125, 0.125, 0.000, -0.125, 0.000, 0.125, 0.250, -0.125, 0.000, 0.000, -0.125, -0.125, -0.125, 0.125, 0.125, 0.125, -0.250, 0.125, 0.000, 0.250, 0.000, -1.000 },
	 {-0.125, 0.250, -0.125, -0.125, -0.125, 0.125, -0.125, 0.125, 0.000, 0.125, 0.000, 0.125, -0.125, -0.125, 0.125, 0.125, 0.125, -0.125, 0.000, -0.125, -0.125, -0.125, 0.000, 0.125, 0.000, 0.000, -0.250, 0.000, 0.000, 0.250, 0.000, -1.000 },
	 {0.125, 0.000, 0.000, -0.125, 0.000, 0.000, -0.250, 0.000, -0.125, 0.125, -0.125, 0.125, -0.125, 0.000, 0.125, 0.250, 0.000, -0.250, 0.125, 0.000, -0.250, 0.000, 0.125, 0.250, 0.000, 0.000, -0.250, 0.000, -0.125, 0.250, -0.250, -1.000 },
	 {-0.125, 0.000, 0.125, 0.000, 0.000, -0.125, -0.125, 0.125, 0.000, 0.125, 0.000, 0.125, 0.000, -0.125, -0.125, 0.125, 0.250, -0.250, 0.000, 0.000, 0.000, 0.000, 0.125, 0.000, 0.000, 0.250, 0.125, 0.000, -0.125, 0.125, 0.000, -1.000 },
	 {-0.125, -0.125, -0.125, 0.000, 0.000, -0.125, -0.250, 0.125, 0.000, 0.000, -0.125, 0.125, 0.000, -0.125, -0.125, 0.250, 0.250, -0.250, -0.125, 0.000, 0.000, 0.000, -0.125, 0.250, 0.000, 0.000, 0.000, 0.000, 0.000, 0.250, -0.250, -1.000 },
	 {-0.125, -0.125, -0.125, 0.000, 0.000, -0.125, 0.125, 0.000, -0.125, 0.125, 0.125, 0.000, -0.250, 0.125, -0.500, 0.250, 0.500, -0.250, 0.000, 0.125, 0.250, 0.000, -0.125, 0.125, -0.125, 0.250, 0.250, 0.000, 0.125, 0.250, -0.125, -1.000 },
	 {0.250, -0.500, 0.000, 0.125, 0.000, 0.000, 0.000, 0.250, 0.000, 0.250, 0.500, -0.125, -0.125, -0.125, -0.500, 1.000, -0.125, -0.500, 0.250, 0.500, 0.000, -0.125, 0.125, -0.125, -0.500, 0.500, 0.500, -0.125, 0.125, -0.250, -0.125, -0.500 },
	 {0.500, -0.250, 0.000, -0.125, 0.250, -0.125, 0.125, 0.000, -0.125, 0.500, 0.500, 0.000, 0.250, -0.250, 0.000, 1.000, -0.125, -0.250, 0.250, 0.500, 0.000, 0.125, 0.250, -0.125, 0.000, 0.250, 0.000, 0.000, 0.000, 0.000, 0.125, -0.125 },
	 {0.250, -0.250, 0.000, -0.250, 0.000, -0.125, 0.125, 0.125, -0.125, 0.500, 0.500, -0.250, 0.125, -0.250, 0.000, 0.500, -0.250, -0.125, 0.250, 0.500, 0.125, -0.250, 0.125, 0.000, 0.125, 0.125, 0.125, -0.125, -0.125, 0.125, 0.250, 0.000 },
	 {0.000, 0.000, 0.000, 0.000, 0.000, 0.000, 0.000, 0.000, 0.000, 0.000, 0.000, -0.125, -0.125, 0.000, -0.125, 0.000, 0.000, 0.000, 0.125, 0.125, 0.000, -0.125, -0.125, 0.125, 0.000, 0.000, 0.000, -0.125, 0.125, 0.125, 0.125, 0.000 },
	 {0.000, 0.000, -0.125, 0.000, 0.000, 0.000, 0.000, 0.000, 0.125, 0.000, 0.000, 0.125, 0.000, 0.000, 0.000, 0.125, 0.000, 0.000, 0.000, -0.125, -0.125, 0.000, 0.000, -0.125, 0.000, 0.000, 0.000, 0.000, 0.125, 0.000, 0.125, 0.000 },
	 {-0.125, -0.125, -0.125, 0.000, 0.125, 0.000, 0.000, 0.250, 0.000, 0.000, -0.125, 0.250, -0.125, 0.125, 0.250, 0.250, 0.125, 0.125, 0.250, -0.125, 0.000, 0.000, 0.125, -0.125, 0.000, 0.125, 0.125, 0.250, 0.250, 0.000, 0.250, 0.000 },
	 {-0.125, -0.250, 0.000, -0.125, 0.250, -0.125, -0.125, 0.125, 0.000, 0.125, -0.250, 0.500, -0.250, 0.250, 0.250, 0.500, 0.125, 0.125, 0.250, -0.250, 0.000, 0.125, 0.250, -0.250, 0.000, 0.500, 0.000, 0.500, 0.250, 0.000, 0.500, 0.000 },
	 {0.125, -0.125, -0.125, -0.125, 0.125, -0.125, -0.125, 0.125, 0.000, 0.250, -0.125, 0.250, 0.000, 0.125, 0.125, 0.250, 0.250, 0.250, 0.500, -0.250, -0.125, 0.125, 0.125, -0.125, 0.000, 0.000, 0.000, 0.250, 0.125, 0.250, 0.250, -0.125 },
	 {0.125, -0.125, -0.125, -0.125, 0.000, 0.000, -0.250, 0.125, 0.000, 0.125, 0.125, 0.250, 0.125, 0.125, -0.250, 0.125, 0.000, 0.125, 0.250, 0.125, 0.125, 0.000, -0.125, 0.000, -0.500, 0.000, 0.000, 0.125, 0.125, 0.250, -0.125, 0.125 },
	 {0.000, 0.125, 0.125, 0.250, 0.125, 0.125, -0.125, 0.125, 0.125, 0.125, 0.250, 0.125, -0.125, 0.250, -0.125, 0.000, 0.125, 0.000, -0.125, -0.125, 0.125, 0.000, 0.125, 0.250, -0.500, -0.125, 0.000, 0.125, 0.125, 0.125, 0.125, 0.125 },
	 {0.125, -0.125, -0.125, 0.125, 0.250, 0.000, -0.125, 0.125, 0.000, 0.125, 0.125, 0.125, -0.125, 0.000, -0.250, 0.125, 0.000, -0.250, 0.000, 0.000, 0.000, 0.125, 0.125, 0.125, -0.500, 0.000, 0.000, 0.000, 0.125, 0.000, 0.250, 0.125 },
	 {0.000, 0.000, -0.125, 0.000, 0.250, -0.125, -0.125, 0.000, -0.125, 0.000, 0.125, 0.125, -0.250, 0.125, -0.125, 0.000, 0.000, -0.125, 0.000, 0.000, 0.125, 0.250, 0.250, 0.000, -1.000, 0.000, 0.000, 0.125, 0.125, 0.125, 0.250, 0.000 },
	 {0.000, -0.125, -0.125, 0.125, 0.125, -0.125, -0.125, 0.000, 0.000, -0.250, 0.125, 0.000, -0.250, 0.000, 0.000, 0.250, -0.125, 0.000, 0.000, 0.000, 0.125, 0.250, 0.125, 0.000, -1.000, 0.125, 0.000, 0.125, 0.000, -0.125, 0.000, 0.000 },
	 {0.000, -0.125, -0.125, 0.125, 0.250, 0.000, -0.250, 0.000, 0.125, -0.125, 0.125, 0.000, -0.125, 0.125, -0.125, 0.250, -0.125, 0.000, 0.000, 0.000, 0.000, -0.125, 0.250, -0.125, -1.000, 0.000, -0.125, 0.000, 0.000, 0.000, 0.000, 0.000 },
	 {-0.125, -0.125, -0.125, 0.000, -0.125, 0.000, -0.125, 0.125, 0.125, -0.250, 0.000, 0.125, -0.125, 0.000, 0.000, 0.000, 0.000, 0.125, 0.000, 0.000, -0.125, -0.125, 0.000, -0.250, -1.000, 0.000, 0.000, 0.000, 0.125, 0.000, 0.125, 0.000 },
	 {-0.125, -0.125, 0.000, -0.125, 0.000, -0.125, 0.000, 0.125, 0.000, -0.250, -0.125, 0.125, 0.125, 0.125, -0.250, 0.125, 0.125, 0.125, 0.000, -0.125, -0.250, 0.000, -0.125, -0.125, -0.500, 0.125, 0.000, 0.000, 0.000, 0.250, 0.125, 0.000 },
	 {0.000, 0.000, -0.250, 0.125, -0.250, 0.000, 0.125, -0.125, 0.000, 0.000, -0.125, 0.125, 0.125, 0.125, -0.250, -0.125, 0.000, 0.125, 0.125, -0.125, -0.250, -0.125, 0.125, -0.250, -0.500, 0.000, 0.000, 0.000, 0.000, 0.125, 0.125, 0.000 },
	 {0.000, 0.125, 0.000, 0.000, -0.500, -0.125, 0.125, -0.250, -0.250, 0.125, -0.500, 0.250, 0.250, 0.000, -0.500, -0.125, -0.250, 0.250, -0.125, -0.125, -0.250, -0.250, 0.000, -0.250, -0.250, 0.000, 0.125, -0.125, 0.000, 0.125, -0.125, 0.000 },
	 {0.125, 0.125, 0.125, 0.000, -0.500, -0.500, 0.000, -0.250, 0.000, 0.125, -0.250, 0.250, 0.000, -0.125, -0.250, 0.000, -0.250, 0.250, -0.125, -0.125, 0.000, 0.125, 0.125, -0.250, 0.000, 0.000, 0.250, -0.125, 0.000, 0.125, -0.250, -0.125 },
	 {0.125, 0.125, 0.000, -0.125, -0.250, -0.250, -0.125, -0.500, 0.250, 0.000, -0.250, 0.125, 0.000, -0.125, 0.125, 0.125, -0.250, 0.125, -0.125, -0.125, 0.125, 0.125, 0.000, -0.250, 0.000, -0.125, 0.125, -0.250, 0.125, 0.125, -0.125, 0.000 },
	 {0.250, 0.250, -0.125, 0.000, -0.125, -0.125, -0.125, -0.125, 0.125, -0.125, -0.125, 0.000, -0.125, -0.125, 0.250, 0.000, -0.250, 0.000, 0.000, -0.125, 0.000, 0.000, 0.000, -0.125, 0.000, 0.000, 0.000, -0.125, 0.000, -0.125, 0.125, 0.125 },
	 {0.250, 0.125, -0.125, 0.000, 0.000, 0.000, 0.000, 0.250, 0.000, 0.125, 0.000, 0.125, 0.000, -0.125, 0.250, 0.000, -0.250, -0.250, 0.000, -0.250, -0.125, 0.125, -0.250, -0.125, 0.000, 0.000, -0.125, 0.000, -0.125, 0.125, 0.000, 0.125 },
	 {0.000, 0.250, -0.125, -0.125, 0.000, 0.000, 0.000, 0.250, 0.125, 0.000, 0.000, 0.125, 0.125, 0.000, 0.125, 0.125, -0.125, -0.125, 0.000, -0.125, -0.125, -0.125, 0.000, -0.125, 0.000, 0.000, -0.250, 0.000, -0.125, 0.125, 0.000, 0.000 },
	 {-0.125, 0.125, 0.125, 0.000, -0.125, 0.125, 0.125, 0.000, 0.000, 0.000, 0.125, 0.000, -0.125, 0.000, 0.000, 0.000, 0.000, 0.000, 0.000, -0.125, -0.250, -0.125, 0.000, 0.000, -0.125, -0.125, -0.250, 0.000, 0.000, 0.125, -0.125, -0.250 },
	 {-0.125, 0.125, 0.000, -0.125, 0.125, 0.125, -0.125, 0.000, -0.125, -0.125, 0.000, 0.250, -0.125, 0.000, 0.000, 0.000, 0.000, -0.250, 0.000, -0.125, -0.250, 0.125, 0.000, 0.125, 0.000, 0.000, -0.250, 0.125, -0.125, 0.250, -0.125, -0.500 },
	 {-0.250, 0.000, 0.000, -0.125, 0.000, 0.125, -0.125, 0.000, -0.125, 0.000, 0.000, 0.000, -0.125, -0.125, -0.125, 0.000, 0.125, -0.250, -0.125, -0.125, -0.125, 0.000, 0.000, 0.125, 0.000, 0.125, 0.125, 0.000, 0.125, 0.125, -0.125, -0.500 },
	 {-0.125, -0.125, 0.000, 0.125, 0.000, -0.125, -0.125, 0.125, 0.000, 0.125, 0.000, 0.250, -0.250, 0.000, -0.250, 0.125, 0.125, -0.250, 0.000, -0.125, 0.000, 0.125, 0.125, 0.125, -0.125, 0.125, 0.250, 0.125, 0.125, 0.250, -0.250, -1.000 },
	 {0.000, -0.250, 0.000, 0.125, 0.000, 0.125, -0.125, 0.000, -0.125, 0.125, 0.250, 0.000, -0.500, 0.125, -0.500, 0.250, 0.125, -0.250, 0.000, 0.000, 0.125, 0.000, 0.125, 0.250, -0.250, 0.250, 0.250, 0.125, 0.125, 0.000, -0.250, -1.000 },
	 {0.125, -0.500, 0.000, 0.000, 0.000, -0.125, 0.125, 0.250, -0.125, 0.125, 0.500, -0.125, -0.500, 0.125, -0.250, 0.500, 0.125, -0.250, 0.125, 0.125, 0.250, -0.250, 0.250, 0.250, -0.125, 0.500, 0.500, 0.000, 0.125, -0.125, -0.500, -0.500 },
	 {0.250, -0.500, -0.125, -0.250, 0.250, 0.125, 0.125, 0.000, 0.000, 0.250, 0.500, -0.125, 0.125, -0.125, -0.125, 0.500, 0.000, 0.125, 0.125, 0.250, 0.000, -0.125, 0.250, -0.250, 0.125, 0.250, -0.125, 0.000, -0.125, 0.000, 0.000, -0.250 },
	 {0.250, -0.250, -0.125, -0.125, 0.000, -0.125, -0.125, 0.125, 0.000, 0.250, 0.500, -0.250, 0.000, -0.125, 0.125, 0.500, -0.250, 0.000, 0.250, 0.250, -0.125, -0.125, 0.125, -0.125, 0.000, 0.250, -0.125, -0.125, 0.000, 0.125, 0.000, 0.000 },
	 {0.000, 0.125, 0.000, 0.000, 0.000, 0.125, 0.000, 0.125, 0.000, 0.000, 0.000, 0.000, 0.000, 0.000, 0.000, 0.125, -0.125, 0.000, 0.000, -0.125, 0.125, 0.000, 0.000, 0.000, 0.125, 0.000, 0.125, 0.000, 0.125, 0.125, 0.125, 0.125 },
	 {0.000, 0.000, 0.000, 0.000, 0.000, 0.000, 0.000, 0.000, 0.000, 0.000, 0.000, 0.000, 0.000, 0.000, 0.000, 0.000, 0.000, 0.000, 0.000, -0.125, 0.000, 0.000, 0.000, -0.125, -0.125, 0.125, 0.125, 0.000, 0.125, 0.000, 0.000, -0.125 },
	 {0.000, -0.125, -0.125, 0.000, 0.125, -0.125, 0.000, 0.250, 0.000, 0.000, -0.125, 0.250, 0.000, 0.000, 0.125, 0.125, 0.000, 0.000, 0.250, 0.000, -0.125, 0.125, 0.250, -0.125, 0.000, 0.125, -0.125, 0.125, 0.125, 0.000, 0.125, 0.000 },
	 {0.000, -0.250, -0.125, -0.250, 0.125, -0.125, -0.125, 0.125, -0.125, 0.125, -0.500, 0.500, -0.250, 0.125, 0.125, 0.250, 0.125, 0.250, 0.500, -0.250, 0.125, 0.000, 0.250, -0.125, 0.000, 0.250, 0.125, 0.250, 0.250, 0.000, 0.500, 0.000 },
	 {0.125, -0.125, -0.125, -0.125, 0.250, 0.000, 0.000, 0.125, 0.000, 0.250, 0.000, 0.125, 0.000, 0.000, 0.000, 0.250, 0.125, 0.000, 0.250, -0.125, 0.000, 0.000, 0.250, 0.000, -0.250, -0.125, 0.000, 0.250, 0.250, 0.125, 0.125, 0.125 },
	 {0.000, -0.125, -0.250, -0.125, -0.125, 0.250, 0.000, 0.000, -0.125, 0.125, -0.125, 0.500, -0.125, 0.125, -0.250, 0.125, -0.125, -0.125, 0.125, 0.000, 0.000, 0.250, 0.000, 0.125, -0.500, -0.125, -0.125, 0.125, 0.250, 0.250, 0.000, 0.250 },
	 {0.000, -0.125, -0.125, 0.000, 0.125, 0.000, 0.125, 0.000, 0.000, 0.125, 0.125, 0.250, 0.000, 0.125, -0.125, 0.000, 0.000, 0.000, 0.000, 0.125, 0.125, 0.000, 0.125, 0.125, -0.500, -0.125, 0.000, 0.000, 0.250, 0.125, 0.000, 0.000 },
	 {0.000, -0.125, -0.125, 0.000, 0.000, 0.125, 0.000, 0.125, 0.125, 0.000, 0.125, 0.125, 0.000, 0.125, -0.250, 0.000, 0.000, -0.125, 0.000, -0.125, 0.000, 0.000, 0.250, 0.125, -1.000, 0.125, 0.000, 0.000, 0.125, -0.125, 0.125, 0.000 },
	 {-0.125, 0.000, -0.125, 0.125, 0.000, -0.125, -0.125, 0.125, 0.000, -0.125, 0.250, 0.000, 0.125, 0.000, -0.125, 0.000, -0.125, 0.125, 0.000, 0.000, 0.000, 0.125, 0.125, -0.125, -1.000, -0.125, 0.000, 0.000, 0.000, -0.125, 0.000, 0.000 },
	 {-0.250, -0.250, 0.000, 0.000, 0.000, 0.000, 0.000, 0.125, 0.125, -0.125, 0.125, 0.125, 0.000, 0.125, -0.250, 0.125, 0.125, 0.250, 0.000, -0.125, 0.000, 0.000, 0.250, -0.125, -1.000, -0.125, 0.000, 0.000, 0.125, 0.000, 0.125, 0.125 },
	 {-0.250, -0.125, -0.125, 0.000, -0.250, 0.000, -0.125, 0.125, 0.000, -0.250, 0.125, 0.000, 0.000, 0.000, -0.250, 0.125, 0.000, 0.125, -0.125, 0.125, 0.000, -0.125, 0.250, 0.000, -0.250, -0.125, -0.125, 0.000, 0.000, 0.125, 0.000, -0.125 },
	 {-0.250, -0.250, 0.000, 0.000, -0.500, 0.000, 0.000, 0.125, 0.250, -0.125, 0.000, 0.000, 0.125, -0.125, -0.250, 0.125, 0.125, 0.125, 0.000, 0.000, -0.250, -0.125, 0.000, -0.250, -0.125, 0.000, -0.125, 0.000, -0.125, 0.125, 0.125, -0.125 },
	 {-0.250, -0.125, 0.125, 0.125, -0.500, 0.000, 0.125, 0.125, 0.125, 0.000, 0.125, 0.000, 0.125, -0.250, -0.125, 0.000, 0.125, 0.125, 0.000, 0.000, -0.250, -0.250, 0.000, -0.250, 0.000, 0.000, 0.000, -0.125, 0.000, -0.125, 0.125, 0.000 },
	 {-0.125, 0.000, -0.125, 0.125, -0.500, 0.000, 0.250, 0.000, 0.000, 0.250, 0.125, -0.250, 0.250, -0.250, -0.125, 0.000, 0.125, 0.000, 0.000, -0.125, -0.250, -0.250, -0.250, -0.250, 0.000, -0.125, 0.000, -0.250, 0.000, 0.125, 0.125, 0.000 },
	 {0.125, 0.125, 0.000, 0.250, -0.500, -0.250, 0.250, -0.125, -0.125, 0.250, 0.125, -0.125, 0.125, -0.250, -0.250, -0.125, -0.125, 0.250, -0.250, 0.000, -0.250, -0.125, 0.125, -0.125, 0.000, -0.250, 0.125, -0.250, -0.125, 0.125, -0.125, 0.000 },
	 {0.250, 0.250, 0.125, 0.000, -0.250, -0.500, 0.125, -0.500, 0.125, 0.250, -0.125, 0.000, 0.125, -0.250, -0.125, 0.000, -0.250, 0.250, -0.125, 0.000, 0.000, 0.125, -0.125, -0.250, 0.125, -0.500, 0.125, -0.250, 0.000, 0.000, -0.250, 0.000 },
	 {0.250, 0.250, 0.000, 0.000, 0.000, -0.250, 0.000, -0.500, 0.250, 0.125, -0.125, 0.250, 0.000, -0.125, 0.250, 0.125, -0.250, 0.000, -0.125, 0.000, 0.125, 0.250, 0.125, -0.250, 0.000, -0.250, 0.125, 0.000, 0.125, 0.000, -0.125, 0.000 },
	 {0.125, 0.250, -0.250, 0.125, 0.000, -0.250, 0.000, -0.125, 0.250, 0.000, -0.250, 0.125, 0.000, -0.125, 0.125, 0.000, -0.250, -0.125, 0.000, -0.125, 0.000, 0.000, 0.000, -0.125, 0.000, -0.125, 0.125, -0.125, 0.125, -0.125, 0.000, 0.000 },
	 {0.125, 0.500, -0.250, 0.125, 0.000, -0.125, -0.125, 0.125, 0.125, 0.000, -0.125, 0.125, 0.000, -0.125, 0.125, -0.125, -0.125, -0.125, -0.125, -0.125, -0.125, 0.000, -0.250, 0.000, -0.125, -0.250, -0.250, 0.000, -0.125, 0.250, -0.125, 0.000 },
	 {-0.125, 0.250, -0.250, 0.000, -0.125, -0.125, 0.125, 0.000, 0.125, 0.000, -0.125, 0.125, 0.000, -0.125, 0.000, -0.125, -0.250, -0.250, -0.125, 0.000, -0.125, 0.125, -0.250, -0.125, -0.125, -0.125, -0.250, -0.125, 0.000, 0.250, 0.000, 0.000 },
	 {0.000, 0.125, -0.250, 0.000, 0.125, 0.000, 0.125, 0.000, 0.125, -0.125, 0.250, 0.000, -0.125, 0.125, 0.000, 0.000, 0.000, -0.125, -0.125, -0.125, -0.125, 0.125, -0.250, 0.125, 0.000, 0.000, -0.250, -0.125, 0.125, 0.250, -0.125, 0.125 },
	 {-0.125, 0.000, -0.125, 0.000, 0.000, -0.125, -0.125, 0.000, 0.000, -0.250, 0.125, 0.000, -0.125, 0.125, -0.125, 0.000, 0.000, -0.125, -0.125, -0.125, -0.250, 0.000, -0.125, 0.250, -0.125, 0.000, -0.250, 0.000, -0.125, 0.125, 0.125, 0.125 },
	 {-0.250, -0.250, 0.000, 0.125, 0.000, 0.000, -0.250, 0.000, 0.000, -0.250, 0.125, 0.000, 0.000, 0.000, 0.000, 0.000, 0.000, 0.000, 0.000, 0.000, -0.250, -0.125, -0.250, 0.250, -0.125, 0.000, 0.125, 0.000, -0.125, 0.000, -0.125, -0.125 },
	 {-0.125, -0.125, 0.125, 0.125, 0.000, 0.125, -0.250, 0.125, 0.000, -0.125, 0.000, 0.125, -0.250, 0.000, -0.250, 0.000, 0.250, -0.250, 0.125, -0.125, 0.000, 0.250, 0.125, 0.250, -0.250, 0.125, 0.250, 0.000, 0.125, 0.000, 0.000, -0.500 },
	 {-0.125, 0.000, 0.000, 0.500, -0.125, 0.125, -0.250, 0.000, -0.125, -0.250, 0.250, 0.125, -0.250, 0.250, -0.250, 0.000, 0.125, -0.125, 0.250, -0.125, 0.000, 0.125, 0.250, 0.250, -0.125, 0.125, 0.250, 0.125, -0.125, -0.250, -0.125, -0.500 },
	 {-0.125, -0.125, 0.250, 0.250, 0.125, 0.125, -0.250, 0.250, 0.000, -0.250, 0.500, -0.250, -0.500, 0.250, 0.000, -0.125, 0.500, 0.000, 0.125, 0.125, 0.125, -0.500, 0.125, 0.500, 0.000, 0.500, 0.250, 0.000, 0.000, -0.500, -0.500, -0.500 },
	 {-0.125, -0.250, -0.125, 0.125, 0.250, -0.125, 0.125, -0.125, 0.000, -0.125, 0.500, -0.125, 0.000, 0.125, 0.250, 0.125, 0.250, 0.250, -0.125, -0.125, 0.000, 0.000, 0.000, 0.000, 0.250, 0.250, -0.125, 0.125, 0.125, 0.000, -0.125, -0.250 },
	 {0.000, -0.250, -0.125, 0.000, 0.125, -0.250, 0.000, 0.000, -0.250, 0.125, 0.250, 0.000, 0.000, 0.125, 0.000, 0.125, -0.125, 0.250, 0.000, 0.000, 0.125, 0.000, -0.125, 0.125, 0.000, 0.250, -0.125, -0.125, 0.000, 0.125, 0.000, 0.125 },
	 {0.000, -0.125, 0.000, 0.000, 0.125, -0.125, 0.000, 0.000, 0.000, 0.125, 0.125, 0.000, 0.000, 0.125, 0.000, 0.000, -0.125, 0.125, 0.000, 0.000, 0.000, 0.125, -0.125, 0.125, 0.000, -0.125, 0.000, 0.125, 0.125, 0.125, -0.125, 0.000 },
	 {0.000, 0.000, 0.000, 0.000, -0.125, 0.125, -0.125, 0.000, 0.000, 0.125, 0.125, 0.000, 0.125, 0.000, 0.000, -0.125, 0.000, 0.000, -0.125, 0.000, 0.000, 0.000, 0.000, 0.000, 0.125, 0.125, 0.000, 0.000, 0.000, 0.000, 0.000, 0.000 },
	 {0.000, 0.000, -0.125, -0.125, 0.125, 0.000, -0.125, 0.250, 0.000, 0.125, -0.125, 0.125, 0.000, 0.000, 0.125, 0.125, 0.000, 0.000, 0.000, -0.125, -0.125, 0.000, 0.125, 0.000, 0.000, 0.125, 0.000, 0.000, 0.125, 0.000, 0.250, 0.000 },
	 {0.000, -0.125, 0.125, 0.000, 0.250, -0.250, 0.000, 0.250, 0.000, -0.125, -0.125, 0.250, -0.125, 0.125, 0.125, 0.250, 0.125, 0.125, 0.125, -0.250, 0.125, 0.000, 0.250, -0.250, -0.125, 0.250, 0.000, 0.125, 0.250, -0.125, 0.250, 0.125 },
	 {0.250, -0.250, 0.000, -0.125, 0.125, 0.000, 0.000, 0.125, 0.125, 0.250, 0.000, 0.125, -0.125, -0.250, 0.000, 0.250, 0.000, 0.125, 0.125, -0.125, 0.000, -0.125, 0.125, -0.125, -0.250, -0.125, -0.125, 0.125, 0.250, 0.000, 0.125, 0.000 },
	 {0.000, 0.000, -0.125, -0.125, -0.250, 0.000, 0.250, 0.125, 0.000, 0.000, 0.125, 0.500, 0.000, 0.000, -0.250, 0.000, -0.250, 0.000, 0.000, 0.125, -0.125, 0.250, 0.000, 0.250, -0.500, -0.500, 0.000, 0.000, 0.125, 0.125, 0.000, 0.125 },
	 {0.000, -0.125, 0.000, -0.125, -0.250, 0.125, 0.125, 0.000, 0.000, 0.125, 0.250, 0.250, 0.000, 0.000, -0.250, 0.250, 0.000, 0.000, 0.125, 0.125, 0.125, 0.125, 0.125, 0.125, -0.500, -0.125, -0.125, -0.125, 0.125, 0.000, 0.125, 0.125 },
	 {-0.250, 0.000, 0.000, 0.125, -0.500, 0.000, 0.000, 0.125, 0.125, -0.125, 0.125, 0.125, 0.125, 0.125, -0.250, 0.000, 0.000, 0.125, 0.125, -0.125, -0.125, 0.000, 0.000, 0.250, -0.500, -0.125, 0.000, 0.000, 0.125, -0.125, 0.250, 0.000 },
	 {0.000, 0.000, 0.000, 0.000, -0.500, -0.125, 0.125, 0.250, 0.125, -0.125, 0.000, 0.125, 0.125, 0.000, -0.250, 0.000, -0.125, 0.000, 0.125, 0.000, -0.125, 0.000, 0.000, -0.125, -0.125, 0.000, 0.125, 0.125, 0.000, -0.125, 0.250, 0.000 },
	 {-0.250, 0.000, 0.000, 0.125, -0.500, 0.000, 0.125, 0.125, 0.125, -0.125, 0.000, 0.125, 0.125, 0.000, -0.250, 0.250, 0.000, 0.250, 0.000, -0.125, -0.125, 0.000, 0.125, 0.000, -0.125, 0.000, 0.000, 0.000, -0.125, -0.125, 0.000, -0.125 },
	 {-0.250, -0.125, 0.000, 0.125, -0.500, 0.125, 0.000, 0.125, 0.000, 0.125, 0.000, -0.125, 0.125, -0.125, -0.125, 0.125, 0.125, 0.125, -0.125, 0.000, -0.250, -0.250, 0.125, 0.000, 0.000, 0.000, 0.000, 0.000, 0.125, -0.125, 0.000, -0.125 },
	 {-0.250, -0.250, 0.000, 0.125, -1.000, 0.000, 0.125, 0.125, 0.125, 0.250, 0.125, -0.125, 0.125, -0.125, -0.125, 0.250, 0.250, 0.000, 0.000, -0.125, -0.250, 0.000, 0.125, 0.000, 0.250, 0.000, -0.250, 0.125, -0.125, -0.250, 0.000, 0.000 },
	 {-0.250, 0.000, 0.000, 0.125, -0.500, -0.125, 0.125, 0.000, 0.000, 0.250, 0.250, -0.125, 0.125, -0.250, 0.000, 0.250, 0.250, 0.000, -0.125, -0.125, -0.250, -0.125, -0.250, -0.125, 0.250, 0.000, -0.125, 0.000, -0.125, -0.125, 0.125, 0.000 },
	 {0.000, 0.125, 0.000, 0.250, -0.250, -0.250, 0.500, 0.000, -0.125, 0.125, 0.500, -0.250, 0.125, -0.250, 0.000, 0.000, 0.125, 0.000, -0.125, 0.000, -0.250, -0.125, -0.250, -0.125, 0.250, -0.125, 0.000, -0.125, -0.125, 0.000, 0.000, 0.125 },
	 {0.250, 0.250, 0.000, 0.125, 0.125, -0.250, 0.250, -0.125, -0.125, 0.000, 0.500, -0.250, 0.250, -0.125, -0.125, 0.125, -0.125, 0.125, 0.000, 0.000, -0.125, 0.125, 0.000, -0.250, 0.250, -0.125, -0.125, 0.000, -0.250, -0.125, -0.125, 0.000 },
	 {0.250, 0.250, 0.125, 0.000, 0.125, -0.250, 0.000, -0.500, 0.000, 0.125, 0.000, -0.125, 0.250, 0.000, 0.000, 0.125, -0.250, 0.125, 0.000, 0.000, 0.000, 0.125, 0.000, -0.250, 0.125, -0.125, 0.250, 0.125, 0.000, 0.000, -0.250, 0.000 },
	 {0.125, 0.250, 0.000, 0.125, 0.000, -0.250, 0.000, -0.500, 0.250, 0.000, -0.125, -0.125, 0.000, 0.000, 0.000, 0.125, -0.250, 0.000, 0.000, -0.125, -0.125, 0.125, -0.125, -0.125, -0.125, -0.250, 0.125, 0.000, 0.125, -0.125, -0.125, 0.000 },
	 {0.250, 0.250, -0.250, 0.125, 0.125, -0.125, 0.000, -0.250, 0.250, 0.000, -0.250, 0.000, 0.000, -0.125, 0.000, 0.000, 0.000, 0.000, 0.000, -0.125, 0.000, 0.125, 0.000, 0.000, 0.000, -0.250, 0.000, -0.125, 0.000, 0.000, 0.000, -0.125 },
	 {0.000, 0.250, -0.250, 0.000, 0.000, -0.125, 0.125, 0.000, 0.000, 0.000, -0.250, 0.000, 0.000, -0.125, 0.000, -0.125, -0.125, 0.000, -0.250, -0.125, 0.125, 0.125, -0.250, 0.000, 0.000, -0.250, 0.000, 0.000, 0.000, 0.250, 0.125, 0.125 },
	 {-0.125, 0.125, -0.125, 0.125, 0.000, -0.250, 0.125, 0.000, 0.125, 0.000, 0.125, 0.125, -0.125, 0.000, -0.125, -0.125, 0.000, 0.000, -0.125, 0.000, -0.125, 0.125, -0.125, 0.125, -0.125, -0.125, -0.250, -0.125, 0.125, 0.125, 0.000, 0.000 },
	 {0.000, 0.125, -0.125, 0.125, -0.125, 0.000, 0.000, -0.125, 0.000, -0.125, 0.250, 0.000, 0.000, 0.000, -0.125, 0.000, 0.125, 0.000, 0.000, 0.000, -0.250, 0.000, -0.250, 0.250, 0.000, -0.250, -0.500, 0.000, 0.125, 0.125, 0.000, 0.000 },
	 {0.000, -0.250, 0.000, 0.125, -0.125, -0.125, -0.250, 0.000, 0.125, -0.125, 0.000, 0.125, -0.125, 0.125, 0.000, 0.125, 0.000, 0.125, 0.125, -0.125, -0.500, 0.125, -0.125, 0.250, 0.000, -0.125, -0.250, 0.000, 0.125, 0.125, 0.125, 0.250 },
	 {-0.125, -0.125, 0.125, 0.000, 0.125, 0.000, -0.500, 0.125, 0.250, -0.250, 0.125, 0.000, -0.125, 0.000, 0.000, 0.000, 0.000, -0.125, 0.000, -0.125, -0.125, 0.125, -0.125, 0.250, 0.000, -0.125, 0.000, -0.125, 0.125, -0.125, 0.125, 0.000 },
	 {-0.250, 0.125, 0.125, 0.250, 0.000, 0.125, -0.250, 0.250, 0.125, -0.250, 0.125, 0.000, -0.250, 0.125, -0.125, -0.125, 0.125, -0.125, 0.250, -0.125, 0.000, 0.125, 0.000, 0.250, -0.250, 0.000, 0.125, 0.000, 0.125, -0.250, 0.125, -0.125 },
	 {-0.250, 0.000, 0.250, 0.250, 0.000, 0.125, -0.250, 0.125, -0.125, -0.250, 0.125, 0.000, -0.250, 0.250, -0.125, 0.000, 0.125, 0.000, 0.500, 0.000, -0.125, 0.000, 0.000, 0.500, 0.000, 0.125, 0.250, 0.000, 0.125, -0.250, 0.000, -0.250 },
	 {-0.500, 0.125, 0.500, 0.125, 0.125, 0.250, -0.250, 0.250, 0.000, -0.500, 0.250, -0.250, -0.250, 0.250, -0.125, -0.125, 0.500, 0.000, 0.250, 0.000, 0.000, -0.250, -0.125, 0.250, 0.125, 0.250, 0.250, 0.000, 0.250, -0.500, -0.250, -0.250 },
	 {-0.125, 0.000, 0.250, 0.125, 0.250, 0.125, 0.000, -0.125, 0.125, -0.500, 0.250, 0.000, -0.125, 0.250, 0.250, 0.000, 0.500, 0.250, -0.125, -0.125, 0.000, 0.000, 0.000, 0.000, 0.250, 0.250, 0.000, 0.125, 0.000, 0.000, -0.125, -0.250 },
	 {-0.125, -0.125, 0.250, -0.125, 0.125, 0.000, 0.250, 0.000, 0.000, 0.000, 0.250, 0.000, 0.000, 0.125, 0.125, 0.000, 0.000, 0.125, -0.250, -0.125, 0.125, 0.000, -0.125, 0.250, 0.125, 0.250, -0.125, 0.000, 0.000, 0.125, 0.000, -0.125 },
	 {0.125, 0.000, 0.000, 0.000, 0.000, 0.000, 0.000, 0.000, -0.125, 0.000, 0.125, 0.125, -0.125, 0.000, 0.000, 0.000, 0.000, 0.000, 0.000, 0.125, 0.125, 0.000, -0.125, 0.125, 0.000, 0.125, 0.000, 0.000, 0.000, 0.125, 0.000, 0.000 },
	 {0.000, 0.000, -0.125, 0.000, 0.000, 0.000, 0.000, 0.000, -0.125, 0.000, 0.000, 0.000, 0.000, 0.000, 0.000, -0.125, 0.000, 0.000, 0.000, 0.000, -0.125, -0.125, 0.125, 0.000, 0.000, 0.125, 0.000, 0.000, -0.125, -0.125, 0.125, 0.000 },
	 {0.000, -0.125, 0.000, 0.000, 0.000, -0.125, 0.000, 0.000, 0.000, 0.125, 0.000, 0.000, 0.125, 0.000, 0.000, 0.000, 0.000, 0.125, 0.125, 0.000, 0.000, 0.000, 0.000, -0.125, 0.000, -0.125, 0.000, 0.000, 0.000, -0.125, 0.000, 0.000 },
	 {0.000, -0.125, 0.000, -0.125, 0.125, -0.125, -0.125, 0.125, 0.000, 0.000, -0.125, 0.250, -0.125, 0.125, 0.125, 0.250, 0.000, 0.125, 0.250, -0.125, 0.125, 0.000, 0.125, -0.250, 0.000, 0.000, 0.000, 0.000, 0.250, 0.000, 0.250, 0.000 },
	 {-0.125, 0.000, 0.125, 0.125, -0.250, 0.125, 0.000, 0.000, 0.250, 0.000, 0.125, 0.125, -0.125, -0.250, 0.125, 0.500, 0.250, 0.000, 0.000, -0.125, 0.125, 0.000, 0.125, -0.250, 0.125, -0.125, -0.125, 0.000, 0.125, 0.000, 0.250, 0.000 },
	 {-0.125, -0.125, -0.125, 0.000, -0.500, 0.250, 0.250, 0.125, 0.250, 0.000, 0.000, 0.250, -0.250, -0.500, 0.125, 0.125, -0.125, 0.125, -0.125, -0.125, 0.125, 0.125, 0.125, 0.250, 0.000, -0.500, 0.000, 0.000, 0.125, 0.000, 0.125, 0.125 },
	 {-0.125, -0.250, 0.000, 0.000, -0.500, 0.250, -0.125, 0.250, 0.125, 0.125, 0.000, 0.250, -0.125, -0.125, 0.000, 0.125, -0.125, 0.000, 0.125, 0.000, 0.125, -0.250, 0.125, 0.250, 0.000, -0.125, 0.125, 0.000, 0.250, -0.250, 0.125, 0.125 },
	 {0.000, 0.125, 0.125, 0.000, -1.000, 0.250, 0.125, 0.000, -0.125, 0.000, 0.250, 0.125, 0.125, 0.125, -0.125, 0.000, -0.125, 0.000, 0.125, -0.125, -0.250, -0.125, 0.125, 0.125, 0.250, -0.125, 0.125, 0.000, 0.000, -0.125, 0.125, 0.125 },
	 {0.000, 0.000, 0.000, 0.000, -1.000, 0.125, 0.250, 0.250, 0.125, -0.125, 0.000, 0.000, 0.000, 0.000, -0.125, 0.000, -0.125, -0.125, 0.000, 0.000, -0.125, -0.125, 0.125, 0.125, 0.250, 0.000, 0.125, -0.125, 0.000, -0.125, 0.125, 0.000 },
	 {-0.125, -0.125, 0.125, 0.000, -1.000, 0.000, 0.125, 0.125, 0.000, -0.125, 0.000, -0.125, 0.000, 0.000, -0.125, 0.125, 0.000, 0.125, 0.125, -0.250, -0.125, 0.000, 0.125, 0.125, 0.250, 0.125, 0.000, -0.125, -0.125, -0.125, 0.000, 0.000 },
	 {-0.125, 0.000, 0.125, 0.000, -1.000, 0.000, 0.000, 0.000, 0.125, 0.125, 0.000, -0.250, 0.125, 0.000, 0.000, 0.250, 0.125, 0.125, 0.000, 0.000, -0.125, 0.125, 0.125, 0.125, 0.500, 0.000, 0.000, 0.000, -0.125, -0.250, 0.125, 0.000 },
	 {-0.125, -0.125, 0.125, 0.250, -0.500, -0.250, 0.125, 0.125, 0.000, 0.125, 0.000, -0.250, 0.000, 0.125, 0.000, 0.125, 0.125, -0.250, 0.000, 0.000, -0.125, 0.125, 0.125, 0.000, 0.250, 0.125, -0.125, 0.125, -0.125, -0.250, 0.125, 0.000 },
	 {-0.125, 0.000, 0.125, 0.250, 0.000, -0.250, 0.250, 0.125, 0.000, 0.125, 0.250, -0.250, 0.000, 0.000, 0.125, 0.250, 0.250, -0.125, 0.000, -0.125, -0.125, 0.125, 0.000, 0.125, 0.250, 0.125, -0.125, 0.000, -0.125, -0.250, -0.125, -0.125 },
	 {0.000, 0.125, 0.000, 0.250, 0.125, -0.250, 0.250, 0.000, -0.125, 0.125, 0.250, -0.250, 0.000, -0.125, 0.125, 0.250, 0.125, 0.000, 0.000, 0.000, -0.125, 0.125, -0.125, 0.000, 0.125, 0.000, -0.125, 0.000, -0.125, -0.125, 0.125, 0.000 },
	 {0.125, 0.125, 0.250, 0.125, 0.125, -0.500, 0.125, -0.250, 0.000, 0.000, 0.250, -0.250, 0.000, 0.125, -0.125, 0.250, 0.000, 0.000, 0.000, 0.000, -0.125, 0.125, -0.125, 0.000, 0.000, -0.250, 0.000, 0.125, 0.000, 0.000, -0.125, 0.000 },
	 {0.250, 0.125, 0.250, 0.125, 0.000, -0.250, 0.000, -0.500, 0.000, 0.125, 0.125, -0.125, 0.125, 0.250, 0.000, 0.250, 0.000, 0.250, 0.125, 0.125, 0.000, 0.125, -0.125, -0.125, 0.125, -0.250, 0.250, 0.125, 0.125, 0.000, 0.000, 0.000 },
	 {0.125, 0.125, 0.000, 0.125, 0.125, 0.000, -0.125, -0.500, 0.125, -0.125, 0.000, 0.000, 0.125, 0.125, 0.000, 0.250, -0.125, 0.125, 0.125, 0.000, 0.000, 0.125, 0.125, -0.125, 0.000, -0.125, 0.125, 0.000, 0.000, -0.125, 0.000, 0.125 },
	 {0.125, 0.000, -0.250, 0.125, 0.000, 0.000, 0.000, -0.250, 0.250, -0.125, -0.125, -0.125, 0.000, 0.000, 0.000, 0.000, -0.125, 0.125, 0.125, -0.250, 0.000, 0.000, 0.125, -0.125, 0.000, -0.250, 0.125, 0.000, 0.000, 0.000, 0.000, 0.000 },
	 {0.000, -0.125, -0.250, 0.000, 0.000, -0.125, 0.125, 0.000, 0.250, 0.000, -0.125, 0.000, -0.125, 0.000, 0.125, 0.000, -0.125, 0.000, -0.125, -0.125, 0.000, 0.000, 0.000, 0.125, 0.000, -0.125, -0.250, 0.000, 0.000, 0.125, 0.125, 0.000 },
	 {0.000, -0.250, 0.000, -0.125, 0.000, -0.125, 0.250, 0.000, 0.250, -0.125, 0.000, 0.000, -0.125, 0.000, 0.000, 0.000, -0.125, -0.125, -0.125, 0.000, 0.125, 0.125, 0.000, 0.125, 0.000, -0.125, -0.250, 0.000, 0.000, 0.000, 0.000, 0.125 },
	 {-0.125, -0.125, -0.125, 0.125, 0.125, -0.125, 0.000, 0.000, 0.125, -0.125, -0.125, 0.125, -0.125, 0.000, 0.000, -0.125, 0.000, 0.000, 0.000, -0.250, -0.250, 0.125, 0.125, 0.250, 0.000, -0.125, -0.250, 0.125, 0.000, 0.000, 0.000, 0.125 },
	 {-0.125, -0.250, 0.000, 0.000, -0.125, 0.125, -0.125, 0.125, 0.250, 0.000, 0.000, 0.125, -0.125, 0.000, 0.000, 0.000, -0.125, 0.000, 0.000, 0.000, -0.500, 0.125, 0.000, 0.250, 0.125, 0.000, -0.125, 0.000, -0.125, -0.250, 0.125, 0.250 },
	 {0.000, -0.125, 0.125, 0.000, 0.000, 0.000, -0.250, 0.000, 0.125, 0.125, 0.000, 0.000, 0.000, 0.125, 0.125, -0.125, -0.250, -0.125, 0.125, 0.125, -0.250, 0.250, 0.000, 0.500, 0.000, -0.125, 0.125, 0.000, 0.000, -0.250, 0.125, 0.000 },
	 {0.000, -0.125, 0.125, 0.125, -0.125, 0.250, -0.250, 0.000, 0.125, -0.125, 0.000, 0.000, 0.000, 0.125, 0.000, 0.125, -0.125, 0.000, 0.250, -0.125, -0.125, 0.125, -0.125, 0.500, 0.000, 0.000, 0.125, 0.125, 0.000, -0.500, 0.000, 0.000 },
	 {-0.125, 0.000, 0.250, -0.250, -0.125, 0.125, -0.125, 0.250, 0.125, -0.500, 0.000, 0.000, 0.000, 0.125, -0.125, 0.000, -0.125, -0.125, 0.500, 0.000, -0.125, 0.125, 0.125, 0.250, -0.125, 0.250, 0.250, 0.000, 0.250, -0.250, -0.125, 0.000 },
	 {-0.250, 0.250, 0.500, -0.125, 0.000, 0.125, 0.125, 0.250, 0.000, -0.500, 0.125, -0.125, -0.125, 0.125, 0.125, -0.125, 0.000, 0.000, 0.500, -0.125, 0.000, -0.125, 0.000, 0.125, 0.125, 0.250, 0.500, 0.125, 0.125, -0.250, 0.000, 0.000 },
	 {-0.125, 0.500, 0.500, 0.125, -0.125, 0.125, 0.125, -0.125, 0.000, -0.250, 0.250, -0.250, 0.125, 0.250, 0.000, -0.125, 0.250, 0.125, 0.000, -0.125, -0.125, -0.125, 0.000, 0.125, 0.250, 0.000, 0.000, 0.250, 0.125, 0.000, -0.125, -0.250 },
